0.00370678, -0.000616392, -0.55848, 6.38645e-05, -0.000248018, 0.000146017, 0.0316228, 0.0316228, 0.0316228, 0.0316228, 0.0316228, 0.0316228
0.00370678, -0.000616392, -0.55848, 6.38645e-05, -0.000248018, 0.000146017, 0.173642, 0.173642, 0.173642, 0.0316228, 0.0316228, 0.0316228
0.00304179, -0.00125022, -0.55482, -3.29663e-05, 0.00022683, 7.83094e-05, 0.194306, 0.194298, 0.19426, 0.0315696, 0.0315703, 0.0316069
0.00318277, -0.00289301, -0.554354, -0.000287037, 0.000134331, -3.75503e-05, 0.212613, 0.212561, 0.212292, 0.031474, 0.0314788, 0.031591
0.00247983, -0.004376, -0.575363, -0.000450152, -6.60086e-05, -0.000164405, 0.228982, 0.228923, 0.227758, 0.0313211, 0.0313268, 0.0315751
7.1905e-05, -0.00461852, -0.62079, -0.000457453, 0.000474488, -0.000320433, 0.243842, 0.243793, 0.240584, 0.031107, 0.031112, 0.0315592
0.0027166, -0.000429935, -0.710221, 1.74102e-05, -9.67939e-05, -0.000508683, 0.257529, 0.257481, 0.250833, 0.0308364, 0.0308415, 0.0315427
0.00222771, 0.00145699, -0.828842, 0.000270615, -0.000269132, -0.000819616, 0.270225, 0.270207, 0.258069, 0.0305054, 0.0305063, 0.0315234
-0.00522291, -0.00127941, -0.960455, -0.000299071, -0.00148786, -0.00124792, 0.282199, 0.282064, 0.263779, 0.0301243, 0.0301435, 0.0314881
-0.0209046, -0.00385674, -1.10129, -0.000904973, -0.00411985, -0.00160251, 0.293251, 0.293164, 0.268024, 0.0297063, 0.0296881, 0.0313908
-0.0359752, -0.00341749, -1.21407, -0.000787614, -0.00569457, -0.00188747, 0.303451, 0.303516, 0.27105, 0.0292548, 0.0291958, 0.0313208
-0.0471409, -0.00185623, -1.25578, -0.000584173, -0.00555208, -0.00190829, 0.312788, 0.312935, 0.273471, 0.0287444, 0.0286784, 0.0312884
-0.055519, -0.00133304, -1.2528, -0.000565976, -0.00566827, -0.00179325, 0.32128, 0.321263, 0.276088, 0.0281641, 0.0281373, 0.0312694
-0.0554473, -0.00188494, -1.25662, -0.000604461, -0.00640983, -0.00165746, 0.329542, 0.328651, 0.280309, 0.0275471, 0.027665, 0.0312551
-0.0547544, -0.0013465, -1.24483, -0.000530807, -0.00691055, -0.0015722, 0.337589, 0.335626, 0.285025, 0.0269059, 0.0271945, 0.0312384
-0.0580502, -7.78105e-05, -1.19993, -0.000388847, -0.00759722, -0.00141432, 0.344955, 0.342365, 0.288474, 0.0262526, 0.0266487, 0.0312096
-0.0720442, -0.00296138, -1.11058, -0.000564358, -0.00877433, -0.00125186, 0.351534, 0.348889, 0.290226, 0.0256258, 0.0260437, 0.0311543
-0.0857953, -0.0102774, -1.00437, -0.000906266, -0.0107422, -0.00122799, 0.35726, 0.355212, 0.290008, 0.0250519, 0.025407, 0.0310839
-0.10825, -0.00996285, -0.851232, -0.000632437, -0.0122095, -0.000991737, 0.362009, 0.36132, 0.28689, 0.0245023, 0.0247033, 0.0310379
-0.126023, 0.00420348, -0.677666, 0.000989684, -0.0119348, -0.000341969, 0.366732, 0.36716, 0.281982, 0.0238902, 0.0239431, 0.0310192
-0.125682, 0.0239449, -0.510386, 0.00337365, -0.00956266, 0.000449052, 0.372919, 0.373393, 0.278801, 0.0231611, 0.0231773, 0.0308899
-0.105103, 0.0320146, -0.385513, 0.00482531, -0.00681985, 0.00139698, 0.380251, 0.380769, 0.279117, 0.022405, 0.0224402, 0.0305341
-0.0840253, 0.0266609, -0.299436, 0.00506965, -0.0050731, 0.00261567, 0.38788, 0.389031, 0.282024, 0.021754, 0.0217738, 0.0302193
-0.0759178, 0.0132417, -0.254302, 0.00436519, -0.00432863, 0.00357134, 0.39578, 0.397746, 0.2874, 0.0212324, 0.0211331, 0.0300922
-0.079623, -0.000548043, -0.223789, 0.00372923, -0.00351734, 0.00387894, 0.404004, 0.40659, 0.295602, 0.0208543, 0.0204642, 0.0300376
-0.0888502, -0.00921605, -0.213306, 0.00302577, -0.00264117, 0.00348892, 0.412183, 0.415317, 0.305322, 0.0205785, 0.0198101, 0.029901
-0.0935694, -0.0129573, -0.21333, 0.00231263, -0.00181806, 0.00263627, 0.420034, 0.423999, 0.315303, 0.0203592, 0.0192087, 0.0297004
-0.0895042, -0.0144973, -0.22132, 0.00140278, -0.0012402, 0.001618, 0.427737, 0.432638, 0.324853, 0.0201371, 0.0186433, 0.0294444
-0.0952368, -0.0200719, -0.21497, 0.000594289, -0.00057934, 0.000279079, 0.435382, 0.4411, 0.332973, 0.0198206, 0.0180934, 0.0291037
-0.0981602, -0.0237529, -0.213255, -0.000225665, -0.000412926, -0.000634936, 0.442616, 0.448771, 0.338285, 0.0193374, 0.0175802, 0.0287475
-0.0939324, -0.0222288, -0.222824, -0.00146682, -0.000536919, -0.00138273, 0.449616, 0.455005, 0.340159, 0.0186415, 0.0170905, 0.0284166
-0.081793, -0.00862359, -0.250106, -0.00328831, -0.000669239, -0.00210469, 0.456706, 0.459522, 0.339281, 0.0177487, 0.0166146, 0.0281522
-0.0759749, 0.00137909, -0.263274, -0.00359806, -0.000824155, -0.00200151, 0.464017, 0.462149, 0.336829, 0.0167132, 0.0161487, 0.0279828
-0.0724209, 0.0138941, -0.277997, -0.0042956, -0.0009948, -0.0021239, 0.471385, 0.46185, 0.334482, 0.0157482, 0.0157501, 0.027895
-0.0676457, 0.0292784, -0.291895, -0.00473446, -0.00119045, -0.00222235, 0.478786, 0.458887, 0.3338, 0.0149145, 0.0154149, 0.0278291
-0.063184, 0.0439104, -0.3022, -0.00496889, -0.00134456, -0.00235981, 0.486135, 0.454348, 0.335641, 0.0142319, 0.0151432, 0.027736
-0.0611921, 0.0463967, -0.297058, -0.00426085, -0.00135496, -0.00244149, 0.49327, 0.449122, 0.339777, 0.0137049, 0.0149323, 0.0275784
-0.0600719, 0.0485242, -0.291416, -0.00374947, -0.00132588, -0.00254786, 0.499806, 0.443678, 0.345794, 0.0133326, 0.0147912, 0.0273385
-0.0588573, 0.0512753, -0.285469, -0.00334, -0.00126416, -0.00265915, 0.505826, 0.43874, 0.353127, 0.0130537, 0.0146933, 0.0270208
-0.058686, 0.053541, -0.277294, -0.00289301, -0.00118019, -0.00275559, 0.511507, 0.434472, 0.361167, 0.0128258, 0.014622, 0.0266371
-0.059337, 0.0557114, -0.273203, -0.00271007, -0.00115673, -0.00278106, 0.516905, 0.430464, 0.369395, 0.0126264, 0.0145702, 0.0261884
-0.0596114, 0.058216, -0.269495, -0.0025707, -0.00113186, -0.00281441, 0.522289, 0.426649, 0.377561, 0.0124417, 0.0145286, 0.0256867
-0.0603177, 0.0599385, -0.268046, -0.00253282, -0.00110404, -0.00276272, 0.527769, 0.422824, 0.385534, 0.0122641, 0.0144926, 0.0251546
-0.0619801, 0.054276, -0.26247, -0.00228982, -0.00102936, -0.00269712, 0.533352, 0.419182, 0.393224, 0.0120967, 0.0144602, 0.0246156
-0.0644877, 0.0434428, -0.252633, -0.00189453, -0.000967171, -0.00270726, 0.538878, 0.416272, 0.400488, 0.0119555, 0.0144341, 0.0240745
-0.0673118, 0.0284032, -0.248345, -0.00170931, -0.000892686, -0.00250664, 0.544311, 0.414519, 0.407277, 0.0118459, 0.0144147, 0.023535
-0.0702236, 0.00644146, -0.24309, -0.00159746, -0.000770838, -0.00222692, 0.549704, 0.415272, 0.413598, 0.0117732, 0.0143993, 0.0230297
-0.0721004, -0.00794758, -0.24348, -0.00170659, -0.000691629, -0.00200168, 0.555037, 0.418869, 0.419279, 0.011726, 0.014387, 0.0225795
-0.0760306, -0.0237273, -0.235233, -0.00185199, -0.000631366, -0.00181899, 0.56051, 0.424325, 0.424223, 0.0116717, 0.0143738, 0.0221832
-0.0798846, -0.0376409, -0.228384, -0.00210753, -0.000652627, -0.0018551, 0.566001, 0.430668, 0.428017, 0.0115955, 0.0143605, 0.0218396
-0.0788863, -0.042, -0.232363, -0.00228728, -0.000721258, -0.00218515, 0.571457, 0.437838, 0.430309, 0.0114762, 0.0143467, 0.0215491
-0.0744709, -0.0414495, -0.244703, -0.0023563, -0.000763336, -0.00251078, 0.577032, 0.445734, 0.430955, 0.0112818, 0.0143292, 0.0212927
-0.0675337, -0.0375604, -0.274391, -0.00217324, -0.000813497, -0.00267437, 0.582799, 0.453968, 0.429676, 0.0109889, 0.0143027, 0.02106
-0.0530271, -0.0314417, -0.333266, -0.00145875, -0.000786507, -0.00268763, 0.588652, 0.462129, 0.42654, 0.0106096, 0.0142644, 0.0208389
-0.0339472, -0.0274727, -0.399749, -0.000519826, -0.000579813, -0.00255498, 0.594426, 0.470024, 0.422053, 0.0101796, 0.0142113, 0.0206078
-0.0180648, -0.0272757, -0.449011, 0.000243521, -0.000387023, -0.00244011, 0.599859, 0.477752, 0.416641, 0.0097563, 0.014146, 0.0203697
-0.0200072, -0.0262745, -0.438908, 5.88477e-05, -0.000394197, -0.00247697, 0.605015, 0.48553, 0.409974, 0.00938109, 0.0140795, 0.0201616
-0.0330207, -0.0165024, -0.381642, -0.0010468, -0.000435486, -0.00252373, 0.610394, 0.492979, 0.401031, 0.00903919, 0.0140186, 0.0200206
-0.0420951, -0.000520487, -0.321991, -0.00229781, -0.000423005, -0.00257683, 0.615933, 0.499179, 0.389449, 0.00869087, 0.0139528, 0.019944
-0.038798, -0.00429665, -0.326581, -0.00244524, -0.000556305, -0.0026418, 0.621368, 0.503156, 0.376606, 0.00831495, 0.013867, 0.0199127
-0.0360514, -0.0131179, -0.338557, -0.00235846, -0.000619327, -0.00267291, 0.626861, 0.504942, 0.364686, 0.00793829, 0.0137538, 0.0198972
-0.0363473, -0.0177102, -0.341791, -0.00237767, -0.000544414, -0.00268147, 0.632365, 0.504417, 0.353827, 0.00758312, 0.0136231, 0.019886
-0.0373668, -0.0287547, -0.3595, -0.0020337, -0.000595985, -0.00268407, 0.63776, 0.500893, 0.343629, 0.00725542, 0.0134864, 0.0198782
-0.0384278, -0.0487136, -0.39267, -0.00140705, -0.000613238, -0.00270215, 0.643089, 0.493985, 0.334643, 0.00696045, 0.0133546, 0.0198719
-0.041994, -0.0737186, -0.439493, -0.000532863, -0.000669753, -0.00279696, 0.648421, 0.484033, 0.327918, 0.00669608, 0.0132278, 0.0198647
-0.0462778, -0.10077, -0.492104, 0.000422098, -0.000759511, -0.00298199, 0.653762, 0.471584, 0.323951, 0.00645777, 0.0131013, 0.019856
-0.0488856, -0.12955, -0.538195, 0.00122263, -0.000654893, -0.00322588, 0.659088, 0.457642, 0.322649, 0.00624954, 0.0129771, 0.0198427
-0.0511112, -0.153757, -0.583695, 0.00196832, -0.000400337, -0.00356675, 0.664349, 0.443675, 0.323609, 0.00607435, 0.0128599, 0.0198262
-0.052199, -0.173229, -0.630969, 0.0026783, -1.08472e-05, -0.00397157, 0.66951, 0.430811, 0.326172, 0.00592842, 0.0127474, 0.0198064
-0.0529591, -0.180002, -0.673838, 0.00323125, 0.000417853, -0.00428983, 0.674479, 0.419527, 0.329717, 0.00580823, 0.0126389, 0.0197817
-0.0557552, -0.18368, -0.70096, 0.00353365, 0.000850985, -0.00450503, 0.679049, 0.409779, 0.333848, 0.00571221, 0.0125351, 0.0197431
-0.0542365, -0.186151, -0.732176, 0.00383109, 0.00107989, -0.00448411, 0.683112, 0.401835, 0.338232, 0.0056409, 0.0124418, 0.019685
-0.0481141, -0.195855, -0.768377, 0.00413683, 0.00124965, -0.00438045, 0.686912, 0.39649, 0.342705, 0.00559544, 0.0123586, 0.0196166
-0.0422824, -0.210368, -0.804121, 0.00438083, 0.00144011, -0.00437727, 0.690687, 0.394093, 0.347211, 0.0055717, 0.0122783, 0.0195359
-0.0394643, -0.22678, -0.838158, 0.00454314, 0.00156713, -0.00443913, 0.694516, 0.394373, 0.351546, 0.00556229, 0.0121944, 0.0194335
-0.0363282, -0.248032, -0.873389, 0.00462876, 0.00159993, -0.00450528, 0.698096, 0.396735, 0.355423, 0.00555873, 0.0121064, 0.0192836
-0.0371303, -0.26792, -0.900362, 0.00460726, 0.00158524, -0.00463725, 0.701454, 0.400825, 0.358618, 0.00555303, 0.0120113, 0.019071
-0.040933, -0.283233, -0.913446, 0.00451595, 0.00154935, -0.00476264, 0.704453, 0.406018, 0.360824, 0.00553592, 0.0119106, 0.018777
-0.0426118, -0.29573, -0.911906, 0.00437594, 0.00143721, -0.00465898, 0.706875, 0.411685, 0.361641, 0.00550202, 0.0118152, 0.0184072
-0.0418428, -0.313156, -0.907317, 0.00411883, 0.00125759, -0.00441809, 0.708744, 0.417526, 0.360651, 0.0054506, 0.0117302, 0.0179858
-0.0437267, -0.326381, -0.8882, 0.00388289, 0.00105013, -0.00409667, 0.710634, 0.423657, 0.357494, 0.00538071, 0.011643, 0.017521
-0.0515254, -0.332961, -0.842282, 0.00383188, 0.000774972, -0.00358885, 0.712461, 0.430166, 0.352466, 0.00529653, 0.0115579, 0.0170606
-0.0672482, -0.343807, -0.779772, 0.0039247, 0.000383635, -0.00296426, 0.714031, 0.436942, 0.34644, 0.00520195, 0.0114822, 0.0166658
-0.07287, -0.357625, -0.723898, 0.00408434, -9.48532e-05, -0.00197094, 0.715062, 0.443387, 0.340255, 0.00510434, 0.0114221, 0.0163685
-0.0736045, -0.376503, -0.677379, 0.00425211, -0.000497852, -0.0011166, 0.715831, 0.448924, 0.334624, 0.00500465, 0.0113713, 0.0161677
-0.0762118, -0.401272, -0.634405, 0.00447398, -0.000871264, -0.000429922, 0.717227, 0.453096, 0.329955, 0.00489941, 0.0113166, 0.0160227
-0.0783641, -0.425167, -0.606883, 0.00462085, -0.00119772, 4.10987e-05, 0.719109, 0.455237, 0.326309, 0.00479514, 0.0112616, 0.0159259
-0.0741666, -0.437724, -0.594868, 0.00470321, -0.00142794, 0.000370416, 0.721536, 0.454802, 0.323704, 0.00469309, 0.011206, 0.0158714
-0.0646401, -0.434568, -0.594808, 0.00470958, -0.00161581, 0.00060548, 0.724633, 0.451511, 0.322438, 0.00458711, 0.011147, 0.0158505
-0.0637751, -0.434384, -0.603552, 0.00461231, -0.00179719, 0.000648226, 0.728338, 0.445314, 0.322599, 0.00447503, 0.0110848, 0.0158443
-0.0685376, -0.448064, -0.608249, 0.00458477, -0.00191212, 0.000633807, 0.732552, 0.436355, 0.323641, 0.00436594, 0.0110201, 0.0158374
-0.0639802, -0.442717, -0.601422, 0.0046355, -0.00190829, 0.00066194, 0.73705, 0.424678, 0.32517, 0.00426652, 0.0109597, 0.0158236
-0.0695223, -0.436494, -0.638315, 0.00431123, -0.00195375, 0.000671241, 0.741732, 0.411204, 0.327292, 0.00417214, 0.0109071, 0.0157871
-0.0668115, -0.440429, -0.623731, 0.00442039, -0.00185145, 0.000771934, 0.74672, 0.397679, 0.330179, 0.00408401, 0.0108434, 0.0157461
-0.0677397, -0.465456, -0.600561, 0.00465416, -0.00173752, 0.00088489, 0.751667, 0.38405, 0.333154, 0.00400459, 0.0107925, 0.0156813
-0.0761662, -0.493985, -0.616269, 0.00464925, -0.00167232, 0.00114377, 0.756244, 0.371022, 0.335729, 0.00393659, 0.0107639, 0.0155697
-0.0888787, -0.525428, -0.663656, 0.00450122, -0.00161031, 0.00159485, 0.76053, 0.360325, 0.338117, 0.00388417, 0.0107425, 0.0154405
-0.0940041, -0.547226, -0.682355, 0.00445032, -0.00145128, 0.00191138, 0.764666, 0.353066, 0.340553, 0.00384733, 0.0107203, 0.0153205
-0.0999404, -0.565442, -0.689242, 0.00444084, -0.00134289, 0.00209731, 0.768527, 0.349534, 0.343135, 0.00382386, 0.0107023, 0.0152172
-0.106028, -0.561166, -0.705936, 0.00439908, -0.00137503, 0.00212674, 0.771977, 0.349168, 0.345839, 0.0038095, 0.0106916, 0.0151095
-0.110866, -0.545686, -0.718228, 0.00437899, -0.00146673, 0.00207317, 0.775402, 0.350871, 0.348605, 0.00380031, 0.0106812, 0.0150002
-0.114468, -0.516673, -0.7307, 0.00439954, -0.00160837, 0.00195139, 0.778922, 0.353577, 0.351165, 0.00379251, 0.0106721, 0.0148803
-0.117497, -0.473579, -0.753881, 0.00447526, -0.00178661, 0.00188104, 0.782707, 0.35678, 0.353337, 0.0037826, 0.0106632, 0.0147486
-0.115932, -0.411929, -0.795588, 0.0046672, -0.00197818, 0.00190088, 0.786763, 0.360668, 0.355133, 0.00376703, 0.0106543, 0.0146051
-0.109811, -0.362072, -0.817987, 0.0049347, -0.00207233, 0.00194112, 0.790987, 0.365434, 0.356675, 0.00374317, 0.0106428, 0.0144454
-0.112552, -0.340831, -0.8093, 0.00513747, -0.0022026, 0.00197447, 0.795029, 0.371118, 0.357744, 0.0037126, 0.0106254, 0.0142797
-0.129019, -0.354555, -0.758546, 0.00508413, -0.00234148, 0.00176355, 0.798817, 0.377737, 0.357393, 0.00367634, 0.0106077, 0.0141414
-0.136791, -0.381795, -0.675308, 0.00471542, -0.00226851, 0.00133622, 0.802418, 0.384975, 0.354316, 0.00362861, 0.0105942, 0.0140604
-0.126126, -0.3927, -0.622306, 0.00439959, -0.00219437, 0.000972072, 0.805268, 0.392338, 0.348574, 0.00356469, 0.0105762, 0.014027
-0.11166, -0.399186, -0.574698, 0.00405364, -0.002106, 0.000717845, 0.807885, 0.399344, 0.341957, 0.0034907, 0.0105443, 0.0140105
-0.0978834, -0.400725, -0.529315, 0.00370356, -0.00200721, 0.000525026, 0.810425, 0.40543, 0.33567, 0.0034128, 0.0104925, 0.0139931
-0.0925985, -0.395253, -0.505887, 0.00354469, -0.00212591, 0.00051199, 0.812797, 0.409845, 0.330292, 0.00333803, 0.0104235, 0.0139703
-0.0972522, -0.387654, -0.509144, 0.00359838, -0.00240846, 0.000609575, 0.815146, 0.411929, 0.325638, 0.00327071, 0.0103509, 0.0139542
-0.104262, -0.38358, -0.51694, 0.00366765, -0.0024992, 0.000586934, 0.817681, 0.411465, 0.32114, 0.00320972, 0.0102815, 0.013946
-0.120301, -0.383627, -0.547845, 0.00386814, -0.00260355, 0.000501433, 0.820392, 0.408471, 0.316904, 0.00315461, 0.0102125, 0.0139356
-0.129045, -0.387364, -0.572911, 0.0039982, -0.00239849, 0.00044889, 0.823289, 0.403541, 0.313074, 0.00310606, 0.0101412, 0.0139195
-0.13468, -0.391923, -0.595416, 0.00409374, -0.00212842, 0.000462295, 0.826336, 0.397549, 0.310346, 0.00306499, 0.0100665, 0.0139045
-0.142849, -0.401198, -0.632322, 0.00425109, -0.00197587, 0.000434315, 0.829633, 0.391153, 0.309171, 0.00303198, 0.00999579, 0.0138955
-0.147161, -0.419452, -0.680046, 0.00443981, -0.00183039, 0.000382963, 0.833175, 0.38532, 0.30925, 0.0030079, 0.0099259, 0.01389
-0.143255, -0.446257, -0.724015, 0.00459728, -0.00156555, 0.00031315, 0.836952, 0.380982, 0.310485, 0.00299233, 0.00985048, 0.0138865
-0.134386, -0.470874, -0.744541, 0.00466877, -0.00117392, 0.000197774, 0.84095, 0.378525, 0.312629, 0.0029833, 0.00977017, 0.0138798
-0.131949, -0.47906, -0.743419, 0.00467353, -0.000885754, 8.61379e-05, 0.845153, 0.377645, 0.315101, 0.00297795, 0.00969304, 0.0138611
-0.134585, -0.480018, -0.729152, 0.00465078, -0.000794954, 8.28935e-05, 0.849308, 0.377694, 0.317278, 0.00297372, 0.00963, 0.0138244
-0.138472, -0.477259, -0.697151, 0.0045922, -0.000835252, 0.000219873, 0.852796, 0.377845, 0.318578, 0.00296794, 0.00958491, 0.0137627
-0.140427, -0.471903, -0.643637, 0.00447149, -0.000940249, 0.000499262, 0.854761, 0.377003, 0.318498, 0.00295774, 0.00955407, 0.0136598
-0.137158, -0.470911, -0.591551, 0.0043238, -0.00107215, 0.000868329, 0.855046, 0.374943, 0.317241, 0.00294235, 0.00952725, 0.0134998
-0.127836, -0.476141, -0.551446, 0.00418913, -0.00119003, 0.00128082, 0.854568, 0.372819, 0.315645, 0.00292485, 0.00949855, 0.0132933
-0.120339, -0.4829, -0.520535, 0.00408936, -0.00127022, 0.00159543, 0.854644, 0.371728, 0.314238, 0.00290872, 0.00946587, 0.01307
-0.125582, -0.483327, -0.482932, 0.00402242, -0.00137973, 0.00179304, 0.855924, 0.372088, 0.313148, 0.00289536, 0.00942725, 0.0128559
-0.136279, -0.481728, -0.444677, 0.00399277, -0.0015196, 0.00195551, 0.857857, 0.373633, 0.312449, 0.00288439, 0.00938677, 0.0126659
-0.148987, -0.482843, -0.407826, 0.00399169, -0.00167531, 0.00209297, 0.860172, 0.375957, 0.311996, 0.00287524, 0.00934729, 0.0125111
-0.160767, -0.499032, -0.376403, 0.00398914, -0.0018192, 0.00216131, 0.862749, 0.378647, 0.311626, 0.00286705, 0.0093085, 0.0123912
-0.172412, -0.54017, -0.35701, 0.00395563, -0.00184898, 0.00195813, 0.86563, 0.381497, 0.311299, 0.00285888, 0.0092654, 0.0122848
-0.181234, -0.598348, -0.369383, 0.00384215, -0.00156859, 0.00116877, 0.869004, 0.384582, 0.310924, 0.00284957, 0.00920396, 0.0121631
-0.191519, -0.643657, -0.379553, 0.00372045, -0.00116435, -1.05794e-05, 0.872213, 0.388251, 0.310528, 0.00283829, 0.00910428, 0.0119987
-0.18567, -0.671418, -0.416298, 0.00356264, -0.000745438, -0.00120273, 0.87396, 0.392654, 0.310421, 0.00282651, 0.00897008, 0.0118046
-0.172812, -0.682637, -0.461011, 0.00340643, -0.000395231, -0.00215892, 0.873717, 0.397604, 0.310473, 0.0028139, 0.00881056, 0.0116285
-0.202797, -0.699585, -0.450618, 0.00341853, -0.000555059, -0.00275425, 0.871547, 0.402674, 0.310532, 0.00280014, 0.00864185, 0.0115091
-0.256519, -0.723567, -0.394081, 0.0035814, -0.00108742, -0.00297556, 0.867436, 0.407567, 0.310254, 0.00278622, 0.00847918, 0.0114547
-0.277552, -0.734977, -0.380176, 0.00367401, -0.00142559, -0.00313556, 0.858858, 0.411863, 0.309239, 0.00277295, 0.00830438, 0.0114404
-0.249396, -0.735117, -0.363152, 0.00385418, -0.00159126, -0.00332727, 0.841572, 0.414975, 0.30749, 0.00275781, 0.00805805, 0.0114388
-0.102597, -0.722879, -0.329608, 0.0043246, -0.0012838, -0.00414488, 0.812909, 0.417211, 0.305125, 0.0027382, 0.00771289, 0.0114291
0.113725, -0.731218, -0.311226, 0.00519492, -0.000902591, -0.006783, 0.772785, 0.419248, 0.302675, 0.0027091, 0.00727371, 0.0113809
0.305441, -0.773458, -0.309249, 0.0063711, -0.000746667, -0.0111635, 0.725104, 0.422557, 0.300647, 0.00266772, 0.00677808, 0.0112758
0.485791, -0.784088, -0.327793, 0.00698048, 0.000180639, -0.0138963, 0.676101, 0.427642, 0.299593, 0.00261834, 0.00628185, 0.011135
0.628967, -0.768397, -0.347263, 0.0070882, 0.00128464, -0.0147777, 0.631303, 0.432473, 0.29945, 0.00256761, 0.00581348, 0.0109993
0.699371, -0.720402, -0.362795, 0.00678572, 0.00217157, -0.0141908, 0.593367, 0.435771, 0.299572, 0.00251736, 0.0053896, 0.0108782
0.703713, -0.636625, -0.392213, 0.0062314, 0.00274728, -0.0128457, 0.562734, 0.437529, 0.299455, 0.00246885, 0.00502469, 0.0107617
0.635646, -0.516983, -0.429491, 0.00548668, 0.00292274, -0.0107123, 0.5382, 0.438213, 0.298762, 0.00242224, 0.00472805, 0.0106347
0.496176, -0.3727, -0.470868, 0.00465005, 0.00258962, -0.00785349, 0.517821, 0.438641, 0.297189, 0.00237967, 0.00449398, 0.0104973
0.265316, -0.210945, -0.534091, 0.0037724, 0.00152266, -0.00426611, 0.500078, 0.439613, 0.294776, 0.00234435, 0.00431137, 0.0103713
-0.0487298, -0.0534874, -0.613194, 0.00301389, -0.000183166, -0.000732788, 0.484343, 0.441382, 0.291762, 0.00231795, 0.00417146, 0.0102815
-0.480249, 0.309815, -0.711553, 0.00164773, -0.0017192, 0.003581, 0.47019, 0.443759, 0.288821, 0.00230039, 0.00406616, 0.0102419
-0.785267, 0.501684, -0.777145, 0.000928038, -0.00324845, 0.00696898, 0.456615, 0.447541, 0.28746, 0.00228251, 0.0039884, 0.0101437
-0.974502, 0.599138, -0.803897, 0.000753941, -0.00395558, 0.00687462, 0.444392, 0.451064, 0.288669, 0.00227282, 0.00394463, 0.0100818
-1.07822, 0.62754, -0.829059, 0.000783791, -0.00429188, 0.00598856, 0.432685, 0.453551, 0.291507, 0.00226792, 0.00391287, 0.0100031
-1.22599, 0.634166, -0.877286, 0.000912372, -0.00469454, 0.00424225, 0.422249, 0.45566, 0.294884, 0.0022647, 0.0038866, 0.00981879
-1.19015, 0.734461, -0.871563, 0.000860278, -0.00408826, 0.00309574, 0.414608, 0.458221, 0.298469, 0.00226048, 0.0038623, 0.00953138
-1.03037, 0.885019, -0.837564, 0.000746135, -0.00337546, 0.00388156, 0.411078, 0.461103, 0.301756, 0.00225617, 0.00384301, 0.00922729
-0.947888, 1.04564, -0.834662, 0.000793678, -0.00303985, 0.00416145, 0.411869, 0.463855, 0.303976, 0.00225093, 0.00382215, 0.00891167
-0.84899, 1.08431, -0.83702, 0.00064242, -0.00364882, 0.00753507, 0.415893, 0.466077, 0.305759, 0.00224424, 0.00378614, 0.00858956
-0.774204, 1.11845, -0.933541, 0.000518963, -0.00428622, 0.0107307, 0.422384, 0.466915, 0.306667, 0.00223136, 0.00371052, 0.00821959
-0.752534, 1.21866, -1.11576, 0.000882929, -0.00431233, 0.011958, 0.429356, 0.466675, 0.307404, 0.00221216, 0.00359646, 0.0078569
-0.787658, 1.37455, -1.15909, 0.00102267, -0.00568112, 0.0149561, 0.436267, 0.466458, 0.308922, 0.00219011, 0.00347795, 0.00759592
-0.827076, 1.49905, -1.19009, 0.000821373, -0.00764098, 0.0186625, 0.442045, 0.466354, 0.31092, 0.00216355, 0.00334737, 0.00739186
-0.843519, 1.56293, -1.17063, 0.000330081, -0.00927566, 0.0212925, 0.446472, 0.466162, 0.312915, 0.00213392, 0.00321448, 0.00723576
-0.741836, 1.48086, -1.10934, -0.000572439, -0.00971299, 0.022144, 0.45022, 0.46482, 0.31428, 0.00210457, 0.00309283, 0.00713604
-0.660801, 1.5065, -1.01819, -0.00150547, -0.0106662, 0.0235244, 0.453533, 0.460956, 0.313571, 0.00207527, 0.00298307, 0.0070896
-0.616153, 1.61828, -0.946332, -0.00219012, -0.0117327, 0.024546, 0.455904, 0.454663, 0.311848, 0.00204641, 0.00287695, 0.00707305
-0.47473, 1.57959, -0.810077, -0.00295728, -0.011579, 0.0252393, 0.457188, 0.446047, 0.310304, 0.00201948, 0.00277313, 0.00706758
-0.285917, 1.41528, -0.700798, -0.00354394, -0.010535, 0.0261634, 0.456613, 0.435192, 0.308163, 0.00199243, 0.00267269, 0.00705298
-0.0737618, 1.08556, -0.616852, -0.00390382, -0.00863117, 0.0280482, 0.453753, 0.423032, 0.305604, 0.00196383, 0.00257901, 0.00701664
0.154246, 0.71955, -0.542299, -0.00419434, -0.00657114, 0.0304528, 0.447791, 0.410463, 0.302456, 0.00193192, 0.00249459, 0.00696028
0.374138, 0.411719, -0.471349, -0.00443752, -0.00481718, 0.0325962, 0.43832, 0.397872, 0.298924, 0.00189781, 0.00241846, 0.00689079
0.549905, 0.170663, -0.427896, -0.00455825, -0.00351815, 0.0342016, 0.426149, 0.385612, 0.295973, 0.00186631, 0.00235068, 0.00681374
0.670684, -0.00956163, -0.410988, -0.00457814, -0.00265254, 0.0353236, 0.412705, 0.374458, 0.2943, 0.00184067, 0.00229288, 0.00673475
0.776568, -0.202846, -0.420626, -0.0045305, -0.00187786, 0.036517, 0.398986, 0.365008, 0.293777, 0.00182142, 0.00224547, 0.00665615
1.05581, -0.394207, -0.436457, -0.00469634, -0.000761729, 0.0370738, 0.385772, 0.357549, 0.293797, 0.0018079, 0.0022072, 0.00657639
1.09313, -0.515094, -0.465655, -0.00463794, -0.000449501, 0.0379141, 0.373983, 0.352278, 0.294699, 0.00179993, 0.0021787, 0.00648236
1.12432, -0.596769, -0.487054, -0.00462561, -0.000249799, 0.0384806, 0.364618, 0.349333, 0.295593, 0.00179496, 0.00215795, 0.006388
1.18577, -0.641386, -0.510209, -0.00466863, -9.18322e-05, 0.0385817, 0.357804, 0.348511, 0.296445, 0.0017913, 0.00214451, 0.00628998
1.32095, -0.581593, -0.519768, -0.00468669, -1.90348e-05, 0.0370339, 0.353611, 0.349547, 0.297383, 0.00178755, 0.00213742, 0.00618327
1.44032, -0.484982, -0.481484, -0.00447935, -2.74151e-05, 0.0345686, 0.352321, 0.352298, 0.298733, 0.00178171, 0.00213538, 0.00605728
1.46361, -0.266153, -0.40843, -0.00398574, -5.96548e-05, 0.030985, 0.354001, 0.356203, 0.300152, 0.00177141, 0.0021348, 0.00591601
1.3815, -0.0767716, -0.332148, -0.00361844, 0.000132769, 0.0291259, 0.358382, 0.360849, 0.300763, 0.00175521, 0.00213213, 0.00577655
1.30394, 0.10727, -0.277764, -0.00319533, 0.000388498, 0.0273025, 0.363966, 0.365526, 0.299486, 0.00173771, 0.00212606, 0.00567686
1.28851, 0.313992, -0.355508, -0.00257589, 0.000476617, 0.0247048, 0.370319, 0.369886, 0.29694, 0.00171908, 0.00211579, 0.00560617
1.30846, 0.458488, -0.396398, -0.0019611, 0.000494368, 0.0227296, 0.377724, 0.373944, 0.294742, 0.00169748, 0.00209879, 0.00554932
1.27767, 0.513749, -0.410414, -0.00195951, 0.000765788, 0.0226542, 0.385453, 0.377501, 0.293404, 0.00167477, 0.00207602, 0.00550791
1.20134, 0.782593, -0.431194, -0.00156054, 0.00174997, 0.0214467, 0.392129, 0.380196, 0.291848, 0.00165604, 0.00205148, 0.00549042
1.16962, 1.0328, -0.439571, -0.00119057, 0.00262742, 0.0206192, 0.398602, 0.382277, 0.289827, 0.00163926, 0.00202472, 0.00548428
1.14947, 1.22257, -0.422651, -0.00102244, 0.00336199, 0.0201764, 0.404366, 0.383672, 0.288493, 0.00162505, 0.00199764, 0.00547878
1.04432, 1.31032, -0.389858, -0.00125648, 0.00391262, 0.0195418, 0.408548, 0.384211, 0.288231, 0.00161402, 0.00197209, 0.00546294
0.825809, 1.2518, -0.370921, -0.00171923, 0.00399128, 0.0181281, 0.410413, 0.384023, 0.288667, 0.00160553, 0.00194846, 0.00542818
0.550182, 1.1162, -0.378161, -0.00215133, 0.00372488, 0.0161541, 0.409706, 0.383437, 0.289268, 0.00159766, 0.00192601, 0.00537903
0.24967, 0.936604, -0.410512, -0.00248167, 0.00323043, 0.0138836, 0.406701, 0.382601, 0.289758, 0.00158942, 0.00190425, 0.00532626
-0.0473739, 0.723429, -0.465941, -0.0026632, 0.00259627, 0.011484, 0.401693, 0.381433, 0.289995, 0.0015806, 0.00188308, 0.00527314
-0.372577, 0.457609, -0.535038, -0.0027082, 0.0018094, 0.00866838, 0.395133, 0.379825, 0.290022, 0.00157112, 0.00186273, 0.00521784
-0.741328, 0.151082, -0.59188, -0.00264253, 0.000908803, 0.00537695, 0.38756, 0.377822, 0.289881, 0.00156086, 0.00184328, 0.0051588
-0.933364, -0.070629, -0.66503, -0.00244633, 0.000424221, 0.00321477, 0.379607, 0.375468, 0.28984, 0.00154956, 0.00182568, 0.00509049
-1.10271, -0.26059, -0.828614, -0.00224499, 0.000226102, 0.00147179, 0.372076, 0.372099, 0.29045, 0.00153906, 0.00181173, 0.00501658
-1.36586, -0.401446, -0.933349, -0.00215388, -6.2724e-05, -8.62408e-05, 0.366047, 0.368772, 0.291716, 0.00153024, 0.00180201, 0.0049461
-1.48627, -0.499347, -0.975403, -0.00204674, -0.000193581, -0.0010204, 0.361919, 0.366185, 0.293703, 0.00152239, 0.00179595, 0.00487312
-1.58246, -0.550059, -0.992067, -0.00198747, -0.000272609, -0.00150006, 0.359693, 0.363586, 0.295917, 0.00151573, 0.00179227, 0.00480494
-1.72091, -0.46346, -1.06073, -0.00208692, -0.000342277, -0.000841124, 0.35904, 0.361351, 0.298081, 0.00151028, 0.00178992, 0.00474203
-1.78533, -0.350672, -1.12739, -0.0021957, -0.000398927, 0.00010715, 0.35958, 0.360402, 0.300263, 0.0015061, 0.00178797, 0.00468156
-1.77697, -0.0777867, -1.18447, -0.00245659, -0.000656704, 0.00235118, 0.360817, 0.360512, 0.302024, 0.00150287, 0.00178512, 0.00462801
-1.61229, 0.0818786, -1.19383, -0.0027372, -0.00101742, 0.00372343, 0.362481, 0.361436, 0.303121, 0.00149972, 0.00178001, 0.00458489
-1.3774, 0.264053, -1.1246, -0.00308544, -0.0016079, 0.00498281, 0.363988, 0.362199, 0.302621, 0.00149664, 0.00177325, 0.00455416
-1.03668, 0.408407, -1.0873, -0.00354351, -0.00233109, 0.0059065, 0.365103, 0.3625, 0.300506, 0.00149349, 0.00176465, 0.00453255
-0.657449, 0.651048, -0.987876, -0.00405519, -0.00336966, 0.00667163, 0.366153, 0.362357, 0.297207, 0.00149031, 0.0017541, 0.00451996
-0.315224, 1.00899, -0.898767, -0.00451327, -0.00466169, 0.00696416, 0.367221, 0.361746, 0.293838, 0.00148707, 0.00174168, 0.00451509
-0.112197, 1.28053, -0.790005, -0.00477042, -0.00561457, 0.00671324, 0.368568, 0.3609, 0.291673, 0.00148364, 0.00172765, 0.00451384
0.0551881, 1.34625, -0.724262, -0.0049756, -0.00597663, 0.00632745, 0.370218, 0.359931, 0.291206, 0.00147994, 0.0017131, 0.0045095
0.212029, 1.27208, -0.670999, -0.00519662, -0.00588004, 0.00626424, 0.371452, 0.358321, 0.291461, 0.00147586, 0.00169993, 0.00449977
0.342802, 1.09694, -0.620434, -0.00541733, -0.00547963, 0.00679642, 0.371662, 0.355936, 0.291685, 0.00147054, 0.00168751, 0.00448151
0.431455, 0.859007, -0.575953, -0.0055913, -0.00495012, 0.00792684, 0.370305, 0.352947, 0.291575, 0.00146332, 0.00167491, 0.00445273
0.46505, 0.60897, -0.536214, -0.00566481, -0.00447624, 0.00932414, 0.367124, 0.34962, 0.291118, 0.00145433, 0.00166155, 0.00441652
0.454878, 0.375865, -0.497728, -0.00563893, -0.00412658, 0.0106821, 0.362328, 0.346196, 0.290214, 0.00144454, 0.00164677, 0.00437837
0.417959, 0.139343, -0.463549, -0.00554521, -0.00386212, 0.0120205, 0.356662, 0.342926, 0.289058, 0.0014353, 0.00163124, 0.00434247
0.324504, -0.0998194, -0.442702, -0.00536004, -0.00374053, 0.0133053, 0.350869, 0.340063, 0.287854, 0.0014273, 0.00161634, 0.00431139
0.196746, -0.339516, -0.43715, -0.0051458, -0.00372541, 0.014515, 0.345411, 0.337799, 0.286583, 0.00142085, 0.00160313, 0.00428582
0.392279, -0.560905, -0.469107, -0.00530996, -0.00327371, 0.0152274, 0.340597, 0.336164, 0.285227, 0.00141599, 0.00159197, 0.0042656
0.483671, -0.82312, -0.540706, -0.00536075, -0.00304493, 0.0161695, 0.336771, 0.334957, 0.284746, 0.00141291, 0.00158379, 0.00424551
0.546339, -1.12272, -0.595566, -0.00537986, -0.00288019, 0.0171234, 0.33417, 0.334385, 0.284831, 0.00141109, 0.00157801, 0.00422504
0.658865, -1.33628, -0.637729, -0.00543673, -0.00272442, 0.0174629, 0.332978, 0.334522, 0.285384, 0.00141006, 0.00157431, 0.00420086
0.724374, -1.46897, -0.663349, -0.00547747, -0.00267122, 0.0176093, 0.333093, 0.335391, 0.28649, 0.00140944, 0.00157244, 0.00417305
0.778386, -1.47284, -0.645228, -0.00544929, -0.00264056, 0.0173305, 0.334327, 0.337136, 0.287844, 0.00140804, 0.00157166, 0.00414109
0.826715, -1.40639, -0.587304, -0.00532894, -0.00258859, 0.0168808, 0.336277, 0.339723, 0.289114, 0.00140439, 0.00157089, 0.0041059
0.851427, -1.19595, -0.492567, -0.00498897, -0.00241438, 0.0160057, 0.33875, 0.34301, 0.290038, 0.0013973, 0.0015692, 0.00407012
0.76875, -0.962866, -0.415562, -0.00468621, -0.00209591, 0.0154134, 0.341398, 0.346845, 0.290139, 0.00138598, 0.00156557, 0.00403734
0.715508, -0.758923, -0.386837, -0.00434724, -0.00179282, 0.0146748, 0.344216, 0.350888, 0.289016, 0.00137187, 0.00155949, 0.00401219
0.795319, -0.562291, -0.458577, -0.00376153, -0.0016377, 0.0136, 0.347433, 0.354866, 0.287265, 0.00135615, 0.00155029, 0.00399284
0.907715, -0.425867, -0.528124, -0.00321654, -0.00159069, 0.0127799, 0.351172, 0.358544, 0.285731, 0.00133976, 0.00153739, 0.00397735
0.873499, -0.348558, -0.533174, -0.00317085, -0.00137206, 0.012607, 0.355205, 0.361577, 0.284738, 0.00132446, 0.00152208, 0.00396691
0.89249, -0.0720083, -0.504226, -0.00278844, -0.00081276, 0.0119857, 0.358969, 0.363787, 0.283916, 0.00131194, 0.00150636, 0.00396304
0.930138, 0.218851, -0.471043, -0.002518, -0.000204442, 0.0117217, 0.361831, 0.364951, 0.282989, 0.00130118, 0.00149134, 0.00396139
0.922674, 0.454896, -0.433514, -0.00249393, 0.00029634, 0.0116837, 0.363249, 0.364731, 0.282301, 0.00129275, 0.0014783, 0.00395592
0.873307, 0.645961, -0.419506, -0.002609, 0.000673783, 0.0116266, 0.363104, 0.363043, 0.282206, 0.00128645, 0.00146747, 0.00394221
0.7142, 0.718023, -0.429357, -0.00282842, 0.000821819, 0.0110424, 0.361639, 0.360169, 0.282819, 0.00128137, 0.00145823, 0.00391772
0.448197, 0.652194, -0.484063, -0.00302659, 0.000735151, 0.00965664, 0.359279, 0.356547, 0.283924, 0.0012767, 0.00144967, 0.00388485
0.0475868, 0.470286, -0.520066, -0.0031713, 0.000425629, 0.00736396, 0.356224, 0.352429, 0.285034, 0.00127179, 0.00144125, 0.00384599
-0.261251, 0.328236, -0.585517, -0.00321731, 0.000195754, 0.00548047, 0.352659, 0.347869, 0.285763, 0.00126586, 0.00143306, 0.00380076
-0.623576, 0.199815, -0.762985, -0.00322733, 8.13309e-05, 0.00326273, 0.348856, 0.343343, 0.286403, 0.00125952, 0.00142607, 0.00374886
-0.927034, 0.023591, -0.891394, -0.00308414, -7.20759e-05, 0.00105054, 0.345309, 0.33958, 0.287221, 0.00125308, 0.00142056, 0.00368868
-1.09032, -0.0762606, -0.935994, -0.00296341, -0.000152292, -0.000202082, 0.34256, 0.336829, 0.288326, 0.00124632, 0.00141662, 0.00362269
-1.23895, -0.159426, -0.959142, -0.00283042, -0.000195861, -0.00129328, 0.341133, 0.335059, 0.289818, 0.00123981, 0.00141411, 0.00355989
-1.43734, -0.211646, -0.968269, -0.00270778, -0.000225384, -0.00231681, 0.340916, 0.334272, 0.291435, 0.00123432, 0.00141244, 0.0035076
-1.54764, -0.111593, -0.950015, -0.0027786, -0.000260066, -0.00211131, 0.341334, 0.334382, 0.292935, 0.00123038, 0.00141145, 0.00346782
-1.65135, -0.0486686, -0.971116, -0.00277751, -0.000253586, -0.00208752, 0.342103, 0.334864, 0.294119, 0.0012282, 0.00141095, 0.00344194
-1.59773, 0.0207554, -0.999429, -0.002817, -0.000282426, -0.00173716, 0.342763, 0.335565, 0.29466, 0.00122734, 0.0014105, 0.00342598
-1.43063, 0.0565945, -0.991254, -0.00286947, -0.000369263, -0.00151984, 0.343216, 0.335986, 0.29437, 0.00122703, 0.00140973, 0.00341783
-1.19913, 0.053697, -0.982912, -0.00292239, -0.000483878, -0.0015471, 0.34315, 0.335804, 0.293117, 0.00122682, 0.00140868, 0.00341369
-0.946808, 0.0335862, -0.954882, -0.00295671, -0.00057925, -0.00185438, 0.342314, 0.335119, 0.290989, 0.00122668, 0.00140758, 0.00341003
-0.737892, 0.0439355, -0.827161, -0.00295769, -0.000626263, -0.00228083, 0.340763, 0.334178, 0.288419, 0.00122659, 0.00140642, 0.00340364
-0.530969, 0.140704, -0.689818, -0.00294199, -0.000670722, -0.00266405, 0.338613, 0.33307, 0.28578, 0.00122656, 0.00140488, 0.0033923
-0.315483, 0.234236, -0.597014, -0.00292452, -0.000684838, -0.00313945, 0.336358, 0.331726, 0.283554, 0.00122653, 0.00140253, 0.00337686
-0.064848, 0.351169, -0.453043, -0.00291558, -0.000642523, -0.00363226, 0.334539, 0.330081, 0.282195, 0.00122651, 0.00139926, 0.0033569
0.122561, 0.456912, -0.311881, -0.00291086, -0.00057573, -0.00398562, 0.333513, 0.327971, 0.282126, 0.00122649, 0.0013954, 0.00333511
0.248349, 0.499415, -0.261716, -0.00292191, -0.000542749, -0.00430998, 0.333328, 0.325748, 0.283142, 0.00122637, 0.00139122, 0.00331693
0.303879, 0.515037, -0.242358, -0.00293945, -0.000531896, -0.00443229, 0.333796, 0.323816, 0.284768, 0.00122586, 0.00138692, 0.00330345
0.355646, 0.511143, -0.192919, -0.00296453, -0.000481571, -0.00443589, 0.334618, 0.32237, 0.286467, 0.00122456, 0.00138221, 0.00329401
0.377165, 0.457871, -0.162013, -0.00298972, -0.000403422, -0.00430551, 0.335512, 0.3214, 0.287867, 0.00122223, 0.00137683, 0.00328598
0.375715, 0.389121, -0.144804, -0.00300709, -0.000317282, -0.00414297, 0.336247, 0.321047, 0.288631, 0.00121865, 0.00137064, 0.00327797
0.343107, 0.295956, -0.120316, -0.00300069, -0.000185339, -0.00398326, 0.336731, 0.321383, 0.288665, 0.00121386, 0.00136363, 0.00326855
0.282685, 0.156284, -0.111598, -0.00300488, -2.29408e-05, -0.0037388, 0.337053, 0.322289, 0.288386, 0.00120826, 0.00135559, 0.00325703
0.211668, 0.00345666, -0.137698, -0.00304094, 0.000100337, -0.00347132, 0.337083, 0.32378, 0.287707, 0.00120203, 0.00134719, 0.00324349
0.13338, -0.15576, -0.18865, -0.00310216, 0.000187792, -0.00319147, 0.336976, 0.325664, 0.287048, 0.00119572, 0.00133886, 0.00322771
0.0675978, -0.307389, -0.233409, -0.00317446, 0.000262368, -0.00297798, 0.33694, 0.327833, 0.286858, 0.00118988, 0.00133104, 0.00321115
0.0342227, -0.421597, -0.240214, -0.00321603, 0.000353077, -0.00299, 0.337135, 0.330236, 0.287094, 0.00118488, 0.00132476, 0.00319145
-0.016651, -0.584923, -0.358093, -0.00334874, 0.000383471, -0.00264812, 0.338016, 0.332872, 0.288031, 0.00118098, 0.00132064, 0.00316367
-0.16982, -0.862069, -0.581019, -0.00355151, 0.000486263, -0.00193491, 0.340328, 0.335714, 0.290322, 0.00117775, 0.0013178, 0.00313701
-0.267186, -1.20817, -0.795538, -0.00388896, 0.000600793, -0.00100014, 0.344268, 0.338663, 0.293741, 0.00117457, 0.00131575, 0.00311874
-0.295654, -1.55085, -0.897066, -0.00420915, 0.000689632, -0.000308915, 0.349543, 0.341359, 0.297512, 0.00117182, 0.00131422, 0.00310768
-0.30431, -1.81639, -0.997502, -0.00441393, 0.000719631, 0.000225497, 0.355398, 0.343443, 0.300848, 0.00117024, 0.00131312, 0.00310071
-0.303797, -2.00101, -1.11518, -0.00450256, 0.000728735, 0.000503244, 0.361134, 0.344742, 0.303223, 0.00116947, 0.00131227, 0.00309353
-0.29812, -2.0569, -1.23165, -0.00449782, 0.000764132, 0.000498657, 0.366689, 0.34536, 0.304757, 0.0011688, 0.00131104, 0.00308165
-0.269648, -1.96896, -1.34734, -0.00444013, 0.000842847, 0.000172602, 0.371393, 0.345307, 0.305182, 0.00116785, 0.00130919, 0.00306445
-0.248015, -1.74814, -1.44844, -0.00439855, 0.000992489, -0.000199677, 0.374771, 0.344615, 0.304368, 0.00116634, 0.00130639, 0.00304343
-0.204357, -1.41953, -1.49704, -0.00439374, 0.00115337, -0.000555758, 0.376634, 0.343428, 0.302387, 0.00116431, 0.00130251, 0.00302116
-0.175622, -1.05195, -1.45687, -0.00445548, 0.00124669, -0.000640826, 0.376869, 0.341796, 0.299471, 0.0011619, 0.00129751, 0.00300045
-0.181626, -0.66249, -1.31827, -0.00458872, 0.00121089, -0.000380847, 0.375397, 0.339727, 0.296021, 0.00115932, 0.00129171, 0.00298328
-0.198285, -0.293621, -1.15572, -0.00476864, 0.00109377, 0.000118769, 0.37203, 0.33718, 0.292476, 0.00115667, 0.00128563, 0.00297026
-0.220974, 0.0277144, -0.994932, -0.00496754, 0.000923987, 0.000760233, 0.36731, 0.334369, 0.289552, 0.00115407, 0.00127948, 0.00296026
-0.44414, 0.258034, -0.557072, -0.00521212, 0.000309511, 0.00200088, 0.361765, 0.331559, 0.287677, 0.00115148, 0.00127368, 0.00295055
-0.696699, 0.560596, -0.157606, -0.00556298, -0.000305886, 0.00348109, 0.356101, 0.328714, 0.287222, 0.00114832, 0.00126853, 0.00293819
-0.831868, 0.818264, 0.0457388, -0.00583949, -0.000649573, 0.00449776, 0.351554, 0.326544, 0.288283, 0.0011452, 0.00126429, 0.0029241
-0.880582, 1.06184, 0.105841, -0.00604158, -0.00081949, 0.00517122, 0.348571, 0.325511, 0.290445, 0.00114284, 0.00126096, 0.00291014
-0.832104, 1.2656, 0.0498607, -0.00614475, -0.000842451, 0.00559036, 0.346951, 0.325434, 0.293259, 0.00114102, 0.00125864, 0.00289477
-0.750749, 1.39824, -0.0244773, -0.00617733, -0.000827278, 0.00587362, 0.346376, 0.325915, 0.296216, 0.00113928, 0.00125697, 0.00287743
-0.679442, 1.49291, -0.0796374, -0.00618025, -0.000819034, 0.0061095, 0.345992, 0.326737, 0.298516, 0.00113732, 0.00125501, 0.0028593
-0.607442, 1.4984, -0.136752, -0.00617423, -0.000814154, 0.00626591, 0.346254, 0.327712, 0.300126, 0.00113471, 0.0012528, 0.00283912
-0.54139, 1.39152, -0.180716, -0.00621409, -0.000831587, 0.00644012, 0.346823, 0.328815, 0.300625, 0.00113124, 0.00124991, 0.00281664
-0.462281, 1.21331, -0.289467, -0.00625913, -0.000850236, 0.00669409, 0.34781, 0.329973, 0.299914, 0.00112684, 0.0012464, 0.0027923
-0.381377, 1.03685, -0.427621, -0.00630985, -0.0009074, 0.00706026, 0.349601, 0.331105, 0.29828, 0.00112171, 0.00124232, 0.00276748
-0.336368, 0.89344, -0.525059, -0.00636416, -0.000976382, 0.00735891, 0.352465, 0.332127, 0.296201, 0.00111635, 0.00123753, 0.00274424
-0.294216, 0.792456, -0.572262, -0.00644163, -0.00106299, 0.00766107, 0.356083, 0.33306, 0.29397, 0.00111146, 0.00123203, 0.00272377
-0.269408, 0.748713, -0.62059, -0.00647696, -0.0011372, 0.00785445, 0.359949, 0.333961, 0.291772, 0.00110743, 0.00122589, 0.00270647
-0.271218, 0.738334, -0.669573, -0.00647604, -0.00119003, 0.00793602, 0.363533, 0.33487, 0.289765, 0.00110429, 0.00121902, 0.00269198
-0.2813, 0.649204, -0.697476, -0.0065202, -0.00122576, 0.00807841, 0.366129, 0.335831, 0.288006, 0.00110188, 0.0012117, 0.00267911
-0.294512, 0.524801, -0.716484, -0.00658201, -0.00125295, 0.00825424, 0.367324, 0.336817, 0.286652, 0.0010999, 0.00120427, 0.00266733
-0.302988, 0.36206, -0.720568, -0.00665872, -0.00126139, 0.00845035, 0.366995, 0.337826, 0.285907, 0.00109817, 0.00119669, 0.00265679
-0.302614, 0.18627, -0.712274, -0.00673351, -0.00124871, 0.00862593, 0.365209, 0.338839, 0.285849, 0.00109657, 0.00118903, 0.00264775
-0.36134, 0.0146654, -0.736498, -0.00681298, -0.00129541, 0.0088298, 0.362091, 0.339917, 0.286387, 0.00109498, 0.00118223, 0.00263963
-0.382706, -0.141719, -0.744992, -0.00688312, -0.00130776, 0.00896627, 0.358259, 0.34111, 0.287493, 0.00109331, 0.00117706, 0.00263172
-0.368805, -0.316166, -0.724081, -0.00693958, -0.00127424, 0.00902913, 0.354664, 0.342353, 0.289211, 0.00109158, 0.00117345, 0.00262436
-0.447189, -0.564147, -0.818029, -0.00711044, -0.00136268, 0.00942685, 0.352062, 0.343568, 0.291392, 0.00108987, 0.00117122, 0.00261791
-0.460634, -0.944989, -0.937861, -0.00731344, -0.00141417, 0.00985197, 0.350953, 0.344677, 0.293682, 0.00108838, 0.00116997, 0.00261238
-0.341845, -1.34054, -1.00719, -0.00743001, -0.0014103, 0.0100144, 0.351584, 0.345558, 0.295736, 0.00108728, 0.00116947, 0.00260627
-0.208408, -1.62301, -0.983163, -0.00745285, -0.00142123, 0.0100091, 0.353803, 0.346134, 0.297373, 0.00108649, 0.00116917, 0.00259753
-0.11725, -1.73128, -0.947733, -0.00742799, -0.00146535, 0.0098913, 0.356948, 0.346334, 0.298495, 0.00108577, 0.0011685, 0.00258504
-0.0747146, -1.6943, -0.877057, -0.0073933, -0.00151337, 0.00977392, 0.360626, 0.346155, 0.299161, 0.0010849, 0.00116721, 0.0025683
-0.0593357, -1.55569, -0.764043, -0.00736244, -0.00157489, 0.00966891, 0.36464, 0.345656, 0.299411, 0.00108371, 0.00116506, 0.00254759
-0.0532302, -1.33638, -0.648078, -0.00733399, -0.00165453, 0.00946763, 0.36889, 0.344879, 0.299278, 0.0010822, 0.00116178, 0.00252391
-0.0786576, -1.03782, -0.528536, -0.00732876, -0.00171004, 0.00928793, 0.37289, 0.343893, 0.298643, 0.00108051, 0.00115765, 0.00250036
-0.151992, -0.685318, -0.424416, -0.00738024, -0.00170894, 0.00932634, 0.37554, 0.342695, 0.297117, 0.00107886, 0.00115403, 0.00248149
-0.257142, -0.331207, -0.355823, -0.00746393, -0.00168241, 0.0095087, 0.376766, 0.341447, 0.294961, 0.00107743, 0.00115082, 0.00246823
-0.382253, 0.0279643, -0.343476, -0.00755805, -0.00162498, 0.00973272, 0.377132, 0.340382, 0.292845, 0.00107643, 0.0011469, 0.00245966
-0.486936, 0.354781, -0.378131, -0.00762289, -0.00154031, 0.00990934, 0.376577, 0.339672, 0.291145, 0.00107591, 0.00114171, 0.00245507
-0.557687, 0.640195, -0.441977, -0.00765415, -0.00144491, 0.0100613, 0.374625, 0.339343, 0.289899, 0.00107575, 0.00113614, 0.00245362
-0.619163, 0.911697, -0.547687, -0.00765239, -0.00131979, 0.0102121, 0.371475, 0.339467, 0.289258, 0.00107574, 0.00113033, 0.00245318
-0.693131, 1.13211, -0.602742, -0.00763645, -0.00128834, 0.0103787, 0.367547, 0.339863, 0.289156, 0.00107566, 0.00112595, 0.00245031
-0.724569, 1.3617, -0.691742, -0.00761419, -0.00123055, 0.0106196, 0.363707, 0.340407, 0.289736, 0.00107531, 0.00112259, 0.00244281
-0.730806, 1.48462, -0.807781, -0.00757432, -0.00115548, 0.010694, 0.360726, 0.341072, 0.29099, 0.00107452, 0.0011202, 0.00243017
-0.658441, 1.63413, -0.901812, -0.00754776, -0.0010846, 0.0109736, 0.359154, 0.341833, 0.292777, 0.00107315, 0.00111863, 0.00241351
-0.563605, 1.77002, -0.997253, -0.00751113, -0.00101401, 0.0112548, 0.358295, 0.342626, 0.294746, 0.00107129, 0.00111706, 0.00239581
-0.511432, 1.77608, -0.997434, -0.00752331, -0.00101136, 0.0113904, 0.357008, 0.343439, 0.296402, 0.00106905, 0.00111474, 0.00237886
-0.503254, 1.65713, -0.949587, -0.00757379, -0.00105161, 0.0113917, 0.354732, 0.344116, 0.297417, 0.00106636, 0.00111146, 0.00236264
-0.495668, 1.47741, -0.89003, -0.00765065, -0.00110336, 0.0114233, 0.351691, 0.34462, 0.297863, 0.00106323, 0.00110741, 0.00234665
-0.464972, 1.2727, -0.844857, -0.00773006, -0.00113585, 0.0115281, 0.348742, 0.344999, 0.298095, 0.0010599, 0.0011034, 0.00233117
-0.420714, 1.06437, -0.815739, -0.00780298, -0.00114829, 0.0116733, 0.346779, 0.345334, 0.298379, 0.00105674, 0.00110029, 0.00231702
-0.352743, 0.858068, -0.815199, -0.00786197, -0.00114367, 0.0118675, 0.346099, 0.345719, 0.298726, 0.00105398, 0.00109824, 0.00230505
-0.28053, 0.677886, -0.841625, -0.00790605, -0.00113716, 0.0120571, 0.346682, 0.346271, 0.29899, 0.00105174, 0.00109689, 0.00229582
-0.211843, 0.534255, -0.903319, -0.00793417, -0.00114127, 0.012223, 0.348225, 0.347125, 0.29904, 0.00105001, 0.00109571, 0.00228937
-0.159237, 0.416838, -0.998681, -0.00795404, -0.00116376, 0.0123529, 0.350415, 0.348326, 0.298748, 0.00104868, 0.00109433, 0.00228525
-0.121122, 0.318295, -1.13076, -0.00797755, -0.00121335, 0.0124695, 0.352873, 0.349862, 0.298114, 0.00104761, 0.00109267, 0.00228281
-0.0986792, 0.241415, -1.2714, -0.00801149, -0.00128447, 0.0125691, 0.355299, 0.351583, 0.297126, 0.00104665, 0.00109078, 0.00228134
-0.0889573, 0.192506, -1.37708, -0.00804328, -0.00134588, 0.0126342, 0.357345, 0.35322, 0.295901, 0.00104584, 0.00108889, 0.00228036
-0.0816656, 0.171007, -1.41516, -0.00805877, -0.00137128, 0.0126588, 0.35873, 0.354542, 0.294571, 0.00104521, 0.00108725, 0.00227944
-0.082532, 0.167814, -1.37336, -0.00804846, -0.00134669, 0.0126498, 0.359253, 0.355348, 0.29309, 0.00104466, 0.00108577, 0.00227813
-0.0967423, 0.163543, -1.28829, -0.00802249, -0.00129673, 0.0126396, 0.358728, 0.355423, 0.291534, 0.00104406, 0.00108439, 0.00227605
-0.119504, 0.171704, -1.15721, -0.00797797, -0.00122286, 0.0126245, 0.35718, 0.354672, 0.289886, 0.00104323, 0.0010829, 0.00227336
-0.142981, 0.199844, -1.02783, -0.00793635, -0.00115213, 0.0126159, 0.354779, 0.353184, 0.288153, 0.00104205, 0.00108115, 0.00227044
-0.167896, 0.236387, -0.884206, -0.00789548, -0.00107291, 0.012628, 0.351735, 0.35103, 0.286296, 0.00104048, 0.00107897, 0.00226763
-0.185168, 0.300277, -0.671041, -0.00784351, -0.00094755, 0.0126624, 0.348364, 0.348422, 0.28446, 0.00103858, 0.0010765, 0.00226495
-0.254322, 0.358947, -0.441667, -0.00780054, -0.000844793, 0.0127628, 0.344959, 0.345706, 0.282848, 0.00103662, 0.0010741, 0.00226255
-0.333752, 0.410284, -0.263359, -0.00777569, -0.000791256, 0.0128668, 0.341897, 0.343325, 0.281612, 0.00103491, 0.00107223, 0.00226045
-0.388291, 0.468106, -0.0996479, -0.00775081, -0.00075289, 0.012949, 0.33949, 0.34161, 0.280792, 0.00103368, 0.0010711, 0.00225874
-0.422032, 0.494934, 0.0366933, -0.00772002, -0.000730514, 0.0129945, 0.337816, 0.340641, 0.280296, 0.00103291, 0.00107056, 0.00225748
-0.43887, 0.506204, 0.157479, -0.00769126, -0.000717528, 0.0130183, 0.336837, 0.340318, 0.280048, 0.00103249, 0.00107037, 0.00225657
-0.453416, 0.495291, 0.259167, -0.00767213, -0.000716133, 0.0130243, 0.336374, 0.340481, 0.280009, 0.00103229, 0.00107033, 0.00225588
-0.466305, 0.467202, 0.329906, -0.00766576, -0.000718951, 0.0130195, 0.336414, 0.341126, 0.280113, 0.00103217, 0.00107027, 0.00225547
-0.47541, 0.435748, 0.392237, -0.0076676, -0.000719904, 0.0130186, 0.337029, 0.342206, 0.280212, 0.00103199, 0.00107012, 0.0022553
-0.479228, 0.392031, 0.413402, -0.0076824, -0.000715693, 0.0130208, 0.338231, 0.343794, 0.280293, 0.00103157, 0.00106972, 0.00225523
-0.469729, 0.339347, 0.380804, -0.00771247, -0.000705712, 0.0130297, 0.340045, 0.345984, 0.280395, 0.00103065, 0.00106888, 0.00225512
-0.451526, 0.305686, 0.288905, -0.00773737, -0.00068868, 0.0130348, 0.342424, 0.348679, 0.280513, 0.00102917, 0.0010675, 0.00225492
-0.413573, 0.260553, 0.144865, -0.00777246, -0.000668139, 0.0130403, 0.345214, 0.351709, 0.28066, 0.0010273, 0.00106565, 0.00225474
-0.37022, 0.24512, -0.00994757, -0.0077783, -0.000652241, 0.0130358, 0.348243, 0.354889, 0.280881, 0.00102525, 0.00106344, 0.00225459
-0.326652, 0.258267, -0.158074, -0.00775811, -0.000653237, 0.0130223, 0.351422, 0.358097, 0.281097, 0.00102321, 0.00106113, 0.00225451
-0.287401, 0.285811, -0.329813, -0.0077226, -0.000663071, 0.013001, 0.35476, 0.361352, 0.281247, 0.00102122, 0.0010588, 0.00225445
-0.251908, 0.322581, -0.514439, -0.0076795, -0.000682679, 0.0129741, 0.358215, 0.364652, 0.281349, 0.00101927, 0.00105649, 0.00225439
-0.219784, 0.369114, -0.717772, -0.00762778, -0.00069934, 0.0129473, 0.361618, 0.367928, 0.281471, 0.00101743, 0.00105436, 0.0022543
-0.193201, 0.421807, -0.914584, -0.0075749, -0.000717368, 0.0129249, 0.364878, 0.371062, 0.281572, 0.0010158, 0.00105252, 0.00225417
-0.162416, 0.483634, -1.11691, -0.00752224, -0.000739047, 0.0129048, 0.367915, 0.374027, 0.28167, 0.0010144, 0.00105102, 0.00225402
-0.143863, 0.544007, -1.2938, -0.0074787, -0.000758407, 0.0128883, 0.370688, 0.376721, 0.281718, 0.00101327, 0.00104985, 0.00225387
-0.126209, 0.589825, -1.48853, -0.007451, -0.000779783, 0.0128741, 0.373083, 0.379026, 0.281705, 0.00101244, 0.00104905, 0.00225374
-0.112983, 0.627003, -1.65745, -0.00743407, -0.00080058, 0.0128627, 0.374961, 0.380746, 0.281648, 0.00101196, 0.00104859, 0.00225362
-0.108515, 0.653461, -1.77253, -0.00742547, -0.000807564, 0.0128616, 0.376013, 0.381661, 0.281631, 0.00101179, 0.00104847, 0.00225346
-0.113139, 0.668129, -1.82903, -0.0074233, -0.000811244, 0.012862, 0.376166, 0.381572, 0.281589, 0.00101177, 0.00104845, 0.00225329
-0.126202, 0.682883, -1.80633, -0.00742598, -0.000810413, 0.0128547, 0.375359, 0.380426, 0.281519, 0.00101168, 0.0010483, 0.00225315
-0.143784, 0.692304, -1.74429, -0.00743106, -0.000809792, 0.0128424, 0.373492, 0.378221, 0.281451, 0.00101126, 0.00104782, 0.00225303
-0.16526, 0.6934, -1.63424, -0.00743569, -0.000806359, 0.0128258, 0.37072, 0.375101, 0.281345, 0.00101041, 0.0010469, 0.0022529
-0.196863, 0.701295, -1.47639, -0.00744704, -0.000799387, 0.0128056, 0.367204, 0.371267, 0.281203, 0.00100912, 0.00104552, 0.0022527
-0.240759, 0.715778, -1.30083, -0.00746655, -0.000797866, 0.0127837, 0.363129, 0.366984, 0.281069, 0.00100743, 0.0010438, 0.00225233
-0.295051, 0.721363, -1.07749, -0.00748828, -0.000799706, 0.0127615, 0.358784, 0.362483, 0.280933, 0.00100539, 0.0010419, 0.00225161
-0.375031, 0.72192, -0.80735, -0.00751658, -0.000810161, 0.0127341, 0.354403, 0.357954, 0.280785, 0.00100308, 0.00103996, 0.00225035
-0.461261, 0.718485, -0.496383, -0.00755015, -0.000816688, 0.0127123, 0.350253, 0.353685, 0.280644, 0.00100075, 0.00103816, 0.00224857
-0.51519, 0.707829, -0.197997, -0.0075779, -0.000800807, 0.0127152, 0.346664, 0.349991, 0.280511, 0.000998776, 0.00103672, 0.0022465
-0.544544, 0.697088, 0.0476384, -0.00759994, -0.00077824, 0.0127288, 0.343929, 0.347101, 0.280413, 0.00099733, 0.00103578, 0.00224437
-0.556333, 0.647925, 0.203004, -0.00759716, -0.000766977, 0.0127077, 0.342121, 0.345122, 0.280398, 0.000996451, 0.00103529, 0.00224251
-0.558767, 0.618728, 0.333747, -0.007604, -0.000759786, 0.0127009, 0.341329, 0.344124, 0.280446, 0.000996089, 0.00103516, 0.00224117
-0.55613, 0.595371, 0.427661, -0.00761158, -0.000760873, 0.0126949, 0.341471, 0.344189, 0.280549, 0.000996032, 0.00103515, 0.0022404
-0.540173, 0.59471, 0.474409, -0.00761537, -0.000768429, 0.0126997, 0.342547, 0.345321, 0.280659, 0.000995908, 0.00103492, 0.00224004
-0.514512, 0.579154, 0.456353, -0.00762253, -0.000774467, 0.0126993, 0.344425, 0.34733, 0.28075, 0.000995405, 0.00103424, 0.00223989
-0.473194, 0.539573, 0.415994, -0.00764773, -0.000783481, 0.012694, 0.346769, 0.349911, 0.280868, 0.000994437, 0.00103304, 0.00223982
-0.435732, 0.522655, 0.333235, -0.0076645, -0.000786488, 0.0126963, 0.349483, 0.352956, 0.281037, 0.000992907, 0.00103127, 0.00223962
-0.393102, 0.513605, 0.244045, -0.0076811, -0.000801643, 0.0126913, 0.352578, 0.356339, 0.281167, 0.000990879, 0.00102906, 0.00223923
-0.353539, 0.491912, 0.131407, -0.00771451, -0.000815927, 0.0126886, 0.355996, 0.35996, 0.281227, 0.000988461, 0.00102654, 0.00223867
-0.329625, 0.492679, -0.0077913, -0.00772682, -0.000826838, 0.0126814, 0.359597, 0.363671, 0.281246, 0.000985907, 0.00102388, 0.00223798
-0.306455, 0.51426, -0.155937, -0.00772021, -0.000849439, 0.0126601, 0.363284, 0.367405, 0.281225, 0.000983399, 0.00102122, 0.00223728
-0.287701, 0.542652, -0.316663, -0.00770795, -0.000870868, 0.0126369, 0.366994, 0.371157, 0.281202, 0.000980983, 0.00101867, 0.0022366
-0.276332, 0.593721, -0.507623, -0.00767641, -0.000891891, 0.0126105, 0.370715, 0.37493, 0.281179, 0.000978645, 0.00101625, 0.00223597
-0.272847, 0.649949, -0.738085, -0.00764392, -0.000924075, 0.0125812, 0.374439, 0.378622, 0.28108, 0.000976521, 0.00101399, 0.00223552
-0.272574, 0.698602, -0.957921, -0.0076176, -0.000958017, 0.0125552, 0.378051, 0.382144, 0.280955, 0.000974698, 0.00101198, 0.00223522
-0.283328, 0.764474, -1.18085, -0.00757998, -0.000987946, 0.0125364, 0.381413, 0.385396, 0.280832, 0.000973229, 0.00101035, 0.00223504
-0.293361, 0.806227, -1.34671, -0.00756225, -0.00101261, 0.0125249, 0.384412, 0.38826, 0.280682, 0.000972118, 0.00100911, 0.00223492
-0.277796, 0.794623, -1.50521, -0.00757905, -0.00103476, 0.0125321, 0.386826, 0.390724, 0.280569, 0.000971244, 0.00100836, 0.00223474
-0.265146, 0.775405, -1.62948, -0.00759436, -0.00104002, 0.0125586, 0.388534, 0.392658, 0.280534, 0.000970624, 0.00100802, 0.00223432
-0.266294, 0.759361, -1.70565, -0.00760235, -0.00103688, 0.0125859, 0.389425, 0.393846, 0.28059, 0.000970305, 0.00100791, 0.00223358
-0.283681, 0.751194, -1.72076, -0.00760356, -0.00103716, 0.0125933, 0.389364, 0.393959, 0.280721, 0.000970257, 0.0010079, 0.00223281
-0.307778, 0.74572, -1.68506, -0.00760345, -0.00104324, 0.012587, 0.38822, 0.392816, 0.280893, 0.000970212, 0.00100772, 0.00223228
-0.277459, 0.742836, -1.63114, -0.00760088, -0.00103757, 0.0125813, 0.386056, 0.390516, 0.28112, 0.00096986, 0.0010072, 0.00223206
-0.254443, 0.760231, -1.55094, -0.00760811, -0.00103316, 0.012573, 0.383067, 0.387257, 0.281422, 0.000969032, 0.00100626, 0.00223197
-0.267604, 0.777402, -1.42566, -0.00762548, -0.00104422, 0.012572, 0.379422, 0.383214, 0.281639, 0.000967629, 0.00100496, 0.00223182
-0.261925, 0.807418, -1.24905, -0.00765573, -0.00104323, 0.0126056, 0.375319, 0.378683, 0.281732, 0.000965778, 0.00100337, 0.00223137
-0.31097, 0.830306, -1.08271, -0.00769171, -0.00107079, 0.0126342, 0.370876, 0.373806, 0.281708, 0.000963462, 0.00100157, 0.00223038
-0.383556, 0.882795, -0.954501, -0.0077508, -0.00110613, 0.0126739, 0.366292, 0.368742, 0.281623, 0.000960596, 0.000999605, 0.00222843
-0.486962, 0.948879, -0.757148, -0.00783739, -0.00116372, 0.0127485, 0.361854, 0.363825, 0.281585, 0.000957438, 0.00099763, 0.00222549
-0.59153, 0.98654, -0.50244, -0.00791558, -0.00123502, 0.0128261, 0.357766, 0.359412, 0.281637, 0.000954487, 0.000995854, 0.00222213
-0.691597, 0.966063, -0.243689, -0.00795682, -0.00130928, 0.012851, 0.35428, 0.355716, 0.281757, 0.000952108, 0.000994487, 0.00221893
-0.763364, 0.943526, -0.0284441, -0.00798999, -0.00136746, 0.0128689, 0.351593, 0.35295, 0.281983, 0.000950504, 0.000993585, 0.00221629
-0.792991, 0.917893, 0.164774, -0.00801778, -0.00141836, 0.0128908, 0.349817, 0.351329, 0.282343, 0.000949672, 0.000993025, 0.0022143
-0.80693, 0.890115, 0.30418, -0.0080379, -0.00146125, 0.0128933, 0.349026, 0.350868, 0.282815, 0.000949345, 0.000992601, 0.00221276
-0.825313, 0.852505, 0.39427, -0.00805323, -0.00148725, 0.0128714, 0.349235, 0.351438, 0.283344, 0.000949221, 0.000992152, 0.00221167
-0.89907, 0.755543, 0.450678, -0.00807925, -0.00147376, 0.0127951, 0.350368, 0.35288, 0.283865, 0.000949011, 0.000991529, 0.00221103
-0.945134, 0.707167, 0.445099, -0.00809571, -0.00144129, 0.0127672, 0.352442, 0.355184, 0.284344, 0.000948409, 0.000990484, 0.00221074
-0.979778, 0.708328, 0.375909, -0.00808354, -0.00140021, 0.0127743, 0.35541, 0.358316, 0.284727, 0.000947135, 0.000988758, 0.00221059
-0.971772, 0.71972, 0.243284, -0.0080639, -0.00138872, 0.0127947, 0.359145, 0.362255, 0.284995, 0.000944932, 0.00098611, 0.00221044
-0.937362, 0.742464, 0.0526314, -0.0080362, -0.00140734, 0.0128242, 0.363407, 0.366836, 0.285189, 0.000941808, 0.000982548, 0.00221016
-0.888344, 0.783578, -0.183806, -0.00799122, -0.00145711, 0.0128637, 0.367927, 0.371749, 0.28531, 0.000938236, 0.000978476, 0.00220975
-0.831046, 0.831862, -0.431719, -0.00794297, -0.00153047, 0.0129092, 0.372431, 0.376704, 0.285375, 0.000934781, 0.000974419, 0.0022092
-0.775047, 0.904683, -0.679325, -0.00787435, -0.00163025, 0.0129681, 0.376828, 0.381532, 0.285351, 0.000931757, 0.000970662, 0.00220849
-0.737329, 0.994886, -0.931872, -0.00779811, -0.00174346, 0.0130418, 0.381188, 0.386241, 0.285155, 0.000929127, 0.000967144, 0.00220768
-0.700713, 1.05555, -1.14953, -0.00776595, -0.00185203, 0.0130843, 0.385429, 0.390762, 0.28481, 0.000926868, 0.000963975, 0.00220692
-0.660643, 1.04823, -1.38684, -0.00780006, -0.0019269, 0.0130972, 0.389143, 0.394719, 0.284478, 0.000925154, 0.000961693, 0.0022065
-0.644805, 1.01701, -1.54975, -0.00782997, -0.0019578, 0.0131204, 0.391981, 0.397585, 0.284195, 0.000924189, 0.000960453, 0.00220634
-0.62615, 0.971876, -1.61087, -0.0078491, -0.00196726, 0.0131417, 0.393704, 0.399089, 0.283952, 0.000923799, 0.000959965, 0.00220617
-0.618053, 0.927293, -1.60284, -0.00785151, -0.00196262, 0.0131564, 0.394166, 0.399061, 0.283705, 0.000923677, 0.000959733, 0.00220585
-0.571574, 0.885514, -1.47446, -0.00784307, -0.00192084, 0.0131544, 0.393408, 0.397592, 0.283378, 0.000923487, 0.00095929, 0.00220542
-0.537847, 0.833145, -1.31308, -0.00782218, -0.00186283, 0.0131621, 0.391583, 0.394956, 0.282934, 0.000923076, 0.000958405, 0.00220481
-0.528311, 0.765067, -1.17813, -0.00779391, -0.00181596, 0.0131846, 0.389001, 0.391503, 0.282401, 0.000922483, 0.000957055, 0.00220372
-0.54149, 0.707257, -1.08676, -0.00777008, -0.00179227, 0.0131932, 0.386179, 0.387784, 0.281905, 0.00092177, 0.00095559, 0.00220217
-0.594167, 0.659707, -1.03955, -0.00774841, -0.00180015, 0.0131584, 0.383521, 0.384327, 0.281586, 0.000921054, 0.00095446, 0.00220015
-0.681087, 0.590341, -0.990527, -0.00771828, -0.00182435, 0.0130771, 0.38118, 0.381333, 0.281478, 0.00092036, 0.000953735, 0.00219778
-0.747543, 0.535318, -0.911729, -0.00770114, -0.00184056, 0.0130037, 0.379193, 0.378785, 0.281518, 0.000919726, 0.000953256, 0.0021955
-0.793243, 0.479494, -0.832473, -0.00768935, -0.00185581, 0.0129555, 0.377439, 0.376572, 0.281679, 0.000919203, 0.00095289, 0.00219381
-0.830751, 0.419304, -0.743977, -0.00767954, -0.00187134, 0.0129221, 0.375876, 0.374597, 0.281871, 0.000918788, 0.000952585, 0.00219281
-0.871593, 0.381216, -0.660157, -0.00767713, -0.00188641, 0.012904, 0.374532, 0.37294, 0.282036, 0.000918499, 0.00095235, 0.0021924
-0.932627, 0.389571, -0.596056, -0.00768543, -0.0019005, 0.0129059, 0.373467, 0.371844, 0.282193, 0.000918333, 0.000952175, 0.00219233
-0.974569, 0.439401, -0.559256, -0.0076935, -0.00190752, 0.0129346, 0.37273, 0.37151, 0.282391, 0.000918197, 0.000951946, 0.00219195
-0.992624, 0.532267, -0.572323, -0.00770003, -0.00190349, 0.0129968, 0.37228, 0.371851, 0.282574, 0.000917978, 0.000951607, 0.00219018
-0.981867, 0.638282, -0.594852, -0.00770284, -0.00190148, 0.0130714, 0.371856, 0.372598, 0.282787, 0.000917608, 0.00095109, 0.00218582
-0.94189, 0.744509, -0.575036, -0.00768797, -0.00191557, 0.0130966, 0.371335, 0.373466, 0.282973, 0.000917014, 0.000950502, 0.00217855
-0.876667, 0.838182, -0.531006, -0.00765133, -0.00193652, 0.0130247, 0.370796, 0.37437, 0.283124, 0.000916172, 0.000949878, 0.0021687
-0.809255, 0.939282, -0.485794, -0.00760195, -0.0019571, 0.012901, 0.370418, 0.375293, 0.283263, 0.000915094, 0.000949239, 0.00215704
-0.676077, 1.0499, -0.445014, -0.00751094, -0.00197689, 0.0125484, 0.370423, 0.376333, 0.283432, 0.000913776, 0.000948594, 0.00214421
-0.560472, 1.1633, -0.423179, -0.00741595, -0.00199148, 0.0121838, 0.370967, 0.377508, 0.283637, 0.000912149, 0.000947984, 0.00213114
-0.474187, 1.27637, -0.433765, -0.00733444, -0.00199662, 0.0118847, 0.37211, 0.378931, 0.283905, 0.000910375, 0.000947431, 0.00211935
-0.380797, 1.41124, -0.47796, -0.00724607, -0.00199811, 0.011573, 0.37368, 0.380594, 0.284275, 0.000908725, 0.000946915, 0.00211041
-0.317484, 1.5378, -0.542581, -0.00717524, -0.00199589, 0.0113746, 0.375463, 0.382438, 0.284725, 0.000907417, 0.000946421, 0.0021053
-0.275435, 1.65184, -0.612276, -0.0071155, -0.00199598, 0.0112659, 0.377323, 0.384439, 0.285219, 0.000906466, 0.000945887, 0.00210354
-0.262441, 1.72507, -0.677185, -0.00707679, -0.00199166, 0.0112226, 0.379099, 0.386423, 0.285691, 0.000905727, 0.000945325, 0.00210317
-0.27239, 1.77914, -0.720668, -0.00704838, -0.00198472, 0.0111864, 0.380681, 0.388122, 0.286022, 0.000905109, 0.000944784, 0.00210205
-0.306538, 1.79971, -0.761954, -0.00702662, -0.00197047, 0.0111185, 0.382008, 0.389475, 0.286233, 0.000904454, 0.000944257, 0.00209848
-0.359704, 1.8118, -0.767695, -0.00701201, -0.00195154, 0.011008, 0.383065, 0.390406, 0.286361, 0.000903649, 0.000943798, 0.00209144
-0.41789, 1.78318, -0.761332, -0.00700325, -0.00193105, 0.0108609, 0.384155, 0.391038, 0.286393, 0.000902555, 0.000943307, 0.0020801
-0.482953, 1.70816, -0.748261, -0.00699948, -0.00191036, 0.010686, 0.385471, 0.391412, 0.286349, 0.000901157, 0.000942682, 0.00206433
-0.558367, 1.58866, -0.73772, -0.0069944, -0.00189473, 0.0104885, 0.387015, 0.391469, 0.286272, 0.00089952, 0.000941937, 0.00204471
-0.638764, 1.42794, -0.738958, -0.00697743, -0.00189269, 0.0102811, 0.388687, 0.391082, 0.286244, 0.000897734, 0.000941191, 0.0020226
-0.713169, 1.26228, -0.723851, -0.0069625, -0.00189152, 0.0100792, 0.390585, 0.390508, 0.286392, 0.000895843, 0.00094058, 0.00199994
-0.773757, 1.09813, -0.704237, -0.00695247, -0.00188747, 0.0098949, 0.392911, 0.390145, 0.286777, 0.000893928, 0.000940093, 0.0019782
-0.828906, 0.905039, -0.700717, -0.00694039, -0.00188289, 0.0097107, 0.395689, 0.390099, 0.287347, 0.00089211, 0.000939626, 0.00195833
-0.876836, 0.711777, -0.714572, -0.0069287, -0.00188198, 0.00956195, 0.398726, 0.390219, 0.288018, 0.000890519, 0.000939153, 0.00194138
-0.934698, 0.529964, -0.731134, -0.00691133, -0.00187632, 0.00938966, 0.401795, 0.390383, 0.288646, 0.000889261, 0.000938696, 0.00192829
-1.00871, 0.368612, -0.739004, -0.00689035, -0.00186299, 0.009194, 0.404644, 0.39057, 0.289158, 0.000888405, 0.000938299, 0.00191959
-1.05426, 0.236847, -0.749583, -0.00687805, -0.00185651, 0.00908379, 0.407002, 0.390799, 0.289562, 0.000887926, 0.000938034, 0.00191496
-1.11138, 0.140751, -0.745728, -0.00686715, -0.00184411, 0.00899349, 0.408656, 0.391102, 0.289837, 0.000887742, 0.000937901, 0.00191328
-1.15195, 0.0693251, -0.724567, -0.00686216, -0.00183512, 0.00895383, 0.409491, 0.39147, 0.289861, 0.000887713, 0.000937831, 0.00191279
-1.1583, 0.0456705, -0.709971, -0.00685985, -0.00183322, 0.00894406, 0.409407, 0.391893, 0.289641, 0.000887643, 0.000937795, 0.00191145
-1.20011, 0.0663975, -0.718756, -0.00686628, -0.00183478, 0.00901071, 0.408404, 0.392388, 0.28928, 0.000887364, 0.000937705, 0.00190705
-1.23166, 0.0852304, -0.747052, -0.00688137, -0.0018342, 0.00908904, 0.406477, 0.392987, 0.288965, 0.000886748, 0.000937405, 0.00189797
-1.21663, 0.145275, -0.748336, -0.00688068, -0.00184256, 0.00909987, 0.403971, 0.393562, 0.288669, 0.000885727, 0.000936936, 0.00188411
-1.17065, 0.247515, -0.742598, -0.00686715, -0.00185628, 0.00905053, 0.40139, 0.394152, 0.288281, 0.000884311, 0.000936408, 0.00186627
-1.09682, 0.389648, -0.744207, -0.00684342, -0.00187347, 0.00893626, 0.399103, 0.394835, 0.28783, 0.000882566, 0.000935824, 0.00184546
-1.07596, 0.551221, -0.758763, -0.00684054, -0.00190031, 0.0089798, 0.397129, 0.395531, 0.287475, 0.000880601, 0.000935082, 0.00182235
-1.03336, 0.70826, -0.748616, -0.00682002, -0.00192945, 0.00894238, 0.395534, 0.396114, 0.287167, 0.000878507, 0.000934365, 0.00179859
-0.978226, 0.862447, -0.740422, -0.00679595, -0.00194955, 0.00884536, 0.394377, 0.396514, 0.28695, 0.000876396, 0.000933722, 0.00177588
-0.911093, 1.01412, -0.743174, -0.00677108, -0.00195855, 0.0086882, 0.393709, 0.396766, 0.286889, 0.000874421, 0.000933163, 0.00175554
-0.827613, 1.16605, -0.746534, -0.00673835, -0.00196096, 0.0084667, 0.393511, 0.396937, 0.286998, 0.000872754, 0.000932698, 0.00173858
-0.735454, 1.35064, -0.784343, -0.00671556, -0.00195766, 0.00823873, 0.393699, 0.397135, 0.287269, 0.000871526, 0.000932317, 0.00172569
-0.620351, 1.53686, -0.799836, -0.00667515, -0.00196325, 0.00797795, 0.394231, 0.397542, 0.28765, 0.000870761, 0.000932031, 0.00171721
-0.504995, 1.70047, -0.813765, -0.00663643, -0.0019766, 0.00776449, 0.395062, 0.398156, 0.287969, 0.000870337, 0.000931894, 0.00171267
-0.3983, 1.81948, -0.827373, -0.00661164, -0.0019918, 0.0076345, 0.395892, 0.398771, 0.288167, 0.000870162, 0.000931836, 0.00171097
-0.317442, 1.89744, -0.834875, -0.00660082, -0.00200468, 0.00758759, 0.39649, 0.399232, 0.288288, 0.00087008, 0.000931784, 0.00171057
-0.274177, 1.94663, -0.831273, -0.00659844, -0.00201246, 0.0075844, 0.396829, 0.399512, 0.288343, 0.000869896, 0.000931699, 0.00170986
-0.178352, 1.98895, -0.801325, -0.0066156, -0.00202418, 0.00766331, 0.39687, 0.39953, 0.288315, 0.000869446, 0.000931561, 0.00170744
-0.0593336, 1.98063, -0.787438, -0.00664395, -0.00204246, 0.00783945, 0.39683, 0.399408, 0.288281, 0.000868568, 0.000931331, 0.00170229
-0.0215076, 1.93668, -0.770877, -0.00666452, -0.00204441, 0.00793069, 0.397131, 0.39933, 0.288229, 0.000867174, 0.000930867, 0.00169354
-0.0232984, 1.84564, -0.745688, -0.00668734, -0.00203251, 0.00798477, 0.397782, 0.39908, 0.2881, 0.000865317, 0.000930092, 0.00168041
-0.0822019, 1.72251, -0.724346, -0.00669289, -0.00201071, 0.00792825, 0.398547, 0.398271, 0.287915, 0.00086305, 0.00092903, 0.00166281
-0.19831, 1.58197, -0.708219, -0.0066805, -0.00198498, 0.00773318, 0.399585, 0.397139, 0.287772, 0.000860498, 0.000927763, 0.00164186
-0.340083, 1.42449, -0.692439, -0.00666568, -0.00196171, 0.00747272, 0.401064, 0.396008, 0.287758, 0.000857743, 0.000926494, 0.00161935
-0.495737, 1.25664, -0.686909, -0.00664679, -0.00194478, 0.00716626, 0.403054, 0.395085, 0.287961, 0.000854916, 0.000925321, 0.00159702
-0.645981, 1.09005, -0.697632, -0.00662943, -0.00193125, 0.00686244, 0.405668, 0.394671, 0.288394, 0.000852176, 0.000924181, 0.0015765
-0.801604, 0.922699, -0.75316, -0.00659384, -0.00191147, 0.00651546, 0.408937, 0.395011, 0.289046, 0.000849609, 0.000923029, 0.00155901
-0.941923, 0.761251, -0.836003, -0.00656205, -0.00188592, 0.00621352, 0.412557, 0.396053, 0.289875, 0.000847402, 0.00092194, 0.00154575
-1.09828, 0.611672, -0.921553, -0.00653241, -0.00184214, 0.00589824, 0.415987, 0.397361, 0.290835, 0.000845862, 0.000921129, 0.00153729
-1.23099, 0.48759, -0.968088, -0.00652826, -0.00181281, 0.00569794, 0.418748, 0.398645, 0.291884, 0.000845039, 0.000920611, 0.00153298
-1.31044, 0.413121, -0.995222, -0.00653071, -0.00180073, 0.00561587, 0.420627, 0.39978, 0.292883, 0.000844761, 0.000920238, 0.00153146
-1.38395, 0.383938, -0.999003, -0.00653339, -0.00179378, 0.00558692, 0.421515, 0.4006, 0.293575, 0.000844738, 0.000919957, 0.00153089
-1.44111, 0.388096, -0.950872, -0.00653178, -0.00180337, 0.00560632, 0.421323, 0.401016, 0.293873, 0.000844647, 0.000919702, 0.00152949
-1.4554, 0.391138, -0.880245, -0.0065168, -0.00182216, 0.00561669, 0.420161, 0.401103, 0.293785, 0.00084425, 0.000919389, 0.0015261
-1.42074, 0.417694, -0.807824, -0.00649045, -0.00184024, 0.00559626, 0.418147, 0.400911, 0.293417, 0.000843441, 0.000918925, 0.00152028
-1.38259, 0.462147, -0.746892, -0.00646473, -0.00185819, 0.00557247, 0.415523, 0.400535, 0.292887, 0.000842227, 0.000918246, 0.00151181
-1.33093, 0.531799, -0.730488, -0.00645481, -0.00186521, 0.00554184, 0.412798, 0.400316, 0.292402, 0.000840767, 0.000917281, 0.00150111
-1.25601, 0.641077, -0.729022, -0.00644313, -0.00187524, 0.00548611, 0.410667, 0.400532, 0.291992, 0.000839182, 0.000916201, 0.00148925
-1.16216, 0.793482, -0.742821, -0.00643198, -0.00189014, 0.00540777, 0.408995, 0.400952, 0.291734, 0.00083746, 0.000915, 0.00147634
-1.04671, 0.984256, -0.748932, -0.00641807, -0.00191364, 0.005294, 0.407443, 0.401225, 0.29166, 0.000835627, 0.000913731, 0.00146239
-0.912792, 1.19637, -0.736521, -0.00640043, -0.00194151, 0.00513575, 0.405943, 0.401242, 0.291763, 0.000833721, 0.00091246, 0.00144796
-0.783026, 1.42287, -0.718858, -0.0063869, -0.00196886, 0.00496735, 0.404659, 0.401049, 0.291988, 0.000831843, 0.000911319, 0.00143417
-0.662388, 1.64831, -0.691261, -0.0063685, -0.00200035, 0.00478614, 0.403814, 0.40085, 0.292326, 0.000830223, 0.000910403, 0.00142227
-0.549026, 1.85318, -0.669001, -0.00634785, -0.00202893, 0.00459832, 0.403577, 0.400831, 0.292653, 0.000829055, 0.000909853, 0.00141341
-0.489648, 2.04939, -0.680681, -0.00633715, -0.00206322, 0.0044907, 0.404015, 0.401143, 0.292833, 0.000828383, 0.000909603, 0.00140787
-0.450861, 2.1937, -0.70957, -0.00632302, -0.00209641, 0.00440992, 0.405078, 0.401901, 0.292776, 0.000828036, 0.000909408, 0.00140509
-0.402378, 2.29843, -0.750574, -0.00630799, -0.00213314, 0.00433622, 0.406546, 0.402947, 0.292437, 0.000827756, 0.000909021, 0.00140394
-0.364473, 2.36315, -0.794619, -0.00629556, -0.00216755, 0.00429781, 0.408103, 0.404043, 0.291928, 0.000827358, 0.000908358, 0.00140325
-0.35386, 2.3826, -0.834054, -0.006285, -0.00218856, 0.00428708, 0.409558, 0.404981, 0.291323, 0.00082668, 0.000907443, 0.00140191
-0.339978, 2.36258, -0.864831, -0.00628239, -0.00220291, 0.00430645, 0.410856, 0.405681, 0.29073, 0.000825554, 0.000906385, 0.00139898
-0.289674, 2.3026, -0.851905, -0.00631484, -0.00220457, 0.00440687, 0.411971, 0.405982, 0.290199, 0.000823873, 0.000905221, 0.00139368
-0.299147, 2.19869, -0.854444, -0.0063236, -0.00219086, 0.0044448, 0.413099, 0.405848, 0.289761, 0.000821557, 0.000903791, 0.00138514
-0.342825, 2.05425, -0.84937, -0.00632579, -0.0021635, 0.00443228, 0.414334, 0.40523, 0.289442, 0.000818619, 0.000902099, 0.001373
-0.430034, 1.89509, -0.834595, -0.00631518, -0.00212362, 0.00431224, 0.415748, 0.404165, 0.289379, 0.000815236, 0.000900371, 0.00135817
-0.537029, 1.71744, -0.821883, -0.00629591, -0.00208613, 0.00413106, 0.41752, 0.402933, 0.289646, 0.000811663, 0.000898783, 0.00134215
-0.666969, 1.52944, -0.81368, -0.00626924, -0.00205169, 0.00388567, 0.419711, 0.401783, 0.290257, 0.000808213, 0.000897409, 0.00132649
-0.80992, 1.35721, -0.814183, -0.00623722, -0.00202194, 0.00360313, 0.422242, 0.400919, 0.291176, 0.00080515, 0.000896354, 0.00131266
-0.923695, 1.19084, -0.827054, -0.00621288, -0.00201001, 0.00340159, 0.42491, 0.400383, 0.292308, 0.000802675, 0.000895603, 0.0013015
-1.01945, 1.05149, -0.850957, -0.00618775, -0.00200236, 0.00323913, 0.427553, 0.400183, 0.293543, 0.000800876, 0.000895125, 0.00129351
-1.09727, 0.919873, -0.8626, -0.00617749, -0.00199375, 0.0031245, 0.429978, 0.400353, 0.294661, 0.000799836, 0.000894835, 0.00128886
-1.14345, 0.832243, -0.869373, -0.00617491, -0.00198748, 0.00307006, 0.431965, 0.400841, 0.295475, 0.000799434, 0.000894672, 0.00128699
-1.17484, 0.783315, -0.874774, -0.00617415, -0.00198262, 0.00304811, 0.433254, 0.40145, 0.295862, 0.000799373, 0.000894583, 0.00128657
-1.19029, 0.766896, -0.873744, -0.00617394, -0.00198098, 0.00304599, 0.433688, 0.40199, 0.295799, 0.000799322, 0.000894512, 0.00128617
-1.20497, 0.784499, -0.862191, -0.00617149, -0.00198362, 0.00306018, 0.433282, 0.40237, 0.295358, 0.000799043, 0.000894386, 0.00128471
-1.2257, 0.834269, -0.848705, -0.00616937, -0.00199195, 0.00309716, 0.432185, 0.402603, 0.294715, 0.000798475, 0.000894103, 0.0012817
-1.16012, 0.810743, -0.78368, -0.00613958, -0.0020047, 0.0030097, 0.430682, 0.402795, 0.294003, 0.000797662, 0.000893596, 0.00127702
-1.07514, 0.872285, -0.754389, -0.00612705, -0.00202095, 0.00294286, 0.429183, 0.403034, 0.293295, 0.00079672, 0.000892854, 0.00127088
-0.989918, 0.967102, -0.740517, -0.00612202, -0.002042, 0.00289324, 0.427901, 0.40343, 0.292608, 0.000795704, 0.000891986, 0.00126398
-0.877611, 1.07111, -0.749306, -0.00612432, -0.00205368, 0.00280958, 0.426775, 0.403855, 0.291955, 0.000794635, 0.000891143, 0.00125714
-0.877388, 1.30975, -0.812133, -0.00616272, -0.00207496, 0.00292781, 0.425539, 0.404018, 0.291392, 0.00079355, 0.00089041, 0.00125086
-0.897432, 1.52884, -0.838632, -0.00618202, -0.00210341, 0.00302449, 0.424189, 0.404036, 0.29094, 0.00079246, 0.000889813, 0.00124569
-0.912968, 1.65252, -0.832935, -0.00618159, -0.00212364, 0.00305992, 0.422917, 0.403976, 0.290629, 0.000791517, 0.000889364, 0.00124196
-0.920567, 1.7431, -0.832006, -0.00617891, -0.00213404, 0.00306796, 0.422111, 0.404007, 0.290404, 0.000790798, 0.000889128, 0.00123962
-0.922936, 1.79244, -0.838045, -0.00617839, -0.00213723, 0.00306587, 0.421716, 0.404102, 0.290148, 0.000790334, 0.000889056, 0.00123843
-0.934635, 1.81984, -0.830553, -0.0061751, -0.00213869, 0.00306528, 0.4216, 0.404208, 0.289899, 0.000790099, 0.000889044, 0.00123796
-0.956461, 1.83449, -0.818722, -0.0061725, -0.00213802, 0.00306427, 0.42171, 0.404325, 0.289669, 0.000790003, 0.000889036, 0.00123773
-0.981805, 1.82684, -0.815022, -0.00617304, -0.0021357, 0.00306429, 0.422139, 0.404519, 0.289413, 0.000789944, 0.000888977, 0.00123734
-1.01706, 1.79224, -0.822864, -0.00617822, -0.00213263, 0.00306925, 0.422983, 0.404883, 0.289175, 0.000789815, 0.00088881, 0.00123642
-1.06159, 1.7232, -0.8527, -0.0061894, -0.00213267, 0.0030868, 0.424084, 0.405325, 0.288999, 0.000789584, 0.000888543, 0.00123487
-1.11952, 1.64924, -0.881819, -0.00620259, -0.00213068, 0.00310361, 0.425359, 0.405796, 0.288881, 0.000789261, 0.000888194, 0.00123274
-1.19368, 1.53377, -0.894899, -0.00622991, -0.00213023, 0.00314907, 0.426746, 0.406256, 0.288739, 0.000788882, 0.000887727, 0.00123018
-1.27157, 1.41328, -0.871402, -0.00626451, -0.00212626, 0.00320239, 0.428171, 0.406642, 0.288563, 0.000788519, 0.000887155, 0.00122762
-1.35229, 1.29338, -0.840137, -0.00629843, -0.00212361, 0.00325026, 0.429551, 0.406927, 0.288398, 0.000788205, 0.000886546, 0.00122539
-1.42389, 1.19147, -0.810033, -0.00632587, -0.00212275, 0.00327832, 0.430912, 0.407215, 0.288349, 0.000787938, 0.000886019, 0.00122382
-1.46525, 1.09783, -0.792968, -0.00634536, -0.00213114, 0.00329734, 0.432229, 0.407545, 0.288453, 0.000787718, 0.00088561, 0.00122295
-1.49481, 1.04812, -0.773562, -0.00635619, -0.00213492, 0.00329584, 0.433427, 0.40791, 0.288707, 0.000787548, 0.000885299, 0.00122259
-1.50239, 0.982335, -0.764921, -0.00636518, -0.00214656, 0.00328858, 0.434551, 0.408424, 0.289035, 0.000787411, 0.000885002, 0.00122243
-1.48636, 0.974708, -0.764746, -0.00636472, -0.00215103, 0.00328787, 0.435616, 0.409143, 0.289458, 0.000787298, 0.000884654, 0.00122209
-1.45171, 1.01849, -0.77621, -0.00635755, -0.00214856, 0.00331351, 0.436572, 0.410036, 0.289938, 0.000787222, 0.000884242, 0.00122119
-1.40412, 1.09414, -0.794406, -0.00634852, -0.00214327, 0.00336821, 0.437309, 0.41105, 0.290434, 0.000787173, 0.000883787, 0.00121959
-1.35468, 1.17463, -0.805708, -0.00634221, -0.00213944, 0.00343165, 0.437759, 0.412038, 0.290862, 0.000787139, 0.000883395, 0.00121744
-1.29814, 1.26867, -0.813001, -0.00633894, -0.00213534, 0.00350946, 0.437876, 0.412914, 0.291218, 0.000787099, 0.000883079, 0.00121483
-1.23553, 1.3541, -0.810337, -0.00633669, -0.00213425, 0.00357854, 0.437758, 0.413773, 0.29155, 0.000787044, 0.000882799, 0.00121195
-1.16496, 1.44663, -0.810609, -0.00633539, -0.00213295, 0.00365307, 0.437591, 0.414675, 0.291868, 0.000786979, 0.000882563, 0.00120904
-1.09021, 1.53691, -0.813597, -0.00633423, -0.00213226, 0.0037225, 0.437446, 0.415628, 0.292176, 0.00078692, 0.000882379, 0.00120638
-1.01286, 1.61706, -0.821615, -0.00633262, -0.00213207, 0.00377974, 0.437364, 0.41662, 0.292495, 0.000786873, 0.000882234, 0.00120408
-0.940077, 1.6782, -0.831944, -0.0063309, -0.00213287, 0.00382041, 0.437393, 0.417625, 0.292814, 0.000786842, 0.000882125, 0.00120215
-0.882211, 1.72544, -0.844143, -0.00632963, -0.00213389, 0.00385082, 0.437523, 0.418621, 0.293181, 0.000786826, 0.000882032, 0.00120061
-0.828132, 1.78813, -0.852853, -0.00632851, -0.00213619, 0.00388919, 0.437762, 0.419614, 0.293635, 0.000786816, 0.000881937, 0.00119944
-0.787972, 1.88431, -0.870494, -0.00632564, -0.00213885, 0.0039447, 0.438236, 0.420706, 0.294149, 0.000786801, 0.000881824, 0.00119855
-0.73439, 1.98111, -0.90361, -0.00631846, -0.00214436, 0.00399889, 0.439001, 0.421935, 0.294645, 0.000786763, 0.000881694, 0.00119785
-0.672316, 2.06915, -0.93966, -0.00630941, -0.00215329, 0.00404446, 0.439946, 0.423174, 0.295089, 0.000786689, 0.000881564, 0.00119736
-0.610667, 2.16761, -0.967025, -0.00630047, -0.00216338, 0.00408343, 0.440844, 0.424178, 0.295459, 0.000786586, 0.000881471, 0.00119704
-0.540878, 2.26537, -0.978296, -0.00629624, -0.00217289, 0.00411217, 0.441516, 0.424746, 0.295703, 0.000786468, 0.000881431, 0.0011968
-0.474667, 2.38062, -0.974752, -0.00629509, -0.00218005, 0.00412463, 0.441986, 0.424846, 0.295799, 0.000786335, 0.000881395, 0.00119647
-0.451847, 2.4726, -0.970727, -0.00629251, -0.00218442, 0.00411049, 0.442423, 0.424655, 0.295777, 0.000786178, 0.000881312, 0.00119583
-0.432273, 2.48713, -0.958098, -0.00629508, -0.00218376, 0.00411388, 0.442887, 0.424243, 0.295625, 0.000785996, 0.000881142, 0.00119468
-0.438281, 2.46455, -0.942638, -0.00629846, -0.00217852, 0.00412622, 0.443295, 0.423518, 0.295337, 0.0007858, 0.000880848, 0.00119285
-0.466245, 2.37735, -0.915638, -0.00630511, -0.00216522, 0.00418535, 0.443568, 0.422398, 0.294739, 0.000785622, 0.00088023, 0.00118992
-0.479445, 2.30224, -0.868713, -0.00631443, -0.00214219, 0.00426117, 0.443671, 0.420933, 0.293881, 0.000785448, 0.000879172, 0.00118539
-0.533013, 2.17217, -0.841639, -0.00631943, -0.00212697, 0.0043894, 0.443477, 0.419137, 0.292786, 0.0007853, 0.000877421, 0.00117937
-0.621149, 2.02402, -0.810344, -0.00632342, -0.00210472, 0.00453386, 0.443474, 0.417637, 0.291763, 0.000785115, 0.000875458, 0.00117262
-0.728813, 1.90463, -0.782441, -0.00632158, -0.00207699, 0.00463458, 0.443752, 0.41658, 0.290837, 0.000784893, 0.000873318, 0.00116583
-0.853729, 1.76831, -0.760144, -0.00632016, -0.00204755, 0.00475211, 0.444208, 0.415921, 0.290042, 0.000784662, 0.000871005, 0.00115924
-0.997906, 1.61022, -0.739106, -0.00632304, -0.00201131, 0.00489522, 0.444933, 0.415779, 0.289413, 0.000784403, 0.000868727, 0.00115317
-1.15094, 1.4726, -0.736115, -0.00632991, -0.00197688, 0.00501683, 0.446124, 0.416381, 0.288922, 0.000784038, 0.000866773, 0.00114795
-1.2881, 1.33568, -0.730065, -0.00634443, -0.00193814, 0.0051414, 0.447608, 0.417448, 0.288494, 0.000783623, 0.000864978, 0.00114405
-1.40289, 1.18405, -0.726765, -0.00637222, -0.00190257, 0.00527344, 0.449404, 0.418904, 0.288143, 0.000783161, 0.000863506, 0.00114147
-1.50313, 1.05904, -0.72982, -0.00639402, -0.00187039, 0.00535715, 0.451439, 0.420514, 0.287882, 0.000782727, 0.000862439, 0.00114023
-1.59062, 0.960123, -0.737509, -0.00640838, -0.00184462, 0.00540289, 0.453391, 0.422041, 0.287689, 0.000782398, 0.000861866, 0.00113983
-1.6755, 0.89088, -0.741225, -0.00641313, -0.00182283, 0.00542565, 0.454923, 0.423288, 0.287532, 0.000782207, 0.000861651, 0.00113963
-1.77597, 0.828644, -0.770342, -0.0064167, -0.00180004, 0.00544868, 0.455854, 0.424195, 0.287371, 0.000782103, 0.000861464, 0.00113886
-1.84248, 0.77203, -0.785893, -0.00642065, -0.0017832, 0.00545395, 0.456373, 0.425082, 0.287198, 0.000781988, 0.000860954, 0.00113691
-1.87547, 0.732749, -0.75352, -0.00641792, -0.00179278, 0.00543966, 0.456493, 0.42605, 0.287116, 0.000781855, 0.00085985, 0.00113353
-1.88469, 0.738811, -0.709735, -0.00641028, -0.0018209, 0.0054435, 0.456219, 0.427033, 0.287209, 0.000781714, 0.00085814, 0.00112875
-1.8492, 0.769549, -0.646344, -0.00639846, -0.00187206, 0.0054351, 0.455451, 0.427875, 0.287502, 0.000781571, 0.000855967, 0.00112266
-1.7793, 0.857192, -0.605026, -0.00639439, -0.00191782, 0.00547476, 0.454114, 0.428543, 0.288039, 0.00078141, 0.000853295, 0.00111538
-1.66186, 0.983059, -0.592374, -0.00639938, -0.00194562, 0.00554109, 0.452406, 0.429227, 0.288815, 0.000781222, 0.000850216, 0.00110736
-1.52644, 1.14275, -0.602762, -0.00641213, -0.00196159, 0.00565612, 0.450638, 0.430119, 0.28981, 0.000781047, 0.000846941, 0.00109922
-1.37797, 1.32466, -0.631248, -0.00642848, -0.00197057, 0.00581306, 0.448931, 0.43133, 0.291066, 0.000780913, 0.000843502, 0.00109129
-1.22303, 1.51034, -0.667757, -0.00644308, -0.00197592, 0.00598544, 0.447344, 0.432815, 0.292584, 0.000780813, 0.000840157, 0.00108413
-1.06568, 1.69208, -0.716027, -0.00645231, -0.00197384, 0.00616011, 0.446035, 0.434519, 0.294285, 0.000780738, 0.000837203, 0.00107816
-0.899455, 1.87005, -0.770363, -0.006452, -0.00197031, 0.00632555, 0.445153, 0.436369, 0.296056, 0.000780673, 0.000834865, 0.00107366
-0.742495, 2.03852, -0.822115, -0.00644129, -0.00197098, 0.00647481, 0.444754, 0.438265, 0.29779, 0.000780586, 0.000833208, 0.00107062
-0.604316, 2.18886, -0.894067, -0.00641583, -0.00196587, 0.00660692, 0.444981, 0.440244, 0.299394, 0.000780432, 0.000832111, 0.00106866
-0.485007, 2.30969, -0.968326, -0.00638012, -0.00196237, 0.00670636, 0.445704, 0.442188, 0.300873, 0.000780147, 0.000831395, 0.0010675
-0.388333, 2.40382, -1.02559, -0.0063455, -0.00196211, 0.00677066, 0.446601, 0.443779, 0.302205, 0.000779722, 0.000830976, 0.00106685
-0.323491, 2.48092, -1.06517, -0.00631701, -0.00196067, 0.00680092, 0.44749, 0.444773, 0.303268, 0.000779206, 0.000830768, 0.00106626
-0.28267, 2.51717, -1.09936, -0.00629793, -0.00196075, 0.00681036, 0.44826, 0.445086, 0.303973, 0.000778674, 0.000830618, 0.00106525
-0.265836, 2.54301, -1.12553, -0.00628585, -0.00196074, 0.00680399, 0.448699, 0.444537, 0.304187, 0.000778221, 0.000830337, 0.00106344
-0.272291, 2.56832, -1.10666, -0.00628913, -0.00195071, 0.00678707, 0.448588, 0.44306, 0.303932, 0.000777869, 0.000829745, 0.00106059
-0.304554, 2.5325, -1.06809, -0.00630312, -0.00194661, 0.00680584, 0.448042, 0.440918, 0.303207, 0.000777594, 0.000828669, 0.0010565
-0.327655, 2.46342, -1.00248, -0.00632095, -0.00193552, 0.00687123, 0.447127, 0.438299, 0.302037, 0.000777377, 0.000826958, 0.00105116
-0.395765, 2.33764, -0.943422, -0.00634431, -0.0019395, 0.00698025, 0.446058, 0.435557, 0.300569, 0.000777192, 0.000824647, 0.00104478
-0.50818, 2.21191, -0.900386, -0.00637337, -0.00194873, 0.00707583, 0.445179, 0.433187, 0.299081, 0.000777013, 0.000822106, 0.00103784
-0.635512, 2.0724, -0.883463, -0.00640243, -0.00197231, 0.00717962, 0.444548, 0.431283, 0.297655, 0.00077685, 0.000819475, 0.0010311
-0.775561, 1.93448, -0.867089, -0.00643519, -0.00199007, 0.00728115, 0.444248, 0.42996, 0.296388, 0.000776688, 0.000816926, 0.00102486
-0.926647, 1.81132, -0.861253, -0.00646931, -0.0020044, 0.00736658, 0.444256, 0.429221, 0.295279, 0.000776517, 0.000814497, 0.0010193
-1.07266, 1.69745, -0.863321, -0.00650447, -0.00201361, 0.00744734, 0.444695, 0.42918, 0.294308, 0.000776305, 0.00081228, 0.00101471
-1.23857, 1.56905, -0.890969, -0.00654648, -0.0020279, 0.00753511, 0.445593, 0.429773, 0.29346, 0.000776038, 0.000810303, 0.0010112
-1.32907, 1.38249, -0.859859, -0.00659198, -0.00203147, 0.00767803, 0.446789, 0.43071, 0.292778, 0.00077578, 0.000808789, 0.00100888
-1.42367, 1.26891, -0.838708, -0.00661153, -0.00201821, 0.00774223, 0.448147, 0.431631, 0.292269, 0.000775609, 0.000807764, 0.0010076
-1.53055, 1.18892, -0.824151, -0.00661834, -0.00199809, 0.00777842, 0.449548, 0.432605, 0.291835, 0.000775452, 0.000807156, 0.00100702
-1.72937, 1.16016, -0.828976, -0.00660662, -0.00196584, 0.00781258, 0.450836, 0.433605, 0.291386, 0.000775257, 0.000806807, 0.00100677
-1.88079, 1.15322, -0.80843, -0.00658464, -0.00194228, 0.00785014, 0.451844, 0.434468, 0.290806, 0.00077497, 0.000806594, 0.00100654
-1.96963, 1.13494, -0.793508, -0.00656837, -0.00193072, 0.00787825, 0.452584, 0.435212, 0.29019, 0.000774594, 0.000806471, 0.00100593
-1.99764, 1.07885, -0.796193, -0.00656537, -0.00191738, 0.00786889, 0.453036, 0.435853, 0.289692, 0.000774171, 0.000806236, 0.00100446
-1.98147, 1.03344, -0.78869, -0.00656764, -0.00190752, 0.0078317, 0.453253, 0.436456, 0.289406, 0.000773702, 0.000805614, 0.00100186
-1.93699, 1.03529, -0.775162, -0.0065781, -0.00191597, 0.00779924, 0.453458, 0.437188, 0.289336, 0.000773172, 0.000804412, 0.000998105
-1.86639, 1.05972, -0.743016, -0.00659781, -0.00194733, 0.00775577, 0.453706, 0.438089, 0.289453, 0.000772601, 0.000802636, 0.000993385
-1.74833, 1.12338, -0.737106, -0.00663873, -0.00199574, 0.00770525, 0.454241, 0.439404, 0.289715, 0.000771999, 0.000800315, 0.000988039
-1.56616, 1.20939, -0.759848, -0.00670569, -0.00207191, 0.00760565, 0.455583, 0.441476, 0.289992, 0.000771266, 0.000797557, 0.000982648
-1.338, 1.31856, -0.82145, -0.00678869, -0.00217071, 0.00747238, 0.457511, 0.444038, 0.29033, 0.000770447, 0.000794572, 0.000977875
-1.16629, 1.46785, -0.876668, -0.00683128, -0.00227882, 0.00741786, 0.459586, 0.446585, 0.290764, 0.000769724, 0.000791924, 0.000974141
-1.10226, 1.61885, -0.915595, -0.00682664, -0.00234619, 0.00745402, 0.461502, 0.448962, 0.291303, 0.000769165, 0.000789928, 0.000971545
-1.01697, 1.735, -0.925316, -0.00682403, -0.00239275, 0.0074604, 0.462721, 0.450848, 0.291994, 0.000768829, 0.000788613, 0.000969881
-0.968426, 1.85893, -0.930957, -0.00682234, -0.00240656, 0.00748894, 0.462649, 0.451678, 0.292834, 0.000768678, 0.000787755, 0.00096898
-0.958132, 1.99773, -0.915795, -0.00683957, -0.00240763, 0.00753374, 0.460662, 0.450909, 0.293708, 0.00076839, 0.000786802, 0.000968396
-0.830735, 2.25546, -0.888705, -0.00689304, -0.00234019, 0.00762442, 0.456481, 0.448377, 0.294581, 0.000767501, 0.000785132, 0.000967833
-0.755516, 2.54031, -0.77182, -0.00699314, -0.00228472, 0.00773813, 0.450407, 0.44418, 0.29534, 0.00076566, 0.000782602, 0.000966949
-0.759329, 2.77981, -0.64427, -0.00711335, -0.00226514, 0.00782504, 0.443588, 0.439186, 0.296052, 0.000763107, 0.000779683, 0.000965383
-0.798296, 2.91943, -0.546666, -0.00720097, -0.00227358, 0.00785989, 0.437256, 0.434327, 0.296895, 0.000760409, 0.000776969, 0.000962944
-0.900981, 2.97484, -0.484021, -0.00726728, -0.00232059, 0.00781632, 0.432272, 0.430439, 0.298052, 0.000758099, 0.000774763, 0.000959805
-1.04241, 3.03176, -0.445493, -0.00734171, -0.00236027, 0.00772254, 0.429084, 0.427664, 0.299314, 0.000756214, 0.000773127, 0.000956313
-1.15483, 3.05412, -0.466369, -0.00737946, -0.00236902, 0.0076212, 0.427707, 0.426023, 0.300484, 0.000754648, 0.000771866, 0.000952755
-1.25785, 3.015, -0.482632, -0.00741454, -0.00239228, 0.00754008, 0.427722, 0.425204, 0.301376, 0.000753234, 0.000770708, 0.000949259
-1.35098, 2.94151, -0.48965, -0.00745483, -0.00242385, 0.00749315, 0.42859, 0.424816, 0.301875, 0.000751923, 0.000769476, 0.000945933
-1.42849, 2.87016, -0.496465, -0.00749341, -0.00244486, 0.00746874, 0.430266, 0.425148, 0.302051, 0.000750609, 0.000768038, 0.000942814
-1.51053, 2.80561, -0.515904, -0.0075245, -0.00244744, 0.00743654, 0.432896, 0.426378, 0.30202, 0.000749187, 0.000766314, 0.000940101
-1.57169, 2.71576, -0.561904, -0.0075536, -0.00246176, 0.00743443, 0.436338, 0.428479, 0.301854, 0.000747514, 0.00076417, 0.000937909
-1.59536, 2.61215, -0.629217, -0.00759201, -0.00250361, 0.00747115, 0.440289, 0.431198, 0.301507, 0.000745559, 0.000761526, 0.000936264
-1.58871, 2.52059, -0.697703, -0.0076385, -0.00256023, 0.0075193, 0.444492, 0.434145, 0.30094, 0.000743453, 0.000758385, 0.000935152
-1.58797, 2.42025, -0.79239, -0.00768483, -0.00261724, 0.00756317, 0.448778, 0.43713, 0.3003, 0.000741171, 0.000754979, 0.000934444
-1.58135, 2.32321, -0.870079, -0.00773311, -0.0026545, 0.00760057, 0.452828, 0.439827, 0.299614, 0.000738889, 0.0007515, 0.000934016
-1.57891, 2.24043, -0.901897, -0.00776626, -0.00265099, 0.00762536, 0.456353, 0.441993, 0.298839, 0.000736744, 0.000748008, 0.000933721
-1.59063, 2.16908, -0.932332, -0.00778081, -0.00263817, 0.00764756, 0.459469, 0.443891, 0.298027, 0.000734572, 0.00074451, 0.000933423
-1.61187, 2.11289, -0.949124, -0.00777937, -0.00261696, 0.00766702, 0.462143, 0.445498, 0.297118, 0.00073242, 0.000740964, 0.000933052
-1.6307, 2.03823, -0.987916, -0.00778642, -0.00260134, 0.00769434, 0.46441, 0.446858, 0.29615, 0.000730341, 0.000737504, 0.000932577
-1.65599, 1.98434, -1.02437, -0.00778103, -0.00259315, 0.00771645, 0.466068, 0.447592, 0.295332, 0.000728569, 0.000734638, 0.000932009
-1.67801, 1.94937, -1.0543, -0.0077734, -0.0025904, 0.00773144, 0.46712, 0.44772, 0.294649, 0.000727109, 0.000732364, 0.00093141
-1.70506, 1.93466, -1.08254, -0.00776415, -0.00259517, 0.0077431, 0.467593, 0.447322, 0.294091, 0.000725915, 0.000730621, 0.0009308
-1.72047, 1.93978, -1.09781, -0.00776166, -0.00260239, 0.00774788, 0.467467, 0.446419, 0.293608, 0.000724928, 0.000729272, 0.000930194
-1.74335, 1.95861, -1.10976, -0.00776085, -0.00261411, 0.00775451, 0.4668, 0.445173, 0.293197, 0.000724106, 0.000728206, 0.000929592
-1.75663, 1.99208, -1.10518, -0.00776617, -0.00262694, 0.00775815, 0.465643, 0.443668, 0.292844, 0.000723395, 0.000727309, 0.000929005
-1.77914, 2.03042, -1.09908, -0.00777268, -0.00264256, 0.00776584, 0.464073, 0.442005, 0.292549, 0.000722771, 0.000726493, 0.000928457
-1.81023, 2.07208, -1.09406, -0.00778073, -0.00266016, 0.00777731, 0.462193, 0.440249, 0.292306, 0.000722202, 0.000725718, 0.000927957
-1.84503, 2.11349, -1.0909, -0.00778965, -0.00267743, 0.00779023, 0.460131, 0.438511, 0.292126, 0.000721694, 0.00072497, 0.000927518
-1.86912, 2.13839, -1.09117, -0.00779539, -0.0026874, 0.00779885, 0.458008, 0.436839, 0.292022, 0.000721238, 0.00072426, 0.00092714
-1.89799, 2.16631, -1.09197, -0.00780193, -0.00269783, 0.00780844, 0.455943, 0.435307, 0.292015, 0.000720848, 0.000723595, 0.000926824
-1.92533, 2.19099, -1.09098, -0.00780766, -0.00270664, 0.00781664, 0.454005, 0.433934, 0.292094, 0.000720521, 0.000722992, 0.00092656
-1.95403, 2.21722, -1.08805, -0.0078135, -0.00271516, 0.00782442, 0.452261, 0.432764, 0.292267, 0.000720259, 0.000722458, 0.000926341
-1.9813, 2.24024, -1.08286, -0.0078184, -0.00272239, 0.00783058, 0.450753, 0.431807, 0.292531, 0.000720055, 0.000722, 0.000926155
-2.00722, 2.26338, -1.07533, -0.00782294, -0.00272883, 0.00783573, 0.449503, 0.43107, 0.292873, 0.0007199, 0.000721616, 0.000925991
-2.03383, 2.28379, -1.06882, -0.00782656, -0.00273382, 0.00783947, 0.448525, 0.430548, 0.293284, 0.000719782, 0.000721302, 0.000925839
-2.05552, 2.30458, -1.06222, -0.00782954, -0.00273744, 0.00784251, 0.447828, 0.430239, 0.293761, 0.000719691, 0.000721049, 0.000925694
-2.07466, 2.32255, -1.05416, -0.00783185, -0.00274023, 0.00784447, 0.447397, 0.430121, 0.294282, 0.000719615, 0.000720848, 0.000925549
-2.08941, 2.33912, -1.0474, -0.00783341, -0.00274193, 0.00784598, 0.44722, 0.430177, 0.294834, 0.000719544, 0.000720687, 0.000925405
-2.1011, 2.35364, -1.04155, -0.00783437, -0.00274293, 0.00784704, 0.44728, 0.430392, 0.295414, 0.000719472, 0.000720554, 0.00092526
-2.10832, 2.36507, -1.03675, -0.00783488, -0.0027435, 0.00784788, 0.447551, 0.43074, 0.296005, 0.000719392, 0.000720442, 0.000925117
-2.11311, 2.37329, -1.03116, -0.00783535, -0.00274403, 0.00784839, 0.448006, 0.431202, 0.296602, 0.000719303, 0.000720341, 0.000924978
-2.1143, 2.38073, -1.02784, -0.00783548, -0.0027444, 0.00784916, 0.448616, 0.431753, 0.297192, 0.000719205, 0.000720248, 0.000924846
-2.11269, 2.3876, -1.02622, -0.00783538, -0.00274479, 0.00785017, 0.449358, 0.43238, 0.297776, 0.000719099, 0.000720158, 0.000924724
-2.1097, 2.39247, -1.02656, -0.00783515, -0.00274513, 0.00785108, 0.450198, 0.43306, 0.298341, 0.000718988, 0.000720071, 0.000924615
-2.10592, 2.39623, -1.02776, -0.0078349, -0.00274552, 0.00785193, 0.451114, 0.433777, 0.298884, 0.000718875, 0.000719986, 0.000924521
-2.10165, 2.39833, -1.03073, -0.00783458, -0.00274586, 0.00785263, 0.452073, 0.43451, 0.299395, 0.000718763, 0.000719904, 0.000924442
-2.09865, 2.39972, -1.03292, -0.00783437, -0.00274612, 0.00785307, 0.453051, 0.435243, 0.299865, 0.000718656, 0.000719825, 0.000924378
-2.09549, 2.40224, -1.03498, -0.00783411, -0.00274646, 0.00785354, 0.454028, 0.435966, 0.300295, 0.000718556, 0.00071975, 0.000924329
-2.09257, 2.40502, -1.03741, -0.00783381, -0.00274677, 0.00785393, 0.454989, 0.436676, 0.300691, 0.000718465, 0.000719682, 0.000924291
-2.09102, 2.4082, -1.0405, -0.00783337, -0.00274694, 0.00785416, 0.455923, 0.437364, 0.301049, 0.000718384, 0.000719619, 0.000924264
-2.08983, 2.41195, -1.04403, -0.00783286, -0.00274709, 0.00785433, 0.456815, 0.438023, 0.301365, 0.000718312, 0.000719562, 0.000924245
-2.08896, 2.41651, -1.04728, -0.00783233, -0.00274725, 0.00785444, 0.457662, 0.438652, 0.301645, 0.00071825, 0.000719511, 0.000924233
-2.08854, 2.42154, -1.05046, -0.0078318, -0.00274739, 0.00785449, 0.45846, 0.439251, 0.30189, 0.000718196, 0.000719466, 0.000924224
-2.09013, 2.42688, -1.0531, -0.00783124, -0.00274738, 0.00785444, 0.459201, 0.439812, 0.302094, 0.000718149, 0.000719426, 0.000924219
-2.09186, 2.43173, -1.05532, -0.00783075, -0.00274737, 0.00785436, 0.459892, 0.440344, 0.30227, 0.000718109, 0.000719391, 0.000924215
-2.09415, 2.43652, -1.0578, -0.00783027, -0.00274732, 0.00785425, 0.460536, 0.44085, 0.302425, 0.000718075, 0.00071936, 0.000924212
-2.09686, 2.44094, -1.05992, -0.00782985, -0.00274725, 0.00785414, 0.461135, 0.441326, 0.302561, 0.000718044, 0.000719332, 0.00092421
-2.10013, 2.4447, -1.06223, -0.00782947, -0.00274713, 0.00785404, 0.461691, 0.441774, 0.302679, 0.000718018, 0.000719307, 0.000924208
-2.10332, 2.44899, -1.06434, -0.00782909, -0.00274704, 0.00785393, 0.462207, 0.442195, 0.302783, 0.000717995, 0.000719286, 0.000924206
-2.10638, 2.4539, -1.0665, -0.0078287, -0.00274698, 0.00785381, 0.462694, 0.442596, 0.302882, 0.000717973, 0.000719266, 0.000924204
-2.10945, 2.45883, -1.06869, -0.00782833, -0.00274693, 0.0078537, 0.463157, 0.442982, 0.30298, 0.000717954, 0.000719248, 0.000924202
-2.11309, 2.4641, -1.07028, -0.00782795, -0.00274685, 0.0078536, 0.463605, 0.443359, 0.303084, 0.000717936, 0.000719231, 0.000924201
-2.11686, 2.46894, -1.07164, -0.00782761, -0.00274676, 0.0078535, 0.464043, 0.443732, 0.303196, 0.000717919, 0.000719214, 0.000924199
-2.12144, 2.47189, -1.07188, -0.00782738, -0.00274659, 0.00785344, 0.464471, 0.444097, 0.303309, 0.000717902, 0.000719199, 0.000924198
