0.00370678, -0.000616392, -0.55848, 6.38645e-05, -0.000248018, 0.000146017, 0.0316228, 0.0316228, 0.0316228, 0.0316228, 0.0316228, 0.0316228
0.00370678, -0.000616392, -0.55848, 6.38645e-05, -0.000248018, 0.000146017, 0.173642, 0.173642, 0.173642, 0.0316228, 0.0316228, 0.0316228
0.00283987, -0.000564157, -0.559026, 6.11804e-05, -7.30184e-05, 0.000158638, 0.194306, 0.194298, 0.19426, 0.0315696, 0.0315703, 0.0316069
0.00190385, -0.0008751, -0.558667, 1.46487e-05, 1.28403e-05, 0.000153886, 0.212613, 0.212561, 0.212292, 0.0314738, 0.0314788, 0.0315911
0.00259063, -0.000921704, -0.555041, 1.5144e-05, -0.000166455, 0.000159113, 0.228987, 0.228925, 0.227761, 0.0313184, 0.0313249, 0.0315753
0.00270124, -0.000615031, -0.55248, 6.09565e-05, -0.000210679, 0.000173579, 0.243851, 0.243801, 0.240588, 0.0311032, 0.0311085, 0.0315595
0.00191586, -0.00106623, -0.556016, -2.33876e-05, 2.61038e-06, 0.000162847, 0.257549, 0.257505, 0.250833, 0.0308325, 0.0308375, 0.0315437
0.00187664, -0.00106533, -0.563273, -3.03805e-05, -6.01603e-05, 0.000168407, 0.270268, 0.270258, 0.258076, 0.0305074, 0.0305102, 0.0315279
-9.08328e-05, -0.00203373, -0.576007, -0.000236768, 0.000129747, 0.000174307, 0.282311, 0.282175, 0.263758, 0.0301284, 0.0301572, 0.0315116
-0.00254997, -0.00225344, -0.583079, -0.000230748, 0.000450439, 0.000165462, 0.293477, 0.293292, 0.267877, 0.0297049, 0.0297452, 0.0314945
-0.00348056, -0.00327594, -0.583101, -0.000383809, 0.000566657, 0.000160124, 0.303765, 0.303612, 0.270657, 0.0292238, 0.0292607, 0.031478
-0.00299474, -0.00312862, -0.58253, -0.0003697, 0.000526904, 0.000152547, 0.313127, 0.312978, 0.272823, 0.0286515, 0.0286901, 0.031462
-0.00185415, -0.00288701, -0.581125, -0.000346305, 0.000381339, 0.000168344, 0.321638, 0.321303, 0.275101, 0.0279656, 0.0280427, 0.0314461
0.00231327, -0.00219449, -0.587391, -0.000210583, -0.000161304, 0.000171897, 0.330052, 0.328887, 0.278932, 0.027199, 0.0274337, 0.0314303
0.00454201, -0.00187206, -0.591381, -0.000133321, -0.000436916, 0.000181473, 0.338383, 0.33619, 0.283496, 0.0263995, 0.0268348, 0.0314139
0.00630386, -0.000474881, -0.59096, 4.6645e-05, -0.000626317, 0.000182686, 0.346149, 0.343333, 0.28705, 0.0256226, 0.0261873, 0.0313976
0.00780368, 0.00107025, -0.588799, 0.000220651, -0.000804566, 0.000186878, 0.3533, 0.350355, 0.289048, 0.024909, 0.0255149, 0.0313817
0.00980517, 0.0021662, -0.581722, 0.000341166, -0.00111635, 0.000198744, 0.359863, 0.357312, 0.289017, 0.0242821, 0.0248362, 0.0313649
0.0105, 0.00337599, -0.576391, 0.000460083, -0.00128477, 0.000213781, 0.365693, 0.364155, 0.285948, 0.0237187, 0.024099, 0.0313463
0.009132, 0.00501848, -0.56563, 0.000614612, -0.00132352, 0.000224723, 0.371408, 0.370784, 0.28131, 0.0231623, 0.0233482, 0.031326
0.00771057, 0.00640108, -0.556235, 0.000758515, -0.00129268, 0.000229421, 0.377991, 0.377387, 0.278858, 0.0225872, 0.022702, 0.0313067
0.00629247, 0.00718264, -0.550402, 0.000852334, -0.00124152, 0.000241466, 0.385405, 0.384308, 0.279702, 0.0220192, 0.0221657, 0.0312887
0.00522758, 0.00620369, -0.550212, 0.000744827, -0.00112554, 0.000234934, 0.393081, 0.391689, 0.28254, 0.0214706, 0.0216254, 0.0312707
0.00340058, 0.00410412, -0.551026, 0.000521887, -0.00091466, 0.000205815, 0.400661, 0.399609, 0.287503, 0.020987, 0.021014, 0.0312518
0.00145554, 0.00239178, -0.554918, 0.000294116, -0.000623009, 0.000161637, 0.408053, 0.408035, 0.295292, 0.0206347, 0.0203768, 0.0312332
-0.000315063, 0.0010766, -0.559127, 2.54421e-05, -0.000393037, 9.53734e-05, 0.415336, 0.416701, 0.304599, 0.0204021, 0.0197817, 0.0312142
-0.00109721, 0.000752445, -0.564036, -0.000220513, -0.000296859, 5.30097e-05, 0.422654, 0.425324, 0.314273, 0.0202244, 0.0192608, 0.0311956
-0.00139389, 0.0011193, -0.568682, -0.000541656, -0.000270715, 8.27833e-06, 0.430135, 0.433687, 0.323676, 0.0200421, 0.0188115, 0.0311792
-0.000543105, 0.0025197, -0.57379, -0.000887481, -0.000346303, -4.09957e-05, 0.437785, 0.441465, 0.331834, 0.0197739, 0.0184129, 0.0311634
0.000527629, 0.00351256, -0.57831, -0.0013103, -0.000449116, -0.00012497, 0.44544, 0.44807, 0.33728, 0.019337, 0.0180213, 0.0311408
0.0012043, 0.00558705, -0.582382, -0.0015476, -0.000491078, -0.000170254, 0.453092, 0.452761, 0.339355, 0.0186822, 0.0176375, 0.0311008
0.00130663, 0.00808527, -0.586755, -0.00185142, -0.000454468, -0.000192147, 0.460793, 0.455075, 0.339025, 0.0178329, 0.0172726, 0.0310351
0.00175346, 0.00695453, -0.587261, -0.0021046, -0.000488925, -0.00027094, 0.468535, 0.454838, 0.337727, 0.0168505, 0.0169325, 0.0309375
0.00128999, 0.00467355, -0.58393, -0.00183197, -0.00046014, -0.000228457, 0.476211, 0.452117, 0.336222, 0.0158873, 0.0166154, 0.030803
0.000186396, 0.00179464, -0.580147, -0.0015465, -0.000358173, -0.000105319, 0.48376, 0.447492, 0.336204, 0.0150534, 0.0163359, 0.0306215
-0.000509872, -0.00125406, -0.576661, -0.00130725, -0.00029398, -1.68901e-05, 0.491195, 0.441919, 0.338482, 0.0143708, 0.0160957, 0.0303885
-0.000808314, -0.00563849, -0.572233, -0.00105859, -0.00026048, 1.71759e-05, 0.498502, 0.436334, 0.342805, 0.0138458, 0.0158921, 0.030106
-0.00148452, -0.00938677, -0.566993, -0.000732847, -0.000216328, 9.00282e-05, 0.505637, 0.431573, 0.348762, 0.0134696, 0.0157233, 0.0297813
-0.00226538, -0.0115889, -0.562464, -0.000456361, -0.000167224, 0.000189974, 0.512585, 0.427876, 0.356022, 0.0131954, 0.0155878, 0.0294184
-0.00242019, -0.012104, -0.559561, -0.000288016, -0.000148538, 0.000217051, 0.519372, 0.424994, 0.364076, 0.0129789, 0.0154805, 0.0290182
-0.00278828, -0.0124474, -0.556059, -9.45208e-05, -0.000133387, 0.000260269, 0.526019, 0.422531, 0.372431, 0.0127953, 0.0153966, 0.0285804
-0.00321363, -0.0130508, -0.553037, 5.47002e-05, -0.000115499, 0.000327921, 0.532523, 0.420161, 0.380775, 0.0126298, 0.0153327, 0.0281135
-0.00380526, -0.0122441, -0.550773, 0.00015196, -9.35282e-05, 0.000435339, 0.53892, 0.417567, 0.388967, 0.0124698, 0.015284, 0.0276191
-0.00374974, -0.0130857, -0.54855, 0.000252343, -8.75534e-05, 0.000440507, 0.545228, 0.414874, 0.396913, 0.0123145, 0.0152475, 0.0271016
-0.00342397, -0.0147122, -0.546293, 0.000352265, -9.13317e-05, 0.000403944, 0.55147, 0.413004, 0.404486, 0.0121813, 0.0152196, 0.0265769
-0.0039136, -0.0159583, -0.543769, 0.000439975, -8.82367e-05, 0.000497876, 0.557657, 0.412556, 0.411603, 0.0120767, 0.0151981, 0.0260532
-0.00414412, -0.0199587, -0.539939, 0.000521503, -8.46276e-05, 0.000550873, 0.563813, 0.414497, 0.418195, 0.0120003, 0.0151805, 0.0255431
-0.00465703, -0.023198, -0.535477, 0.000570098, -8.97395e-05, 0.000601451, 0.569959, 0.419108, 0.424071, 0.0119359, 0.0151646, 0.02506
-0.00436484, -0.0262975, -0.532246, 0.000543264, -9.61085e-05, 0.000539786, 0.576093, 0.425224, 0.429107, 0.0118536, 0.0151501, 0.0245974
-0.00467847, -0.0293673, -0.528331, 0.000472534, -0.000103596, 0.0005536, 0.5822, 0.432139, 0.433011, 0.0117351, 0.0151373, 0.0241513
-0.00518992, -0.0315819, -0.52455, 0.000340135, -0.000110725, 0.00057322, 0.588256, 0.439775, 0.435422, 0.0115581, 0.0151254, 0.0237243
-0.00538269, -0.032283, -0.522122, 0.000193445, -0.000121361, 0.000557554, 0.594223, 0.447861, 0.436065, 0.0113051, 0.015114, 0.0233089
-0.00486795, -0.0315879, -0.522759, 7.74899e-05, -0.000125791, 0.000528724, 0.60006, 0.456042, 0.434645, 0.0109718, 0.0151028, 0.0229067
-0.00407397, -0.0304103, -0.524642, -3.45663e-05, -0.000126814, 0.000512004, 0.605715, 0.46409, 0.431138, 0.0105733, 0.0150913, 0.0225285
-0.00060565, -0.0286627, -0.537642, 1.22815e-05, -8.68411e-05, 0.000561983, 0.611152, 0.471972, 0.425896, 0.0101444, 0.0150794, 0.0221845
0.00228317, -0.0278796, -0.54566, -5.88337e-06, -6.26866e-05, 0.000494671, 0.616343, 0.479799, 0.419588, 0.00973595, 0.0150676, 0.0218769
0.00520098, -0.0282433, -0.553323, 1.65127e-05, -4.94696e-05, 0.000425565, 0.621301, 0.487597, 0.412089, 0.00936772, 0.0150555, 0.0216358
0.00623114, -0.0287104, -0.55597, 5.292e-05, -4.81252e-05, 0.000421919, 0.626093, 0.495024, 0.402681, 0.00903592, 0.0150416, 0.0214651
0.00671747, -0.0284951, -0.555695, 7.96052e-05, -6.93489e-05, 0.000395671, 0.630788, 0.501378, 0.390995, 0.00870913, 0.0150231, 0.0213552
0.00835496, -0.0287852, -0.556144, 4.33288e-05, -9.90161e-05, 0.000335621, 0.635454, 0.505911, 0.378086, 0.00836195, 0.0149957, 0.0212937
0.00969598, -0.0288726, -0.555238, -1.9935e-05, -0.000120072, 0.000307425, 0.640127, 0.508397, 0.36612, 0.00801824, 0.0149552, 0.0212653
0.0105433, -0.0283791, -0.553645, -6.59309e-05, -0.000143289, 0.000299806, 0.644768, 0.508391, 0.355001, 0.00769159, 0.0148981, 0.0212549
0.0113425, -0.0278636, -0.552438, -9.16093e-05, -0.00017884, 0.00030885, 0.649383, 0.505007, 0.344141, 0.00738003, 0.0148183, 0.0212467
0.0114806, -0.0264724, -0.552523, -7.65404e-05, -0.000221874, 0.00032959, 0.653998, 0.49768, 0.334367, 0.00708721, 0.0147094, 0.0212233
0.0104335, -0.0231603, -0.554522, -2.09694e-05, -0.000262169, 0.000345865, 0.658657, 0.486879, 0.326997, 0.00681548, 0.0145671, 0.0211706
0.00970422, -0.0204384, -0.556437, 1.84874e-05, -0.00031035, 0.00037287, 0.663377, 0.473632, 0.322647, 0.00656533, 0.0143914, 0.0210775
0.00903039, -0.0175454, -0.558423, 4.93809e-05, -0.000360615, 0.000406283, 0.668093, 0.458868, 0.32111, 0.00634315, 0.0141893, 0.0209332
0.00771377, -0.0135071, -0.561587, 8.82616e-05, -0.000381798, 0.000408706, 0.672763, 0.443774, 0.321853, 0.00615203, 0.0139699, 0.0207331
0.00611732, -0.0105384, -0.566432, 0.000145621, -0.000368137, 0.00037134, 0.677395, 0.429486, 0.32423, 0.00598995, 0.0137411, 0.0204817
0.00452447, -0.00549754, -0.571868, 0.00019267, -0.000377978, 0.0003646, 0.682001, 0.41656, 0.327603, 0.00585352, 0.0135118, 0.0201923
0.00346809, -0.00143198, -0.576167, 0.000223079, -0.000387988, 0.00036788, 0.686597, 0.40517, 0.331571, 0.00574013, 0.0132897, 0.0198784
0.002567, 0.00132189, -0.580503, 0.000255161, -0.000382907, 0.000349992, 0.691167, 0.395801, 0.335861, 0.00565081, 0.0130815, 0.019548
0.00159554, 0.00453212, -0.584336, 0.000275742, -0.000364256, 0.000311845, 0.695725, 0.389212, 0.340334, 0.00558839, 0.012889, 0.0192068
0.000824507, 0.00496932, -0.587944, 0.000301532, -0.000323741, 0.000238569, 0.700294, 0.385824, 0.344934, 0.00555139, 0.0127124, 0.0188626
0.000374208, 0.00418585, -0.589799, 0.000315212, -0.000288741, 0.000174067, 0.704868, 0.385426, 0.349468, 0.00553344, 0.0125526, 0.0185286
-5.97513e-05, 0.00111162, -0.59055, 0.000321286, -0.000251071, 9.85094e-05, 0.709387, 0.387452, 0.353653, 0.00552534, 0.0124112, 0.0182137
-0.000321911, -0.00218297, -0.590237, 0.000312697, -0.00023438, 5.62757e-05, 0.713758, 0.391429, 0.357301, 0.00551854, 0.0122912, 0.0179225
-0.000891713, -0.00455421, -0.587794, 0.000294442, -0.000224347, 2.16641e-05, 0.717883, 0.396642, 0.360064, 0.00550264, 0.0121931, 0.017658
-0.00164117, -0.00550211, -0.582862, 0.0002799, -0.00023146, 1.67241e-05, 0.721684, 0.402405, 0.361468, 0.00547039, 0.0121145, 0.0174214
-0.00334493, -0.00581436, -0.575857, 0.000272825, -0.000239945, 1.38695e-06, 0.725137, 0.408408, 0.36101, 0.00541931, 0.0120506, 0.0172149
-0.00573027, -0.00709605, -0.569095, 0.000258565, -0.000251223, -3.09111e-05, 0.728294, 0.41474, 0.358252, 0.00534917, 0.0119952, 0.0170379
-0.00728336, -0.0103003, -0.565256, 0.000209632, -0.00028201, -4.59947e-05, 0.731222, 0.421436, 0.353419, 0.0052628, 0.0119437, 0.0168925
-0.0087938, -0.0128741, -0.561113, 0.0001813, -0.000321541, -4.2201e-05, 0.734056, 0.428388, 0.347462, 0.00516357, 0.0118927, 0.016779
-0.0106141, -0.0142681, -0.558674, 0.00017784, -0.000327666, -6.58149e-05, 0.736977, 0.435126, 0.341304, 0.00505811, 0.0118396, 0.0166947
-0.0118202, -0.0150647, -0.560119, 0.00014855, -0.000317358, -0.000104101, 0.74012, 0.441137, 0.335578, 0.00494877, 0.0117832, 0.0166389
-0.0132471, -0.0159053, -0.562949, 9.60933e-05, -0.000313755, -0.000140171, 0.743572, 0.445834, 0.330661, 0.00483528, 0.0117211, 0.0166058
-0.0147879, -0.0175887, -0.563986, 6.30623e-05, -0.00032567, -0.000157932, 0.74735, 0.448615, 0.326686, 0.00472471, 0.0116512, 0.0165873
-0.0166534, -0.0200927, -0.564789, 3.55773e-05, -0.000330256, -0.000175186, 0.751424, 0.448927, 0.323662, 0.00461856, 0.0115729, 0.0165788
-0.0177255, -0.0217717, -0.56523, 2.31897e-05, -0.000322888, -0.000181246, 0.755742, 0.446488, 0.321856, 0.004513, 0.0114904, 0.0165752
-0.0173761, -0.0211365, -0.563863, 3.70423e-05, -0.000286218, -0.0001762, 0.760253, 0.441246, 0.321374, 0.00440719, 0.011408, 0.0165709
-0.0170474, -0.0214447, -0.562015, 5.34764e-05, -0.000255768, -0.000167627, 0.764897, 0.433168, 0.321834, 0.00430661, 0.0113237, 0.0165617
-0.0169557, -0.022396, -0.561158, 6.08422e-05, -0.000238954, -0.000161266, 0.769616, 0.422372, 0.322939, 0.00421489, 0.0112373, 0.016546
-0.0166007, -0.018794, -0.560752, 5.00639e-05, -0.000211829, -0.000145309, 0.774398, 0.409884, 0.324728, 0.00413026, 0.0111564, 0.0165203
-0.0166402, -0.0180114, -0.562046, 3.7063e-05, -0.000203613, -0.000142696, 0.779181, 0.396813, 0.327296, 0.00405042, 0.0110832, 0.0164823
-0.016277, -0.0172162, -0.560239, 4.25887e-05, -0.000184097, -0.000121619, 0.783995, 0.383836, 0.330071, 0.00397953, 0.0110172, 0.0164363
-0.0159035, -0.0124071, -0.555081, 4.50568e-05, -0.000149313, -6.73718e-05, 0.788819, 0.371852, 0.332669, 0.00392035, 0.0109576, 0.0163836
-0.0157513, -0.00750863, -0.54992, 4.23726e-05, -0.000116637, -6.55119e-06, 0.793605, 0.362004, 0.335295, 0.00387433, 0.0109011, 0.0163235
-0.0156996, -0.0042711, -0.547142, 3.63399e-05, -9.89121e-05, 3.61033e-05, 0.798363, 0.355116, 0.338099, 0.0038397, 0.0108476, 0.0162539
-0.0153856, -0.00460597, -0.543646, 4.43611e-05, -9.17104e-05, 6.02314e-05, 0.803094, 0.351769, 0.341127, 0.00381544, 0.0107982, 0.0161752
-0.0154463, -0.00431921, -0.541144, 4.37036e-05, -8.1396e-05, 9.88958e-05, 0.807794, 0.351615, 0.344326, 0.00379923, 0.0107559, 0.0160838
-0.0153632, -0.00532366, -0.538752, 4.60097e-05, -7.87138e-05, 0.000113471, 0.812441, 0.353406, 0.347518, 0.00378745, 0.0107228, 0.0159718
-0.0152828, -0.00660235, -0.536804, 4.76796e-05, -8.03595e-05, 0.000112481, 0.817017, 0.356137, 0.350384, 0.00377733, 0.0107001, 0.0158335
-0.0152681, -0.00691081, -0.536614, 4.7161e-05, -8.39959e-05, 0.000111998, 0.82147, 0.359353, 0.35264, 0.00376612, 0.0106855, 0.0156713
-0.0152912, -0.00650977, -0.537804, 4.66758e-05, -8.84038e-05, 0.00011798, 0.825768, 0.363319, 0.354173, 0.00375009, 0.0106762, 0.015493
-0.0151314, -0.00304715, -0.543797, 6.04967e-05, -9.72509e-05, 0.000135528, 0.829909, 0.368296, 0.354934, 0.00372554, 0.0106702, 0.0153062
-0.0145893, 0.000144363, -0.550163, 8.22256e-05, -0.000108112, 0.000130985, 0.833839, 0.374292, 0.354795, 0.00369284, 0.0106665, 0.0151224
-0.01359, 0.00221489, -0.554967, 0.000105356, -0.000117083, 0.000102475, 0.837467, 0.381184, 0.353294, 0.00365222, 0.0106642, 0.0149551
-0.0124928, 0.00296492, -0.557152, 0.000119554, -0.000124388, 6.19511e-05, 0.840769, 0.38859, 0.349788, 0.00360003, 0.010662, 0.0148153
-0.0113491, 0.00243465, -0.558103, 0.000116326, -0.000127701, 3.79515e-05, 0.843786, 0.396087, 0.344267, 0.00353069, 0.0106587, 0.0147089
-0.00981519, 0.00213256, -0.556965, 0.000106371, -0.000128874, 1.02208e-05, 0.846622, 0.403211, 0.337924, 0.00345055, 0.0106531, 0.0146364
-0.00809735, 0.0017516, -0.555522, 9.2187e-05, -0.000128543, -9.15561e-06, 0.849297, 0.409421, 0.331808, 0.00336714, 0.0106439, 0.0145925
-0.007281, 0.00157393, -0.555575, 9.10282e-05, -0.000133341, -1.38898e-05, 0.851794, 0.413931, 0.326399, 0.0032878, 0.0106305, 0.0145707
-0.00567438, 0.000395454, -0.553916, 7.17733e-05, -0.000125412, -1.08767e-05, 0.854172, 0.415922, 0.321662, 0.00321803, 0.0106114, 0.0145628
-0.00528889, 0.00123939, -0.553301, 6.98846e-05, -0.00013486, -1.02004e-05, 0.856547, 0.415006, 0.317364, 0.00315825, 0.0105821, 0.0145589
-0.00554896, 0.0022422, -0.553817, 7.42945e-05, -0.000153868, -3.89516e-06, 0.858976, 0.411215, 0.31364, 0.00310576, 0.01054, 0.0145471
-0.00717939, 0.00370227, -0.556771, 9.01745e-05, -0.000179504, 5.14703e-06, 0.861521, 0.405136, 0.310598, 0.00306016, 0.0104806, 0.0145146
-0.010279, 0.00814846, -0.560637, 0.000104749, -0.000223104, 2.24604e-05, 0.864232, 0.397819, 0.308753, 0.00302007, 0.0104015, 0.0144525
-0.0129538, 0.0111841, -0.565408, 0.000121029, -0.000261819, 3.84998e-05, 0.867154, 0.390081, 0.308354, 0.00298414, 0.0103075, 0.0143577
-0.015015, 0.0134802, -0.569914, 0.000134152, -0.000286032, 4.42594e-05, 0.870322, 0.382893, 0.309023, 0.00295463, 0.0102019, 0.0142301
-0.01558, 0.0134269, -0.573025, 0.000143548, -0.000299905, 5.38247e-05, 0.873762, 0.377275, 0.310643, 0.00293277, 0.0100918, 0.0140761
-0.0154665, 0.012417, -0.574945, 0.000150382, -0.000297175, 4.84055e-05, 0.877418, 0.373692, 0.313016, 0.00291776, 0.00998847, 0.0139095
-0.0146696, 0.0100514, -0.575572, 0.000154954, -0.000288496, 4.18673e-05, 0.881155, 0.371906, 0.315681, 0.00290744, 0.00990008, 0.0137447
-0.0138795, 0.00799351, -0.575412, 0.000155756, -0.0002868, 4.76108e-05, 0.884777, 0.37128, 0.318085, 0.00289954, 0.00983023, 0.0135929
-0.0136006, 0.00766867, -0.57263, 0.000150907, -0.000281842, 4.72563e-05, 0.888115, 0.371009, 0.319676, 0.00289215, 0.00977614, 0.0134631
-0.0133885, 0.00816079, -0.568687, 0.000142266, -0.000282877, 5.8277e-05, 0.891102, 0.370106, 0.319948, 0.00288332, 0.00973044, 0.0133592
-0.0132999, 0.00762069, -0.565687, 0.000135385, -0.00027124, 5.15084e-05, 0.893797, 0.368487, 0.318981, 0.0028729, 0.00968642, 0.0132819
-0.0137564, 0.00779536, -0.561927, 0.000128019, -0.00026213, 4.29929e-05, 0.896309, 0.367185, 0.317451, 0.00286278, 0.00964274, 0.0132266
-0.0140289, 0.00730531, -0.5605, 0.000125312, -0.000251096, 3.21864e-05, 0.898794, 0.367064, 0.315848, 0.00285421, 0.00959882, 0.0131867
-0.0146676, 0.0072926, -0.559414, 0.000125051, -0.000237022, 1.65925e-05, 0.901402, 0.368355, 0.314352, 0.00284688, 0.00955387, 0.0131579
-0.0152654, 0.00731148, -0.558474, 0.000125419, -0.000224774, 4.5869e-06, 0.904135, 0.370753, 0.313166, 0.00283984, 0.00950777, 0.0131366
-0.0160898, 0.00756163, -0.557633, 0.000126854, -0.000207631, -9.29457e-06, 0.907016, 0.373826, 0.312249, 0.0028324, 0.00946061, 0.0131207
-0.0161005, 0.00689805, -0.557779, 0.000124848, -0.000192713, -1.66071e-05, 0.910057, 0.377176, 0.311475, 0.00282412, 0.00941188, 0.0131084
-0.016355, 0.0067609, -0.557674, 0.000124026, -0.000175868, -2.37303e-05, 0.913154, 0.380614, 0.310818, 0.0028146, 0.0093596, 0.0130981
-0.0164357, 0.00612419, -0.558023, 0.000119767, -0.000152081, -3.4997e-05, 0.916143, 0.384082, 0.31016, 0.00280263, 0.00930191, 0.0130883
-0.0166598, 0.00537752, -0.558494, 0.000113469, -0.00013095, -4.85466e-05, 0.918764, 0.38772, 0.309344, 0.00278691, 0.00923606, 0.0130774
-0.0166416, 0.00455809, -0.560623, 0.000102077, -0.000114721, -6.44607e-05, 0.920636, 0.391737, 0.308393, 0.00276823, 0.00916065, 0.0130659
-0.0188946, 0.00280398, -0.560148, 9.99442e-05, -0.000132381, -7.55809e-05, 0.921344, 0.396053, 0.307205, 0.00274789, 0.00907329, 0.0130551
-0.0210337, 0.00154877, -0.560579, 9.63297e-05, -0.000151722, -8.38846e-05, 0.919982, 0.400389, 0.305912, 0.00272764, 0.00896686, 0.0130463
-0.0221795, 0.000961305, -0.560927, 9.54142e-05, -0.000167221, -8.43799e-05, 0.914875, 0.40451, 0.304715, 0.00270965, 0.0088265, 0.0130395
-0.0228526, 0.000836481, -0.563539, 8.99391e-05, -0.000176486, -8.57045e-05, 0.903334, 0.408317, 0.303478, 0.00269509, 0.00862723, 0.0130342
-0.0227626, 0.000776517, -0.563882, 9.07013e-05, -0.000181337, -8.32973e-05, 0.882013, 0.411265, 0.301889, 0.00268233, 0.00833769, 0.0130297
-0.024483, 0.000178067, -0.565502, 8.9524e-05, -0.000204319, -8.45818e-05, 0.848688, 0.413666, 0.300019, 0.00267006, 0.00794222, 0.0130256
-0.0210117, 0.00101886, -0.561202, 9.73461e-05, -0.000173691, -7.94548e-05, 0.804011, 0.415746, 0.298296, 0.00265769, 0.00744915, 0.013022
-0.0163078, 0.00193657, -0.558072, 0.000101934, -0.000133336, -7.5123e-05, 0.752171, 0.41802, 0.296898, 0.0026435, 0.00689776, 0.0130192
-0.0127172, 0.00222231, -0.556526, 0.000105736, -0.000107647, -7.3765e-05, 0.698971, 0.420955, 0.295616, 0.00262656, 0.00634302, 0.0130169
-0.00739834, 0.0026705, -0.556005, 0.000107433, -6.85006e-05, -7.20492e-05, 0.649401, 0.424076, 0.294177, 0.00260663, 0.00583191, 0.0130149
-0.00142313, 0.00364036, -0.557949, 0.000104038, -2.23944e-05, -6.88964e-05, 0.606585, 0.426765, 0.292519, 0.00258408, 0.00539791, 0.013013
-0.000646586, 0.0029348, -0.560074, 0.000106506, -2.65729e-05, -7.00658e-05, 0.57089, 0.429012, 0.291037, 0.00256089, 0.00505126, 0.0130111
0.00569757, 0.00353506, -0.559845, 0.00010367, 2.34633e-05, -6.57375e-05, 0.541114, 0.430533, 0.28992, 0.00253919, 0.00478328, 0.0130085
0.00975244, 0.00330859, -0.558353, 0.000104253, 5.20665e-05, -6.24561e-05, 0.51561, 0.43129, 0.28911, 0.00251987, 0.0045782, 0.013004
0.0120768, 0.00321725, -0.556489, 0.000104519, 6.85859e-05, -5.98378e-05, 0.493112, 0.431547, 0.288573, 0.00250366, 0.004418, 0.0129962
0.0143925, 0.00279694, -0.554958, 0.000105389, 8.26228e-05, -5.53061e-05, 0.473094, 0.431617, 0.28817, 0.00249044, 0.00429085, 0.0129848
0.0147199, 0.00143187, -0.553466, 0.000109579, 7.84139e-05, -4.7753e-05, 0.455488, 0.431829, 0.287778, 0.00248004, 0.00418991, 0.0129706
0.01606, 0.00239005, -0.553889, 0.000106728, 9.08326e-05, -5.31034e-05, 0.440433, 0.432456, 0.287358, 0.00247223, 0.00411203, 0.0129553
0.0179777, 0.00263063, -0.556936, 0.000105957, 0.000103022, -5.61206e-05, 0.428136, 0.433708, 0.286952, 0.00246656, 0.004056, 0.0129411
0.0187576, 0.00307754, -0.556741, 0.000105209, 0.00010803, -5.82277e-05, 0.418762, 0.435704, 0.286731, 0.0024631, 0.00401945, 0.0129278
0.019346, 0.00336365, -0.555315, 0.000104429, 0.000110138, -5.74756e-05, 0.412454, 0.438483, 0.28672, 0.00246142, 0.00399999, 0.0129157
0.0199586, 0.0044524, -0.553967, 0.000103436, 0.000112288, -5.72549e-05, 0.409305, 0.441887, 0.286782, 0.00246058, 0.00399383, 0.0129063
0.020573, 0.00520733, -0.552631, 0.000103069, 0.000112441, -5.47975e-05, 0.409037, 0.445473, 0.286933, 0.00245981, 0.00399353, 0.0128981
0.0213809, 0.0054498, -0.554122, 0.00010428, 0.00011134, -5.26619e-05, 0.4112, 0.448668, 0.287174, 0.00245848, 0.00399029, 0.0128895
0.0222766, 0.00525662, -0.555164, 0.000104131, 0.000108198, -4.87073e-05, 0.41531, 0.45088, 0.287459, 0.00245566, 0.0039746, 0.0128797
0.0225811, 0.00512266, -0.554734, 0.000103847, 0.000105415, -4.77532e-05, 0.420856, 0.451536, 0.287732, 0.00245034, 0.00393805, 0.0128689
0.0225809, 0.00437506, -0.551778, 0.000100817, 0.000101768, -4.73575e-05, 0.427169, 0.450252, 0.288002, 0.00244176, 0.00387394, 0.0128578
0.0230078, 0.00390927, -0.552202, 9.94959e-05, 0.000101063, -4.96106e-05, 0.43364, 0.446933, 0.288181, 0.00243007, 0.00378021, 0.0128447
0.0231726, 0.00304224, -0.550867, 9.78647e-05, 0.000103974, -5.41403e-05, 0.439674, 0.442016, 0.28809, 0.00241557, 0.00365902, 0.0128285
0.0235482, 0.00147476, -0.55007, 9.67419e-05, 0.000115673, -6.20029e-05, 0.444882, 0.43579, 0.287854, 0.00240027, 0.00352369, 0.0128078
0.0240672, 0.000683204, -0.551358, 9.58496e-05, 0.000122021, -6.50673e-05, 0.449162, 0.428462, 0.287606, 0.00238555, 0.00338829, 0.0127837
0.023739, -0.000303368, -0.552416, 9.98021e-05, 0.00013405, -5.5427e-05, 0.452414, 0.420525, 0.287313, 0.00237112, 0.00326037, 0.0127593
0.0240465, -0.000594107, -0.552723, 9.8787e-05, 0.000135593, -5.65982e-05, 0.454442, 0.41239, 0.287078, 0.00235659, 0.00314431, 0.0127356
0.0238786, -0.000150564, -0.55244, 9.88825e-05, 0.000132525, -5.74829e-05, 0.455071, 0.404384, 0.286765, 0.00234132, 0.0030414, 0.0127133
0.0234589, 0.000312404, -0.55066, 9.96375e-05, 0.000129689, -5.798e-05, 0.453987, 0.396818, 0.286266, 0.00232442, 0.00295134, 0.0126935
0.0228772, 0.000335755, -0.549083, 0.000101196, 0.000128669, -5.53549e-05, 0.450882, 0.38971, 0.285917, 0.00230505, 0.00287289, 0.0126792
0.0208214, 0.000133212, -0.54936, 0.000106784, 0.000124836, -4.56633e-05, 0.445587, 0.382767, 0.285769, 0.00228305, 0.00280437, 0.0126703
0.0182649, -0.000559716, -0.551326, 0.000114063, 0.000120335, -3.63981e-05, 0.438122, 0.375899, 0.285238, 0.00225776, 0.00274308, 0.0126648
0.0146385, -0.000909765, -0.549625, 0.000121902, 0.000112615, -2.79701e-05, 0.428595, 0.369255, 0.284305, 0.00223002, 0.00268832, 0.012659
0.0126435, -0.00147043, -0.550331, 0.000126661, 0.000108312, -2.42923e-05, 0.417645, 0.363308, 0.283445, 0.00220271, 0.00264047, 0.0126538
0.0105267, -0.00197758, -0.552099, 0.000131239, 0.000102711, -2.03301e-05, 0.406108, 0.358366, 0.282861, 0.00217779, 0.00259963, 0.0126501
0.0077317, -0.00272673, -0.553786, 0.000136935, 9.57901e-05, -1.72984e-05, 0.394914, 0.354593, 0.28239, 0.00215609, 0.00256561, 0.0126463
0.00459397, -0.00342087, -0.555394, 0.000142487, 8.82073e-05, -1.64984e-05, 0.384936, 0.352119, 0.281921, 0.00213808, 0.00253869, 0.0126415
0.00293036, -0.00346571, -0.553851, 0.000143922, 8.44604e-05, -1.32625e-05, 0.376722, 0.350914, 0.281555, 0.00212465, 0.00251889, 0.0126366
0.00148274, -0.00355302, -0.553462, 0.00014517, 8.11145e-05, -1.03166e-05, 0.370494, 0.350799, 0.281408, 0.00211598, 0.0025058, 0.0126325
0.000499802, -0.00424701, -0.554538, 0.000147119, 7.9531e-05, -1.05071e-05, 0.366413, 0.351594, 0.281422, 0.00211105, 0.0024986, 0.0126284
-0.000696039, -0.0051528, -0.554816, 0.000148834, 7.82942e-05, -1.19645e-05, 0.364575, 0.35313, 0.281459, 0.00210874, 0.00249598, 0.0126234
-0.00169682, -0.00573852, -0.554401, 0.000149337, 7.7712e-05, -1.20681e-05, 0.364799, 0.35509, 0.281379, 0.00210796, 0.00249561, 0.0126164
-0.00165219, -0.00590199, -0.552751, 0.000149549, 7.75666e-05, -1.32029e-05, 0.366653, 0.357099, 0.28129, 0.00210751, 0.00249509, 0.0126075
-0.0014233, -0.00588974, -0.553968, 0.000149391, 7.70527e-05, -1.35996e-05, 0.369712, 0.358883, 0.281316, 0.00210618, 0.00249227, 0.0125993
-0.000907614, -0.00578492, -0.556005, 0.000149351, 7.64799e-05, -1.38367e-05, 0.373684, 0.360342, 0.281503, 0.00210311, 0.00248482, 0.0125931
0.000130109, -0.00596575, -0.559564, 0.000149517, 7.64883e-05, -1.68098e-05, 0.378309, 0.361547, 0.28198, 0.00209808, 0.00247021, 0.0125885
0.000998354, -0.00570197, -0.559779, 0.000151984, 7.32045e-05, -1.3291e-05, 0.383331, 0.362552, 0.282705, 0.00209155, 0.00244804, 0.0125822
0.00173191, -0.00566228, -0.558018, 0.00015488, 6.65941e-05, -5.32467e-06, 0.38847, 0.363301, 0.283454, 0.00208403, 0.00242068, 0.0125736
0.00316225, -0.0065787, -0.557021, 0.000159037, 5.57244e-05, 6.42291e-06, 0.393411, 0.363756, 0.284101, 0.00207544, 0.00239031, 0.0125641
0.00369353, -0.0066603, -0.556984, 0.000160699, 5.35904e-05, 9.82694e-06, 0.39782, 0.363898, 0.284358, 0.00206601, 0.00235936, 0.0125549
0.0044481, -0.00682205, -0.557829, 0.000162838, 5.13423e-05, 1.41296e-05, 0.401241, 0.363615, 0.284119, 0.00205615, 0.00232938, 0.0125459
0.00535758, -0.00675227, -0.559369, 0.000165224, 5.02006e-05, 1.85593e-05, 0.403274, 0.362758, 0.283606, 0.00204631, 0.00230113, 0.0125358
0.00655727, -0.00711833, -0.559187, 0.000168058, 4.89123e-05, 2.39143e-05, 0.403676, 0.361254, 0.283051, 0.00203707, 0.00227498, 0.0125228
0.00729742, -0.00729993, -0.558646, 0.000169652, 4.8933e-05, 2.62748e-05, 0.402336, 0.359163, 0.28266, 0.00202919, 0.00225073, 0.0125039
0.00772536, -0.00761887, -0.557446, 0.000170578, 4.84769e-05, 2.94812e-05, 0.399264, 0.356656, 0.282458, 0.00202314, 0.00222852, 0.0124774
0.00768272, -0.00781849, -0.557412, 0.000170764, 4.80212e-05, 2.91552e-05, 0.394736, 0.353964, 0.282336, 0.00201901, 0.00220875, 0.0124437
0.00715241, -0.00743075, -0.557095, 0.000170426, 4.8426e-05, 2.1735e-05, 0.389188, 0.351309, 0.282313, 0.00201649, 0.00219187, 0.012403
0.00670415, -0.00709509, -0.556398, 0.000170257, 4.85449e-05, 1.53962e-05, 0.38333, 0.348981, 0.282308, 0.00201511, 0.00217888, 0.0123595
0.0069899, -0.00645069, -0.555156, 0.000170166, 4.97802e-05, 1.30664e-05, 0.378001, 0.347319, 0.282221, 0.00201438, 0.00217057, 0.0123191
0.00723184, -0.00566889, -0.554223, 0.00017026, 5.10519e-05, 8.89571e-06, 0.373894, 0.346589, 0.282042, 0.00201393, 0.00216601, 0.0122855
0.00792566, -0.00551731, -0.555101, 0.000171151, 5.14643e-05, 9.20459e-06, 0.371383, 0.346826, 0.28186, 0.00201353, 0.00216383, 0.0122557
0.00838785, -0.0057678, -0.555932, 0.000171713, 5.10423e-05, 1.1454e-05, 0.370527, 0.347828, 0.281773, 0.00201267, 0.00216288, 0.0122222
0.00917143, -0.00596721, -0.555673, 0.00017156, 5.03194e-05, 1.81911e-05, 0.371158, 0.349338, 0.281786, 0.00201102, 0.00216204, 0.0121874
0.00996841, -0.00657285, -0.554457, 0.000170664, 4.89065e-05, 2.77598e-05, 0.373045, 0.35112, 0.281862, 0.00200886, 0.00216012, 0.0121578
0.00970669, -0.00723167, -0.550992, 0.000169706, 4.77775e-05, 3.0607e-05, 0.375888, 0.353046, 0.282015, 0.00200689, 0.0021563, 0.01214
0.00890869, -0.00805835, -0.548524, 0.000168914, 4.76582e-05, 2.73296e-05, 0.379398, 0.355008, 0.28225, 0.00200548, 0.00214991, 0.0121292
0.00806085, -0.00870106, -0.551007, 0.000170178, 5.18442e-05, 1.88275e-05, 0.383544, 0.35685, 0.282367, 0.00200446, 0.00214055, 0.012108
0.00748357, -0.0093566, -0.552901, 0.00017145, 5.47436e-05, 1.15553e-05, 0.388147, 0.358621, 0.282242, 0.00200312, 0.0021269, 0.0120622
0.00739401, -0.0102914, -0.553461, 0.000172472, 5.72195e-05, -9.83373e-07, 0.392829, 0.36048, 0.282002, 0.00200147, 0.00210927, 0.012001
0.00803696, -0.0116985, -0.552723, 0.000172926, 6.03664e-05, -2.45421e-05, 0.397155, 0.362314, 0.281836, 0.00199996, 0.00208956, 0.0119411
0.00927808, -0.013321, -0.550577, 0.000172646, 6.35683e-05, -5.38803e-05, 0.400657, 0.363862, 0.281889, 0.00199877, 0.00206902, 0.0118879
0.010098, -0.0139485, -0.550925, 0.000171893, 6.54937e-05, -6.38925e-05, 0.402898, 0.364793, 0.282294, 0.00199764, 0.00204806, 0.0118403
0.0103428, -0.0134427, -0.553266, 0.000171465, 6.51809e-05, -6.1955e-05, 0.403811, 0.364822, 0.282782, 0.00199606, 0.00202724, 0.011796
0.00996401, -0.0129809, -0.553538, 0.000171444, 6.3364e-05, -5.65774e-05, 0.4032, 0.363848, 0.283089, 0.00199354, 0.00200669, 0.0117597
0.00938396, -0.0124003, -0.552749, 0.000171482, 6.10023e-05, -5.16207e-05, 0.400794, 0.361807, 0.283111, 0.00198987, 0.00198668, 0.011733
0.00914054, -0.0119493, -0.552666, 0.000171055, 5.95174e-05, -4.87816e-05, 0.396445, 0.358728, 0.282905, 0.00198476, 0.00196692, 0.0117151
0.00787241, -0.0123223, -0.554252, 0.000172557, 5.73244e-05, -4.2373e-05, 0.390348, 0.354839, 0.28233, 0.00197819, 0.00194708, 0.0117033
0.00786631, -0.0107165, -0.552513, 0.000170543, 5.55843e-05, -4.11587e-05, 0.383001, 0.350493, 0.28159, 0.0019708, 0.00192743, 0.0116951
0.00802695, -0.0097524, -0.551199, 0.000169049, 5.50599e-05, -4.0319e-05, 0.375058, 0.346085, 0.281005, 0.00196357, 0.00190919, 0.0116898
0.00684547, -0.00906437, -0.551733, 0.000168804, 5.16566e-05, -3.53024e-05, 0.367051, 0.341968, 0.28071, 0.00195686, 0.00189331, 0.0116868
0.00511964, -0.00838702, -0.55283, 0.000169096, 4.75321e-05, -3.1201e-05, 0.359623, 0.338474, 0.280553, 0.00195003, 0.00188042, 0.0116843
0.00357789, -0.00796149, -0.553413, 0.00016953, 4.44342e-05, -2.89261e-05, 0.353354, 0.335853, 0.280419, 0.00194319, 0.00187086, 0.0116797
0.00252323, -0.00853987, -0.554441, 0.000171118, 4.30313e-05, -3.11708e-05, 0.348544, 0.33421, 0.28031, 0.00193714, 0.00186432, 0.011672
0.00233955, -0.00848772, -0.554434, 0.000171184, 4.24701e-05, -3.00801e-05, 0.345255, 0.333471, 0.280232, 0.00193282, 0.00186034, 0.0116638
0.00230526, -0.00883177, -0.552649, 0.000171318, 4.23936e-05, -2.93542e-05, 0.343465, 0.33349, 0.280136, 0.00193038, 0.00185838, 0.011657
0.00161233, -0.0084009, -0.553043, 0.000171134, 4.15524e-05, -2.55912e-05, 0.343278, 0.334285, 0.280008, 0.00192915, 0.00185771, 0.0116495
0.00153716, -0.00855371, -0.554884, 0.000170951, 4.04763e-05, -2.38038e-05, 0.344656, 0.335822, 0.27985, 0.0019285, 0.00185694, 0.0116394
0.00163786, -0.00890092, -0.556983, 0.0001706, 3.94703e-05, -2.37224e-05, 0.347286, 0.33795, 0.27977, 0.00192811, 0.00185507, 0.0116292
0.0025028, -0.00901127, -0.55923, 0.000170773, 3.80042e-05, -2.39636e-05, 0.350812, 0.340409, 0.279788, 0.00192739, 0.00185097, 0.0116227
0.00317209, -0.00925393, -0.562595, 0.000170681, 3.8123e-05, -2.63329e-05, 0.354905, 0.342963, 0.279941, 0.00192559, 0.00184347, 0.0116199
0.00415194, -0.00967666, -0.564531, 0.00017121, 3.70622e-05, -2.80729e-05, 0.359333, 0.345478, 0.280351, 0.00192218, 0.00183138, 0.0116178
0.00470695, -0.0105591, -0.562315, 0.000171221, 3.08086e-05, -1.93395e-05, 0.364043, 0.347844, 0.280983, 0.00191693, 0.00181487, 0.0116128
0.00473261, -0.0116247, -0.562401, 0.000169637, 2.78848e-05, -1.40711e-05, 0.368809, 0.349895, 0.281678, 0.00190998, 0.00179521, 0.0116033
0.00441857, -0.0128306, -0.561538, 0.00016772, 2.41817e-05, -7.406e-06, 0.373292, 0.351493, 0.282247, 0.00190187, 0.00177341, 0.0115889
0.00387012, -0.0137171, -0.561265, 0.000165859, 2.21087e-05, -3.91067e-06, 0.376994, 0.352461, 0.282468, 0.00189338, 0.0017515, 0.0115712
0.00368613, -0.0138463, -0.560996, 0.000165682, 2.19299e-05, -5.20064e-06, 0.379394, 0.352588, 0.282338, 0.00188497, 0.00173087, 0.0115512
0.00391802, -0.014117, -0.562074, 0.000165853, 2.09349e-05, -3.21212e-06, 0.380163, 0.351764, 0.282008, 0.00187712, 0.00171195, 0.0115293
0.00370739, -0.0131989, -0.562717, 0.000165944, 2.30493e-05, -1.02905e-05, 0.379238, 0.35007, 0.281591, 0.00187068, 0.00169474, 0.0115082
0.0028305, -0.013822, -0.562645, 0.000164986, 2.12968e-05, -1.00987e-05, 0.37667, 0.347627, 0.281288, 0.00186621, 0.00167938, 0.011487
0.00247952, -0.0124933, -0.562035, 0.000165203, 2.38076e-05, -2.15807e-05, 0.372644, 0.344615, 0.28109, 0.00186334, 0.00166595, 0.0114642
0.00154966, -0.0114655, -0.562117, 0.000165018, 2.4868e-05, -3.35989e-05, 0.367641, 0.341345, 0.280941, 0.00186162, 0.00165464, 0.0114388
0.00119449, -0.0114841, -0.562279, 0.000165187, 2.45775e-05, -3.74229e-05, 0.362332, 0.338235, 0.280861, 0.00186076, 0.00164564, 0.011409
0.000415507, -0.0102064, -0.559732, 0.000165372, 2.54021e-05, -4.88414e-05, 0.357601, 0.33575, 0.28075, 0.00186024, 0.00163936, 0.0113782
-0.00023102, -0.00847566, -0.558664, 0.000166025, 2.65862e-05, -6.34133e-05, 0.354166, 0.334257, 0.280574, 0.00185989, 0.00163572, 0.0113536
-0.000442179, -0.00729161, -0.557509, 0.000166687, 2.7357e-05, -7.14537e-05, 0.352236, 0.333779, 0.280432, 0.00185958, 0.00163391, 0.0113349
-0.000363386, -0.00649393, -0.555553, 0.000166917, 2.78683e-05, -7.39811e-05, 0.351583, 0.334041, 0.280372, 0.00185917, 0.00163299, 0.0113199
-0.000885994, -0.00615677, -0.555429, 0.000167203, 2.79887e-05, -7.68815e-05, 0.351748, 0.334614, 0.280402, 0.0018586, 0.00163217, 0.0113066
-0.00133106, -0.00754998, -0.555447, 0.000166886, 2.71454e-05, -7.555e-05, 0.352125, 0.335103, 0.280498, 0.00185782, 0.00163083, 0.0112933
-0.00149326, -0.00903418, -0.552304, 0.000165454, 2.49744e-05, -6.74931e-05, 0.35254, 0.335439, 0.280632, 0.00185677, 0.00162872, 0.0112803
-0.00240659, -0.0102265, -0.549899, 0.000164387, 2.32972e-05, -6.38582e-05, 0.353036, 0.335731, 0.280871, 0.00185548, 0.00162585, 0.0112683
-0.00388096, -0.0115177, -0.547402, 0.00016386, 2.21918e-05, -6.574e-05, 0.35381, 0.336018, 0.281198, 0.00185424, 0.00162272, 0.0112562
-0.00484155, -0.0126455, -0.547527, 0.000164706, 2.31046e-05, -7.60637e-05, 0.354974, 0.336351, 0.281482, 0.00185287, 0.00161978, 0.0112365
-0.00595463, -0.0133788, -0.548542, 0.000166222, 2.49041e-05, -8.77939e-05, 0.356387, 0.336849, 0.281622, 0.00185068, 0.00161674, 0.0112007
-0.00724917, -0.0134164, -0.549253, 0.000167076, 2.61445e-05, -8.9057e-05, 0.357929, 0.337583, 0.281412, 0.0018473, 0.00161285, 0.0111474
-0.00842494, -0.0130051, -0.550202, 0.000166979, 2.61004e-05, -8.03037e-05, 0.359456, 0.338463, 0.280918, 0.00184269, 0.00160693, 0.0110803
-0.00868708, -0.0122756, -0.551866, 0.000165338, 2.35235e-05, -6.48619e-05, 0.361013, 0.339311, 0.28029, 0.00183671, 0.00159759, 0.0110024
-0.00788137, -0.0120252, -0.554536, 0.000163404, 1.94399e-05, -5.8097e-05, 0.362573, 0.339972, 0.279918, 0.00183017, 0.00158555, 0.0109243
-0.00701598, -0.0116982, -0.55626, 0.000161802, 1.63702e-05, -5.45091e-05, 0.363967, 0.340297, 0.279966, 0.00182441, 0.00157256, 0.0108595
-0.00465453, -0.0108335, -0.558199, 0.000158936, 1.17397e-05, -5.43482e-05, 0.365154, 0.340214, 0.280403, 0.00181998, 0.00155952, 0.0108129
-0.00193021, -0.0108421, -0.559879, 0.000157214, 9.35142e-06, -6.49323e-05, 0.366023, 0.339718, 0.281126, 0.0018172, 0.00154765, 0.0107853
0.000507469, -0.0113546, -0.561946, 0.000155747, 7.66196e-06, -7.52013e-05, 0.366468, 0.338857, 0.28201, 0.00181578, 0.00153745, 0.0107709
0.0027746, -0.0119058, -0.562636, 0.000154908, 7.86619e-06, -8.47115e-05, 0.366268, 0.337748, 0.282882, 0.00181516, 0.00152925, 0.0107638
0.00264777, -0.0122595, -0.5632, 0.000154799, 7.69213e-06, -8.41185e-05, 0.365253, 0.33649, 0.283606, 0.00181465, 0.00152311, 0.0107581
0.00418442, -0.012431, -0.562913, 0.000154266, 8.52386e-06, -8.70177e-05, 0.363699, 0.335153, 0.284288, 0.00181349, 0.00151807, 0.010749
0.0071936, -0.0125832, -0.563454, 0.00015308, 9.2048e-06, -9.20378e-05, 0.361088, 0.333836, 0.28471, 0.00181125, 0.00151451, 0.0107305
0.00876352, -0.0122928, -0.563657, 0.000152832, 9.61395e-06, -9.60146e-05, 0.357658, 0.33267, 0.284978, 0.0018077, 0.00151164, 0.010701
0.0103703, -0.012236, -0.564819, 0.000152252, 9.55508e-06, -9.89768e-05, 0.353856, 0.331828, 0.285277, 0.00180326, 0.001509, 0.0106655
0.0124583, -0.0114531, -0.566083, 0.000152733, 9.98578e-06, -0.00010881, 0.349763, 0.331352, 0.28547, 0.00179782, 0.00150704, 0.0106224
0.0119625, -0.0104059, -0.5655, 0.000154391, 9.7376e-06, -0.000116736, 0.346062, 0.331261, 0.28559, 0.00179083, 0.00150582, 0.0105657
0.0108337, -0.00989855, -0.564143, 0.000155108, 8.90433e-06, -0.000115983, 0.343941, 0.331566, 0.28619, 0.00178275, 0.00150482, 0.0105002
0.00870912, -0.0102452, -0.561336, 0.000153964, 7.08085e-06, -0.000100585, 0.343774, 0.33221, 0.287493, 0.00177427, 0.00150394, 0.0104318
0.00722457, -0.011144, -0.559335, 0.000152116, 5.88919e-06, -8.40075e-05, 0.345234, 0.333077, 0.289321, 0.00176671, 0.00150313, 0.0103711
0.00533829, -0.0119684, -0.560452, 0.000151845, 6.48932e-06, -8.23546e-05, 0.347704, 0.334016, 0.291268, 0.00176079, 0.00150222, 0.0103239
0.00341655, -0.0120967, -0.561355, 0.000152618, 7.69281e-06, -8.65298e-05, 0.350558, 0.33493, 0.29289, 0.00175615, 0.00150097, 0.0102874
0.00182128, -0.0123272, -0.560276, 0.000152936, 8.80987e-06, -8.76957e-05, 0.353916, 0.335805, 0.294072, 0.0017521, 0.00149867, 0.0102548
-0.000117398, -0.0123881, -0.559441, 0.000153879, 1.08985e-05, -9.33781e-05, 0.357336, 0.336631, 0.294573, 0.00174865, 0.00149549, 0.0102264
-0.000673356, -0.0121258, -0.557963, 0.000154418, 1.13044e-05, -9.77594e-05, 0.360684, 0.337379, 0.294331, 0.00174586, 0.00149157, 0.010203
-0.00195381, -0.0112947, -0.555977, 0.000155922, 1.25462e-05, -0.000109648, 0.363999, 0.338086, 0.293458, 0.00174344, 0.0014868, 0.0101828
-0.00365448, -0.0113808, -0.554025, 0.000156893, 1.35118e-05, -0.000118692, 0.367193, 0.338761, 0.292138, 0.00174129, 0.00148112, 0.0101656
-0.00479961, -0.0111612, -0.553155, 0.000157665, 1.41809e-05, -0.000124891, 0.36991, 0.339354, 0.290548, 0.00173959, 0.00147504, 0.010153
-0.00571283, -0.0114857, -0.552981, 0.00015813, 1.48633e-05, -0.000128162, 0.371694, 0.33979, 0.288832, 0.00173843, 0.00146959, 0.0101451
-0.00730575, -0.011647, -0.552088, 0.000158792, 1.484e-05, -0.000134092, 0.372438, 0.340061, 0.287251, 0.00173759, 0.00146485, 0.0101396
-0.0082736, -0.0122811, -0.553894, 0.000159784, 1.72248e-05, -0.000136465, 0.372178, 0.340207, 0.285972, 0.00173689, 0.00146129, 0.0101346
-0.00830851, -0.0137188, -0.555786, 0.000160836, 1.92739e-05, -0.000139668, 0.371344, 0.340199, 0.28521, 0.00173619, 0.00145894, 0.010127
-0.00719731, -0.0145858, -0.558843, 0.00016143, 2.19418e-05, -0.000137057, 0.37058, 0.340116, 0.285174, 0.00173523, 0.00145715, 0.0101145
-0.00822792, -0.0150086, -0.558425, 0.000161902, 2.16144e-05, -0.000140757, 0.370092, 0.340052, 0.285802, 0.00173408, 0.00145521, 0.0100991
-0.00676834, -0.0148179, -0.561398, 0.000161973, 2.37233e-05, -0.000134462, 0.370118, 0.340015, 0.286933, 0.00173261, 0.00145339, 0.01008
-0.00681743, -0.0145796, -0.56206, 0.000161899, 2.40516e-05, -0.000131576, 0.37067, 0.339955, 0.288352, 0.00173062, 0.00145164, 0.0100559
-0.00739255, -0.0136318, -0.561364, 0.00016101, 2.29903e-05, -0.000124651, 0.370964, 0.33994, 0.289607, 0.00172859, 0.00144949, 0.0100325
-0.00714972, -0.012919, -0.561488, 0.00016044, 2.27179e-05, -0.000119362, 0.371636, 0.339951, 0.290665, 0.00172648, 0.00144763, 0.0100093
-0.00549649, -0.0121066, -0.562373, 0.000160101, 2.25731e-05, -0.000115754, 0.372283, 0.339986, 0.291277, 0.00172465, 0.00144591, 0.00998985
-0.00324755, -0.0115653, -0.563187, 0.000159967, 2.20278e-05, -0.000114465, 0.372983, 0.340059, 0.2914, 0.00172337, 0.00144454, 0.0099765
-0.00129915, -0.011085, -0.562984, 0.000159638, 2.08464e-05, -0.00011183, 0.374055, 0.340133, 0.291098, 0.00172248, 0.00144346, 0.00996751
0.000972864, -0.0107446, -0.560824, 0.000159033, 1.95355e-05, -0.000106912, 0.375755, 0.340195, 0.290469, 0.00172174, 0.00144204, 0.00996065
0.00364397, -0.0106912, -0.559854, 0.000158531, 1.7968e-05, -0.000103011, 0.377806, 0.340247, 0.289554, 0.00172117, 0.00143958, 0.00995591
0.0055709, -0.0117738, -0.560579, 0.000158138, 1.58833e-05, -0.000101108, 0.379779, 0.340302, 0.288448, 0.0017208, 0.0014358, 0.00995348
0.0076648, -0.0127324, -0.561242, 0.00015754, 1.35156e-05, -9.76042e-05, 0.381306, 0.340386, 0.287324, 0.00172042, 0.00143041, 0.0099518
0.00962575, -0.0127034, -0.561619, 0.000157122, 1.1938e-05, -9.50534e-05, 0.381884, 0.340547, 0.286321, 0.00171979, 0.00142385, 0.00994876
0.0117955, -0.0128129, -0.561811, 0.000156752, 1.1048e-05, -9.26053e-05, 0.381191, 0.340861, 0.285557, 0.00171863, 0.00141661, 0.00994214
0.0139192, -0.0128728, -0.563378, 0.000155965, 8.47648e-06, -8.90413e-05, 0.379195, 0.341387, 0.285153, 0.00171678, 0.00140865, 0.0099312
0.017197, -0.0129683, -0.564698, 0.000155334, 7.05212e-06, -8.587e-05, 0.375994, 0.342174, 0.28517, 0.00171405, 0.00140002, 0.00991495
0.0182708, -0.0130237, -0.565731, 0.00015483, 5.97072e-06, -8.31743e-05, 0.371783, 0.343296, 0.285506, 0.00171012, 0.00139206, 0.00989118
0.0176977, -0.0128009, -0.565796, 0.000154901, 5.54123e-06, -8.23779e-05, 0.367315, 0.344806, 0.286078, 0.00170472, 0.00138596, 0.00985719
0.0158866, -0.0121089, -0.565625, 0.000155761, 4.89684e-06, -8.65641e-05, 0.363612, 0.346666, 0.286989, 0.0016981, 0.00138147, 0.00981425
0.0134903, -0.0117991, -0.565285, 0.000155928, 3.99917e-06, -8.68355e-05, 0.361305, 0.348802, 0.288293, 0.00169073, 0.00137827, 0.00976521
0.00960047, -0.01233, -0.564397, 0.000154557, 2.70763e-06, -7.78569e-05, 0.360384, 0.351113, 0.289906, 0.00168341, 0.00137591, 0.00971554
0.00778954, -0.013426, -0.562257, 0.00015266, 2.73844e-06, -6.31195e-05, 0.360881, 0.353464, 0.291644, 0.00167684, 0.00137426, 0.00966978
0.00489308, -0.0144902, -0.562662, 0.000150895, 2.63063e-06, -5.20345e-05, 0.362783, 0.355776, 0.293341, 0.00167105, 0.00137276, 0.00962794
0.00298259, -0.0152069, -0.561865, 0.000150143, 3.70241e-06, -4.64056e-05, 0.365668, 0.357953, 0.29478, 0.00166616, 0.00137071, 0.00959113
0.00118386, -0.0156277, -0.560461, 0.000150154, 5.59802e-06, -4.55302e-05, 0.369374, 0.359882, 0.295789, 0.00166239, 0.00136768, 0.0095615
-0.000588711, -0.015282, -0.55933, 0.000151198, 8.25141e-06, -5.14508e-05, 0.373828, 0.361572, 0.296276, 0.0016594, 0.00136319, 0.00953688
-0.00166572, -0.015165, -0.556792, 0.000151393, 8.80493e-06, -5.23687e-05, 0.378886, 0.363072, 0.296222, 0.00165687, 0.00135665, 0.00951501
-0.00360489, -0.0151525, -0.555645, 0.000152095, 1.14723e-05, -5.76178e-05, 0.383932, 0.364219, 0.295599, 0.00165513, 0.00134863, 0.00949974
-0.00561088, -0.0147437, -0.555455, 0.00015301, 1.4399e-05, -6.4238e-05, 0.387808, 0.364763, 0.294298, 0.00165446, 0.00134194, 0.00949411
-0.00707065, -0.0144096, -0.555782, 0.000153504, 1.63658e-05, -6.73458e-05, 0.390262, 0.364682, 0.292543, 0.00165418, 0.00133607, 0.00949229
-0.00758257, -0.0141461, -0.555493, 0.000153459, 1.62929e-05, -6.72015e-05, 0.39151, 0.364381, 0.290761, 0.00165374, 0.00132863, 0.00948971
-0.0104531, -0.014172, -0.555495, 0.000154084, 1.75897e-05, -7.19202e-05, 0.391306, 0.364169, 0.289276, 0.00165299, 0.00131826, 0.00948575
-0.0121431, -0.014309, -0.557056, 0.000155279, 2.07455e-05, -7.89687e-05, 0.389228, 0.363923, 0.288213, 0.00165207, 0.00130709, 0.0094805
-0.0144874, -0.0151222, -0.558024, 0.000156272, 2.20778e-05, -8.59661e-05, 0.385481, 0.363625, 0.287711, 0.00165097, 0.00129553, 0.00947286
-0.0159582, -0.0161195, -0.558768, 0.000157024, 2.26148e-05, -9.08639e-05, 0.380788, 0.36325, 0.287628, 0.00164989, 0.00128684, 0.0094636
-0.0164285, -0.0179941, -0.559663, 0.000158506, 2.38592e-05, -0.000101244, 0.376135, 0.362772, 0.288018, 0.00164867, 0.00128025, 0.00945069
-0.0154995, -0.0192561, -0.563751, 0.000160608, 2.84062e-05, -0.000111204, 0.372412, 0.362223, 0.288873, 0.00164727, 0.0012755, 0.00943487
-0.0126179, -0.0197242, -0.568412, 0.000162324, 3.32146e-05, -0.000117038, 0.370248, 0.361521, 0.290137, 0.00164555, 0.00127253, 0.00941527
-0.0112829, -0.0186944, -0.570183, 0.000162162, 3.46247e-05, -0.000112544, 0.368922, 0.360723, 0.291628, 0.00164359, 0.00126993, 0.00939395
-0.00907599, -0.0185962, -0.571095, 0.000162738, 3.62321e-05, -0.000115694, 0.367228, 0.360011, 0.293057, 0.00164178, 0.0012665, 0.00937543
-0.00785393, -0.0185227, -0.570527, 0.000162643, 3.59205e-05, -0.000114836, 0.364768, 0.359504, 0.294292, 0.00164029, 0.0012618, 0.00936065
-0.00721138, -0.0190404, -0.569314, 0.000162262, 3.4487e-05, -0.000112159, 0.361818, 0.359257, 0.295404, 0.00163904, 0.00125622, 0.00934829
-0.00761362, -0.0194738, -0.566866, 0.000160884, 3.12029e-05, -0.000102189, 0.359103, 0.359237, 0.296492, 0.00163801, 0.00125092, 0.00933753
-0.0085995, -0.0198693, -0.564445, 0.000159521, 2.84997e-05, -9.22948e-05, 0.35733, 0.359374, 0.297497, 0.00163722, 0.00124704, 0.0093287
-0.00943809, -0.0203222, -0.562486, 0.000158694, 2.70821e-05, -8.65434e-05, 0.356714, 0.359701, 0.298249, 0.00163671, 0.00124468, 0.00932201
-0.0091062, -0.021, -0.563445, 0.00015903, 2.75171e-05, -9.03829e-05, 0.357175, 0.360312, 0.298519, 0.00163647, 0.00124338, 0.00931765
-0.010431, -0.0212574, -0.56303, 0.000158966, 2.82885e-05, -9.06266e-05, 0.358409, 0.361281, 0.298225, 0.00163639, 0.00124238, 0.00931522
-0.0119581, -0.0217823, -0.559801, 0.000158997, 3.00326e-05, -9.06683e-05, 0.360173, 0.362637, 0.297349, 0.00163627, 0.0012411, 0.00931425
-0.0132373, -0.0225241, -0.554191, 0.000159684, 3.33614e-05, -9.34616e-05, 0.362153, 0.364273, 0.296102, 0.00163593, 0.00123941, 0.00931373
-0.0139476, -0.0232145, -0.551473, 0.000160178, 3.54849e-05, -9.63509e-05, 0.364109, 0.365991, 0.29461, 0.00163542, 0.00123735, 0.00931297
-0.0142521, -0.0235581, -0.549534, 0.000160689, 3.70277e-05, -9.88289e-05, 0.36587, 0.367647, 0.293046, 0.0016348, 0.00123514, 0.00931187
-0.0147464, -0.0241907, -0.551126, 0.00015989, 3.60813e-05, -9.62981e-05, 0.367347, 0.369147, 0.291581, 0.00163417, 0.00123304, 0.00931048
-0.0146824, -0.0241691, -0.552569, 0.000159374, 3.49856e-05, -9.3821e-05, 0.368434, 0.370371, 0.290156, 0.00163351, 0.001231, 0.00930868
-0.0144577, -0.0246329, -0.5533, 0.000158975, 3.43336e-05, -9.20248e-05, 0.369049, 0.371196, 0.288837, 0.00163289, 0.00122914, 0.0093064
-0.0136825, -0.0241134, -0.554384, 0.000158786, 3.35476e-05, -9.09388e-05, 0.36907, 0.371423, 0.287536, 0.00163241, 0.00122735, 0.00930399
-0.0122959, -0.0229734, -0.555682, 0.000158395, 3.27642e-05, -8.89154e-05, 0.36844, 0.370914, 0.286231, 0.00163202, 0.00122558, 0.00930181
-0.0104643, -0.0210883, -0.558351, 0.000156882, 3.10756e-05, -8.10379e-05, 0.367169, 0.369655, 0.284795, 0.00163142, 0.00122354, 0.009299
-0.00862057, -0.018864, -0.559866, 0.000155021, 3.01641e-05, -7.12929e-05, 0.365562, 0.367872, 0.283335, 0.00163029, 0.00122126, 0.00929395
-0.00551029, -0.0168771, -0.560437, 0.00015298, 3.01096e-05, -5.96152e-05, 0.364061, 0.365966, 0.282073, 0.00162891, 0.0012192, 0.00928725
-0.00264985, -0.0148219, -0.560436, 0.000150804, 3.03096e-05, -4.73611e-05, 0.362927, 0.36426, 0.281156, 0.00162756, 0.00121773, 0.00927999
-0.000481769, -0.013103, -0.561331, 0.000148815, 2.99859e-05, -3.61936e-05, 0.362272, 0.362912, 0.280586, 0.00162633, 0.00121695, 0.00927196
0.001814, -0.0115514, -0.562691, 0.000146728, 2.94987e-05, -2.39453e-05, 0.36211, 0.36197, 0.280246, 0.00162511, 0.00121656, 0.00926231
0.00355639, -0.0106331, -0.562795, 0.000145463, 2.93307e-05, -1.55604e-05, 0.362365, 0.361409, 0.280054, 0.00162396, 0.00121637, 0.00925229
0.00486958, -0.0105443, -0.559639, 0.000144837, 2.93727e-05, -9.76726e-06, 0.362882, 0.36126, 0.279992, 0.00162312, 0.00121626, 0.00924433
0.00461745, -0.0103489, -0.556716, 0.000144854, 2.92424e-05, -9.14031e-06, 0.363501, 0.361488, 0.280036, 0.00162257, 0.00121614, 0.0092391
0.00376761, -0.009972, -0.557518, 0.000145144, 2.94495e-05, -1.12017e-05, 0.364136, 0.361958, 0.280073, 0.00162223, 0.001216, 0.00923634
0.00251043, -0.01048, -0.556519, 0.000145206, 2.96e-05, -1.20534e-05, 0.364728, 0.362632, 0.280108, 0.00162199, 0.00121585, 0.00923529
0.000872332, -0.0109428, -0.556145, 0.000145107, 2.98414e-05, -1.1717e-05, 0.36526, 0.363463, 0.280193, 0.00162181, 0.00121565, 0.00923486
-0.000965606, -0.0116358, -0.556105, 0.000144792, 3.02813e-05, -1.05271e-05, 0.365862, 0.364468, 0.280312, 0.00162164, 0.00121535, 0.00923401
-0.00294126, -0.0127009, -0.555336, 0.000144303, 3.07818e-05, -8.87356e-06, 0.366652, 0.365729, 0.280451, 0.00162144, 0.00121491, 0.00923262
-0.00508758, -0.0137332, -0.5544, 0.000143688, 3.14017e-05, -6.3934e-06, 0.367674, 0.367301, 0.280637, 0.00162118, 0.00121429, 0.00923093
-0.00776109, -0.0153471, -0.553841, 0.000142741, 3.26831e-05, -3.6448e-06, 0.368943, 0.369166, 0.280783, 0.00162085, 0.00121361, 0.00922906
-0.0103111, -0.0169918, -0.552509, 0.000141733, 3.40768e-05, -9.79665e-07, 0.370416, 0.371273, 0.280831, 0.0016205, 0.0012129, 0.00922628
-0.0130417, -0.018214, -0.551956, 0.000140767, 3.56681e-05, 3.41177e-06, 0.372112, 0.373607, 0.280818, 0.00162018, 0.00121207, 0.00922188
-0.0145851, -0.0192065, -0.553515, 0.000140155, 3.68906e-05, 5.32469e-06, 0.37404, 0.376149, 0.280852, 0.00161992, 0.0012111, 0.00921567
-0.0150656, -0.0203812, -0.558892, 0.000139801, 3.80838e-05, 4.73869e-06, 0.376211, 0.378878, 0.280905, 0.00161969, 0.00121001, 0.00920839
-0.0164886, -0.0218025, -0.55957, 0.000139187, 3.95198e-05, 3.62128e-06, 0.378539, 0.381742, 0.281005, 0.00161947, 0.00120892, 0.00920191
-0.0177996, -0.0227168, -0.560469, 0.000138756, 4.06472e-05, 3.70453e-06, 0.380902, 0.384577, 0.281097, 0.00161926, 0.00120795, 0.00919635
-0.0186866, -0.0239994, -0.561122, 0.000138348, 4.1573e-05, 1.91225e-06, 0.383173, 0.387227, 0.281162, 0.00161909, 0.00120716, 0.00919236
-0.0202738, -0.0255419, -0.556573, 0.000138, 4.2608e-05, -2.5137e-07, 0.38523, 0.389534, 0.281203, 0.00161894, 0.00120658, 0.00919041
-0.0207481, -0.0266371, -0.555357, 0.000137624, 4.28001e-05, -3.09941e-07, 0.38686, 0.391378, 0.281311, 0.00161876, 0.00120619, 0.00918977
-0.0203991, -0.027533, -0.556155, 0.000137429, 4.2819e-05, -3.35738e-07, 0.38798, 0.392607, 0.281399, 0.00161857, 0.00120599, 0.00918931
-0.0194717, -0.0277, -0.55556, 0.000137372, 4.26481e-05, -1.01149e-09, 0.388506, 0.393155, 0.281459, 0.00161846, 0.00120592, 0.00918881
-0.0183244, -0.0273996, -0.555989, 0.000137491, 4.26175e-05, -3.97106e-07, 0.388423, 0.393048, 0.281519, 0.00161837, 0.00120589, 0.00918814
-0.0164978, -0.026689, -0.559809, 0.000138004, 4.28644e-05, -3.32039e-06, 0.387755, 0.392294, 0.281522, 0.00161823, 0.00120582, 0.00918724
-0.0148027, -0.0257871, -0.561085, 0.000138337, 4.32261e-05, -5.73116e-06, 0.386565, 0.390939, 0.281449, 0.00161812, 0.0012056, 0.00918587
-0.0121606, -0.0245302, -0.56219, 0.000138658, 4.39594e-05, -8.5823e-06, 0.384993, 0.389096, 0.281344, 0.00161805, 0.00120519, 0.00918295
-0.00929737, -0.0227669, -0.562061, 0.000138642, 4.50816e-05, -1.09553e-05, 0.383208, 0.38693, 0.281178, 0.00161792, 0.00120458, 0.00917588
-0.00603742, -0.0207968, -0.560935, 0.00013818, 4.65652e-05, -1.15363e-05, 0.381403, 0.384639, 0.280939, 0.00161765, 0.00120386, 0.00916553
-0.00256224, -0.0187165, -0.560119, 0.000137105, 4.79879e-05, -8.35232e-06, 0.379794, 0.382361, 0.280679, 0.00161728, 0.0012032, 0.00915575
7.60386e-05, -0.0158333, -0.559673, 0.000135623, 4.913e-05, -4.85055e-06, 0.378572, 0.380182, 0.28042, 0.00161668, 0.00120269, 0.00914757
0.00235204, -0.0135166, -0.558173, 0.000133895, 5.00743e-05, 2.02472e-06, 0.377849, 0.378249, 0.280185, 0.00161574, 0.00120234, 0.00913955
0.00517265, -0.0121605, -0.557818, 0.000131873, 5.03311e-05, 1.48017e-05, 0.377667, 0.376721, 0.280038, 0.00161459, 0.00120217, 0.00913023
0.00757488, -0.0111239, -0.558652, 0.000130244, 5.01464e-05, 2.6303e-05, 0.377979, 0.375708, 0.279962, 0.0016135, 0.00120205, 0.00912013
0.00896183, -0.01104, -0.559441, 0.000129589, 4.99554e-05, 3.18059e-05, 0.378557, 0.375223, 0.279966, 0.00161276, 0.00120196, 0.00911238
0.0094228, -0.0111007, -0.557775, 0.000129325, 4.98497e-05, 3.38563e-05, 0.379248, 0.375218, 0.280001, 0.00161239, 0.00120186, 0.00910805
0.00891271, -0.0114106, -0.555676, 0.000129347, 4.98991e-05, 3.38049e-05, 0.380011, 0.375673, 0.280022, 0.00161217, 0.00120173, 0.00910621
0.00854543, -0.0121328, -0.55307, 0.000129054, 4.97649e-05, 3.51727e-05, 0.380754, 0.376571, 0.280071, 0.00161185, 0.00120157, 0.00910519
0.00752185, -0.0133251, -0.552766, 0.000128198, 4.98436e-05, 3.88493e-05, 0.381401, 0.377846, 0.280181, 0.00161109, 0.00120135, 0.00910273
0.00576047, -0.0139751, -0.553605, 0.000127088, 5.02643e-05, 4.49128e-05, 0.382087, 0.379399, 0.280258, 0.00161, 0.00120117, 0.00909855
0.00384523, -0.0150156, -0.552435, 0.000125852, 5.07297e-05, 5.13109e-05, 0.382979, 0.381161, 0.280274, 0.00160886, 0.00120095, 0.00909431
0.00221117, -0.015904, -0.551204, 0.000124956, 5.13495e-05, 5.54477e-05, 0.384147, 0.383105, 0.280244, 0.00160788, 0.00120063, 0.00909075
-0.000115906, -0.0169057, -0.55014, 0.00012386, 5.24956e-05, 6.05298e-05, 0.385629, 0.385244, 0.280164, 0.00160709, 0.00120013, 0.00908771
-0.00201673, -0.0179985, -0.549558, 0.000122936, 5.36751e-05, 6.34489e-05, 0.387457, 0.3876, 0.280089, 0.00160647, 0.0011994, 0.00908517
-0.00366199, -0.01879, -0.548377, 0.000122525, 5.48602e-05, 6.40669e-05, 0.389677, 0.390189, 0.280038, 0.001606, 0.0011984, 0.00908322
-0.00519529, -0.0192517, -0.548466, 0.000122421, 5.61103e-05, 6.35193e-05, 0.392385, 0.392994, 0.279935, 0.00160565, 0.0011969, 0.00908062
-0.00571545, -0.0205421, -0.553093, 0.000121706, 5.6516e-05, 6.12084e-05, 0.395531, 0.395978, 0.279834, 0.00160536, 0.00119488, 0.00907599
-0.00691069, -0.0217462, -0.561859, 0.000121076, 5.70765e-05, 5.88045e-05, 0.398899, 0.39904, 0.27977, 0.0016051, 0.00119264, 0.00906901
-0.00915853, -0.0232309, -0.564992, 0.000121611, 5.95385e-05, 4.78314e-05, 0.402307, 0.402033, 0.279723, 0.00160486, 0.00119042, 0.00906029
-0.010519, -0.0248545, -0.566005, 0.000121743, 6.12394e-05, 3.94811e-05, 0.405537, 0.404965, 0.279759, 0.00160448, 0.00118872, 0.00905577
-0.0109126, -0.0267731, -0.571768, 0.000121115, 6.28814e-05, 3.40962e-05, 0.408366, 0.407729, 0.279892, 0.00160354, 0.00118744, 0.00905283
-0.0117555, -0.0286472, -0.568545, 0.000119343, 6.20392e-05, 4.27985e-05, 0.410628, 0.41013, 0.280127, 0.00160185, 0.00118632, 0.00904617
-0.0123152, -0.0299049, -0.562434, 0.000117624, 6.00002e-05, 5.50492e-05, 0.412233, 0.411989, 0.280426, 0.00160013, 0.00118547, 0.00903744
-0.0121598, -0.0301313, -0.561414, 0.000117387, 5.96508e-05, 5.69567e-05, 0.413021, 0.413181, 0.280734, 0.00159885, 0.00118496, 0.00902976
-0.01285, -0.0299031, -0.556833, 0.000117064, 5.86931e-05, 6.00057e-05, 0.413048, 0.413735, 0.281049, 0.00159775, 0.00118452, 0.00902145
-0.0133238, -0.029258, -0.552828, 0.000117002, 5.79328e-05, 6.03082e-05, 0.412498, 0.413713, 0.281396, 0.00159676, 0.00118394, 0.00901197
-0.0127797, -0.0279611, -0.552522, 0.000117523, 5.8364e-05, 5.54577e-05, 0.411339, 0.412953, 0.281619, 0.00159625, 0.00118341, 0.00900507
-0.0112058, -0.0264935, -0.552374, 0.000117901, 5.91225e-05, 5.11317e-05, 0.409527, 0.41125, 0.28172, 0.00159615, 0.00118289, 0.00900217
-0.00884604, -0.0243423, -0.553356, 0.000117502, 6.02733e-05, 5.04135e-05, 0.407084, 0.408518, 0.2817, 0.00159585, 0.00118237, 0.00900171
-0.00531633, -0.021869, -0.554854, 0.00011609, 6.17472e-05, 5.58549e-05, 0.404258, 0.404995, 0.281569, 0.00159458, 0.00118179, 0.00899965
-0.00165202, -0.019524, -0.55573, 0.000114055, 6.31535e-05, 6.55583e-05, 0.401398, 0.401145, 0.281441, 0.00159217, 0.00118112, 0.00899363
0.00184931, -0.0175141, -0.556712, 0.000111929, 6.44319e-05, 7.68959e-05, 0.398806, 0.397385, 0.281396, 0.00158891, 0.00118041, 0.00898351
0.00466438, -0.0153361, -0.557079, 0.000109353, 6.521e-05, 9.09672e-05, 0.396766, 0.394024, 0.281414, 0.00158518, 0.00117983, 0.00896942
0.00739017, -0.0139369, -0.560458, 0.000108153, 6.63402e-05, 9.94148e-05, 0.395398, 0.391362, 0.281534, 0.00158207, 0.00117944, 0.00895616
0.00991029, -0.0124947, -0.561016, 0.000106703, 6.69054e-05, 0.000108759, 0.394542, 0.38959, 0.281787, 0.00158048, 0.00117909, 0.00894887
0.0113587, -0.0123935, -0.561134, 0.000106361, 6.70974e-05, 0.000111961, 0.39408, 0.388699, 0.282123, 0.00157999, 0.00117867, 0.00894544
0.0115223, -0.0122306, -0.556776, 0.000105264, 6.57573e-05, 0.000118302, 0.394016, 0.38857, 0.282469, 0.00157972, 0.00117826, 0.00894212
0.0110336, -0.0123732, -0.554055, 0.000104701, 6.50655e-05, 0.000120981, 0.394267, 0.389078, 0.282752, 0.0015792, 0.0011779, 0.00893785
0.0095293, -0.0128611, -0.550439, 0.000103792, 6.45743e-05, 0.000124779, 0.394795, 0.390159, 0.282924, 0.00157815, 0.00117759, 0.00893232
0.00755629, -0.0136886, -0.550372, 0.000102605, 6.48861e-05, 0.000130435, 0.395703, 0.391794, 0.28296, 0.00157643, 0.00117723, 0.00892551
0.00541645, -0.0146331, -0.549703, 0.000101169, 6.56072e-05, 0.000136449, 0.397129, 0.393908, 0.282904, 0.00157446, 0.00117668, 0.00892005
0.00357214, -0.0159274, -0.548009, 9.95999e-05, 6.65423e-05, 0.00014125, 0.399022, 0.396368, 0.282833, 0.0015727, 0.00117589, 0.00891715
0.00189258, -0.0169764, -0.547397, 9.8381e-05, 6.76717e-05, 0.00014453, 0.401302, 0.399082, 0.282744, 0.00157125, 0.00117485, 0.00891578
0.000317203, -0.0183539, -0.544432, 9.70296e-05, 6.91623e-05, 0.000146208, 0.403906, 0.402027, 0.282635, 0.00157002, 0.00117357, 0.00891499
-0.00148395, -0.0198986, -0.545729, 9.57488e-05, 7.0768e-05, 0.000147463, 0.40675, 0.405091, 0.282465, 0.00156929, 0.00117204, 0.00891366
-0.00328829, -0.0209436, -0.546967, 9.50089e-05, 7.23038e-05, 0.000147846, 0.409705, 0.408148, 0.282166, 0.00156902, 0.00117018, 0.00890855
-0.00461473, -0.0218993, -0.546176, 9.46946e-05, 7.40954e-05, 0.000146077, 0.412587, 0.411151, 0.281773, 0.0015688, 0.00116817, 0.00890023
-0.00471914, -0.0234929, -0.547047, 9.42603e-05, 7.45924e-05, 0.000141508, 0.415214, 0.414003, 0.28146, 0.00156857, 0.00116665, 0.00889431
-0.00405054, -0.0244983, -0.548633, 9.37975e-05, 7.41861e-05, 0.000140004, 0.417392, 0.41651, 0.281222, 0.00156828, 0.00116573, 0.008892
-0.00341669, -0.0252412, -0.551595, 9.31967e-05, 7.34208e-05, 0.000141132, 0.419008, 0.418475, 0.281051, 0.00156792, 0.00116523, 0.00889111
-0.00286869, -0.025591, -0.554993, 9.28106e-05, 7.25631e-05, 0.000142429, 0.420058, 0.419692, 0.280905, 0.0015677, 0.00116489, 0.00889062
-0.00330464, -0.0245782, -0.557739, 9.25831e-05, 7.16647e-05, 0.000144729, 0.420563, 0.420059, 0.280703, 0.00156756, 0.00116451, 0.00888989
-0.00241619, -0.0231295, -0.558862, 9.15161e-05, 7.08427e-05, 0.000151442, 0.420834, 0.419608, 0.280417, 0.00156681, 0.0011639, 0.00888464
-0.00211947, -0.0219159, -0.560528, 9.00898e-05, 6.97393e-05, 0.00016108, 0.421583, 0.418531, 0.280071, 0.00156341, 0.00116274, 0.0088577
-0.00123867, -0.02076, -0.56276, 8.71101e-05, 6.78223e-05, 0.000182285, 0.42338, 0.417262, 0.279732, 0.00155515, 0.00116059, 0.00878708
0.000686094, -0.0202972, -0.563863, 8.11888e-05, 6.51032e-05, 0.000224989, 0.426565, 0.416239, 0.279519, 0.00154081, 0.00115722, 0.00865919
0.00172459, -0.0196077, -0.562113, 7.66133e-05, 6.35833e-05, 0.000256385, 0.431096, 0.415613, 0.279479, 0.00152018, 0.0011525, 0.00847093
0.00215689, -0.0193395, -0.561286, 7.42695e-05, 6.27183e-05, 0.000272405, 0.436425, 0.415294, 0.279568, 0.00149769, 0.00114723, 0.00826136
0.00235965, -0.0193566, -0.558635, 7.18643e-05, 6.18733e-05, 0.000287397, 0.441912, 0.41514, 0.279766, 0.00147877, 0.00114262, 0.0080797
0.0022702, -0.0193424, -0.55527, 7.05403e-05, 6.14482e-05, 0.000294083, 0.447156, 0.414972, 0.28, 0.00146534, 0.00113912, 0.007945
0.00236743, -0.0194854, -0.55649, 7.08124e-05, 6.15318e-05, 0.000293073, 0.451784, 0.414763, 0.280226, 0.00145719, 0.00113678, 0.00785811
0.00239203, -0.0200889, -0.556397, 7.06571e-05, 6.13753e-05, 0.000294352, 0.455086, 0.414601, 0.280447, 0.00145396, 0.00113558, 0.00781989
0.00205667, -0.0207856, -0.558612, 7.09065e-05, 6.18624e-05, 0.000291893, 0.456173, 0.414578, 0.280671, 0.0014535, 0.00113503, 0.00781287
0.00183707, -0.0218343, -0.557577, 7.05142e-05, 6.13595e-05, 0.000295608, 0.454202, 0.414756, 0.280763, 0.0014518, 0.00113443, 0.0077997
0.000719761, -0.0224197, -0.556113, 6.92443e-05, 6.04169e-05, 0.000305948, 0.448612, 0.415145, 0.280734, 0.00144346, 0.00113264, 0.00772796
-0.000713211, -0.0229688, -0.555321, 6.68057e-05, 5.91698e-05, 0.000323945, 0.440015, 0.415567, 0.280598, 0.00142447, 0.0011288, 0.00755769
-0.00286315, -0.0230193, -0.55791, 6.02779e-05, 5.73777e-05, 0.000365562, 0.430184, 0.41591, 0.280454, 0.00139449, 0.00112287, 0.00728073
-0.00274022, -0.0233579, -0.559076, 5.95765e-05, 5.75327e-05, 0.000367891, 0.421287, 0.416217, 0.280432, 0.00135717, 0.00111556, 0.00692561
-0.00318802, -0.0227057, -0.560343, 5.71699e-05, 5.71833e-05, 0.000382559, 0.414808, 0.416538, 0.280642, 0.00131782, 0.00110787, 0.0065399
-0.00356665, -0.0225759, -0.55939, 5.72267e-05, 5.66971e-05, 0.000384816, 0.411259, 0.416887, 0.28113, 0.00128222, 0.00110091, 0.00618151
-0.00325852, -0.0226524, -0.559441, 5.80425e-05, 5.70658e-05, 0.000378783, 0.410252, 0.417313, 0.281842, 0.0012536, 0.0010954, 0.00588675
-0.00390278, -0.0221857, -0.55803, 5.79546e-05, 5.63392e-05, 0.000383495, 0.411012, 0.41789, 0.282722, 0.00123262, 0.00109147, 0.0056672
-0.00365081, -0.0214885, -0.558076, 5.86215e-05, 5.66598e-05, 0.000379552, 0.412772, 0.418628, 0.283642, 0.001219, 0.00108906, 0.00552337
-0.00293467, -0.0205699, -0.561313, 5.78689e-05, 5.76391e-05, 0.000381034, 0.414851, 0.419462, 0.284504, 0.00121137, 0.00108781, 0.00544336
-0.00281471, -0.0205064, -0.562535, 5.75289e-05, 5.79081e-05, 0.000382219, 0.416708, 0.4203, 0.285229, 0.00120797, 0.00108729, 0.00540971
-0.00242562, -0.0201259, -0.565066, 5.73736e-05, 5.84591e-05, 0.000382426, 0.418012, 0.421019, 0.285694, 0.00120702, 0.00108713, 0.00540193
-0.0018327, -0.0197576, -0.56393, 5.74443e-05, 5.81705e-05, 0.000382961, 0.41858, 0.421616, 0.285908, 0.00120699, 0.00108692, 0.00540128
-0.00141133, -0.0193651, -0.564765, 5.7461e-05, 5.82099e-05, 0.000383826, 0.418481, 0.422148, 0.285883, 0.00120653, 0.00108635, 0.00539237
-0.00131805, -0.0183472, -0.563556, 5.70741e-05, 5.79981e-05, 0.000386688, 0.417957, 0.422689, 0.285615, 0.00120449, 0.00108512, 0.00536124
-0.000865754, -0.0172161, -0.561413, 5.5888e-05, 5.7513e-05, 0.000394559, 0.417303, 0.423235, 0.285176, 0.00119995, 0.00108293, 0.00529494
-0.000801934, -0.0161957, -0.558511, 5.46351e-05, 5.73547e-05, 0.000400622, 0.416987, 0.423748, 0.284632, 0.00119254, 0.00107973, 0.00518848
-0.000427999, -0.0159203, -0.55698, 5.3216e-05, 5.69244e-05, 0.000408859, 0.417524, 0.424208, 0.28406, 0.00118235, 0.00107566, 0.00504357
-0.00018226, -0.0158947, -0.556964, 5.27318e-05, 5.66364e-05, 0.000412674, 0.419262, 0.424678, 0.283612, 0.00117027, 0.00107111, 0.00487346
-0.000521402, -0.0152407, -0.556467, 5.32225e-05, 5.71048e-05, 0.000408127, 0.422255, 0.425251, 0.283384, 0.00115754, 0.00106649, 0.00469522
-0.00110558, -0.0136234, -0.555481, 5.41958e-05, 5.79765e-05, 0.000399861, 0.426393, 0.425946, 0.283389, 0.00114496, 0.00106199, 0.0045179
-0.00145643, -0.0136986, -0.55333, 5.34925e-05, 5.82648e-05, 0.00039857, 0.431454, 0.426737, 0.28362, 0.0011332, 0.00105777, 0.00434912
-0.00178573, -0.0137167, -0.550051, 5.21312e-05, 5.87357e-05, 0.000398786, 0.437066, 0.427582, 0.283946, 0.0011231, 0.00105414, 0.00420286
-0.00174882, -0.0138586, -0.548382, 5.10732e-05, 5.88566e-05, 0.000401694, 0.442822, 0.428436, 0.28429, 0.00111518, 0.00105125, 0.00408803
-0.00151533, -0.0150609, -0.546412, 4.93993e-05, 5.8851e-05, 0.000407344, 0.448342, 0.429277, 0.284626, 0.00110944, 0.0010491, 0.00400667
-0.00137848, -0.0158254, -0.545174, 4.85356e-05, 5.89346e-05, 0.000410183, 0.453243, 0.43007, 0.28493, 0.00110575, 0.00104767, 0.00395653
-0.0012869, -0.0174563, -0.54757, 4.86946e-05, 5.82294e-05, 0.000411368, 0.457165, 0.430732, 0.285086, 0.0011038, 0.00104678, 0.0039309
-0.00109677, -0.0186044, -0.548691, 4.85991e-05, 5.78815e-05, 0.000412574, 0.459743, 0.431204, 0.285088, 0.00110308, 0.00104634, 0.00392188
-0.000598654, -0.0201301, -0.549255, 4.83659e-05, 5.77601e-05, 0.000413793, 0.460772, 0.431545, 0.284937, 0.00110295, 0.00104617, 0.00392088
-0.000469237, -0.0209366, -0.547101, 4.82802e-05, 5.78819e-05, 0.000414263, 0.460161, 0.431889, 0.284752, 0.00110285, 0.00104615, 0.00391927
-0.000759466, -0.022297, -0.547518, 4.80122e-05, 5.79324e-05, 0.00041542, 0.458096, 0.432263, 0.284513, 0.00110227, 0.00104611, 0.00391007
-0.00143266, -0.0232862, -0.548602, 4.73817e-05, 5.79317e-05, 0.000418572, 0.454787, 0.432638, 0.284114, 0.00110086, 0.00104598, 0.00388811
-0.00139185, -0.0242772, -0.549399, 4.70986e-05, 5.80501e-05, 0.000418888, 0.450483, 0.432968, 0.283574, 0.00109832, 0.00104569, 0.00384941
-0.0011149, -0.0251069, -0.551147, 4.65102e-05, 5.82863e-05, 0.000418859, 0.445622, 0.433309, 0.283006, 0.0010945, 0.00104518, 0.00379037
-0.00130832, -0.0251857, -0.554937, 4.44917e-05, 5.83135e-05, 0.000424014, 0.440996, 0.433706, 0.282446, 0.00108954, 0.00104455, 0.003714
-0.00117998, -0.0252489, -0.55819, 4.28189e-05, 5.8466e-05, 0.000426752, 0.437306, 0.434214, 0.282047, 0.00108386, 0.0010439, 0.00362752
-0.000481934, -0.025083, -0.560355, 4.22175e-05, 5.88229e-05, 0.000424204, 0.434896, 0.434874, 0.281932, 0.00107792, 0.00104331, 0.00353842
-0.000532644, -0.0248729, -0.562001, 4.11207e-05, 5.89493e-05, 0.000427246, 0.433818, 0.435694, 0.282127, 0.00107223, 0.00104281, 0.00345422
-0.00028905, -0.0250881, -0.560857, 4.20848e-05, 5.88823e-05, 0.00042329, 0.433903, 0.436665, 0.282605, 0.00106727, 0.00104239, 0.00338113
-0.000360655, -0.0246914, -0.560674, 4.22444e-05, 5.8789e-05, 0.000423358, 0.43482, 0.437709, 0.283292, 0.00106331, 0.00104203, 0.00332237
-2.83166e-05, -0.0233065, -0.563478, 4.12774e-05, 5.90907e-05, 0.000424701, 0.436222, 0.438705, 0.284037, 0.00106034, 0.00104179, 0.00327897
-8.9946e-05, -0.0221746, -0.564058, 4.11926e-05, 5.9037e-05, 0.000425446, 0.437773, 0.439587, 0.284725, 0.00105838, 0.00104164, 0.00325008
-0.000260989, -0.0213513, -0.565422, 4.07753e-05, 5.9049e-05, 0.00042706, 0.439163, 0.440279, 0.285334, 0.00105727, 0.00104153, 0.00323335
0.000298847, -0.0208554, -0.564708, 4.11715e-05, 5.90154e-05, 0.000425124, 0.440174, 0.440744, 0.285845, 0.00105677, 0.00104145, 0.00322568
0.000816317, -0.0201132, -0.56336, 4.14127e-05, 5.8857e-05, 0.000424243, 0.440781, 0.4411, 0.286177, 0.00105667, 0.0010414, 0.00322371
0.00114376, -0.0195917, -0.561903, 4.13987e-05, 5.864e-05, 0.000424339, 0.441031, 0.441457, 0.286308, 0.00105665, 0.00104134, 0.00322367
0.00101983, -0.0181841, -0.560134, 4.13165e-05, 5.84537e-05, 0.00042474, 0.44102, 0.441877, 0.286194, 0.00105647, 0.00104123, 0.0032219
0.00140141, -0.0170564, -0.561108, 4.14934e-05, 5.84077e-05, 0.000425259, 0.44076, 0.442325, 0.285856, 0.00105586, 0.00104098, 0.0032137
0.00117909, -0.0163594, -0.560372, 4.13941e-05, 5.851e-05, 0.00042491, 0.440393, 0.442727, 0.285271, 0.00105441, 0.00104046, 0.00319307
0.00180315, -0.0158737, -0.558885, 4.03563e-05, 5.82285e-05, 0.000429339, 0.440169, 0.443026, 0.284616, 0.00105202, 0.00103966, 0.00315775
0.00123712, -0.0141526, -0.555707, 3.91626e-05, 5.85202e-05, 0.000429042, 0.440421, 0.443258, 0.284034, 0.00104872, 0.00103867, 0.00310907
0.000870053, -0.0126128, -0.55241, 3.75231e-05, 5.86243e-05, 0.000430277, 0.441455, 0.443497, 0.283662, 0.00104472, 0.0010375, 0.00305014
0.000974991, -0.0124729, -0.552514, 3.75159e-05, 5.85867e-05, 0.000430882, 0.443462, 0.443872, 0.283571, 0.00104048, 0.00103616, 0.00298627
0.000607124, -0.0123364, -0.552601, 3.79852e-05, 5.89016e-05, 0.00042763, 0.446442, 0.444518, 0.28377, 0.00103638, 0.00103467, 0.00292303
0.000713543, -0.012621, -0.553481, 3.84012e-05, 5.88834e-05, 0.000427522, 0.450128, 0.445442, 0.284235, 0.0010328, 0.00103318, 0.00286729
0.000903826, -0.015074, -0.554259, 3.79894e-05, 5.85413e-05, 0.00042909, 0.454109, 0.446525, 0.284864, 0.00102998, 0.00103188, 0.00282412
0.000552755, -0.0160965, -0.553915, 3.77343e-05, 5.86284e-05, 0.000427907, 0.457978, 0.447622, 0.285617, 0.00102799, 0.00103088, 0.00279416
-0.000357571, -0.017287, -0.553161, 3.75667e-05, 5.88892e-05, 0.000424992, 0.461355, 0.448611, 0.28638, 0.00102688, 0.00103022, 0.00277655
-0.00138335, -0.0175354, -0.550666, 3.71841e-05, 5.91006e-05, 0.000423476, 0.463902, 0.449348, 0.286898, 0.00102643, 0.00102989, 0.00276839
-0.00181434, -0.0185511, -0.552121, 3.7281e-05, 5.90659e-05, 0.00042254, 0.465419, 0.449764, 0.287088, 0.00102634, 0.00102976, 0.00276584
-0.00198678, -0.0193979, -0.554845, 3.72368e-05, 5.88762e-05, 0.000422052, 0.465878, 0.449898, 0.286978, 0.00102633, 0.00102972, 0.00276556
-0.00128814, -0.0207691, -0.556606, 3.7196e-05, 5.87475e-05, 0.000421237, 0.465359, 0.44985, 0.286693, 0.00102619, 0.0010297, 0.00276487
-0.00056875, -0.021392, -0.558293, 3.70637e-05, 5.87692e-05, 0.000420235, 0.46401, 0.449743, 0.28628, 0.00102577, 0.00102967, 0.0027614
-4.94667e-05, -0.0229917, -0.560104, 3.67067e-05, 5.88805e-05, 0.000419455, 0.462082, 0.449673, 0.285857, 0.00102499, 0.0010296, 0.00275359
-9.42052e-05, -0.0242284, -0.55584, 3.8343e-05, 5.84434e-05, 0.000417759, 0.459866, 0.449641, 0.285458, 0.00102376, 0.00102948, 0.00274092
-0.000199314, -0.0258965, -0.552653, 3.97778e-05, 5.80991e-05, 0.000416412, 0.457574, 0.449681, 0.285089, 0.001022, 0.00102934, 0.00272183
-0.000466125, -0.0275404, -0.550102, 4.09392e-05, 5.79216e-05, 0.000415933, 0.455492, 0.449848, 0.28475, 0.00101972, 0.0010292, 0.00269504
-9.46363e-05, -0.0286404, -0.549221, 4.15292e-05, 5.802e-05, 0.00041394, 0.45396, 0.450201, 0.284511, 0.00101695, 0.00102908, 0.00266065
-0.000177249, -0.0285197, -0.549825, 4.10923e-05, 5.80312e-05, 0.000414834, 0.453252, 0.450778, 0.284473, 0.00101378, 0.00102897, 0.00262044
-6.57113e-05, -0.028727, -0.551749, 3.96652e-05, 5.81544e-05, 0.000416684, 0.453468, 0.451583, 0.284743, 0.00101053, 0.00102887, 0.00257866
0.000390097, -0.027416, -0.55702, 3.65287e-05, 5.82599e-05, 0.000419528, 0.454508, 0.452586, 0.2853, 0.00100765, 0.00102878, 0.00254146
0.00109371, -0.0263059, -0.559799, 3.54417e-05, 5.82252e-05, 0.000418408, 0.456119, 0.453751, 0.286013, 0.00100547, 0.00102869, 0.00251271
0.000586373, -0.0248861, -0.560828, 3.51489e-05, 5.79993e-05, 0.000420577, 0.45797, 0.454978, 0.286737, 0.00100403, 0.00102859, 0.00249309
9.25324e-05, -0.0231667, -0.563457, 3.449e-05, 5.77035e-05, 0.000423006, 0.459757, 0.456136, 0.287348, 0.00100327, 0.00102847, 0.00248147
9.95846e-05, -0.0212087, -0.567271, 3.40148e-05, 5.7289e-05, 0.000424153, 0.461255, 0.457131, 0.287795, 0.00100298, 0.00102833, 0.0024756
0.000615578, -0.0196416, -0.569274, 3.40433e-05, 5.69276e-05, 0.000424075, 0.462351, 0.457934, 0.288036, 0.00100292, 0.00102818, 0.00247345
0.00117863, -0.0180149, -0.567868, 3.39768e-05, 5.65247e-05, 0.000424417, 0.462997, 0.458577, 0.288074, 0.00100284, 0.001028, 0.0024731
0.00126333, -0.0158754, -0.565653, 3.35548e-05, 5.60574e-05, 0.000425586, 0.463254, 0.459094, 0.28783, 0.00100246, 0.00102778, 0.00247244
0.00127129, -0.0141065, -0.562609, 3.2546e-05, 5.58255e-05, 0.000427053, 0.46317, 0.459463, 0.287281, 0.00100154, 0.00102753, 0.00246864
0.00223738, -0.0123715, -0.560124, 3.0983e-05, 5.55476e-05, 0.000430885, 0.462878, 0.459639, 0.28643, 0.000999811, 0.0010272, 0.00245821
0.00257114, -0.0120975, -0.560222, 3.08478e-05, 5.54025e-05, 0.000432094, 0.462656, 0.459636, 0.285461, 0.000997223, 0.00102676, 0.00243976
0.0027238, -0.0118332, -0.5606, 3.09893e-05, 5.52612e-05, 0.000432711, 0.462804, 0.459545, 0.284562, 0.00099401, 0.00102622, 0.00241453
0.00268589, -0.0112537, -0.560562, 3.09957e-05, 5.52209e-05, 0.000432823, 0.463542, 0.459468, 0.283901, 0.000990537, 0.00102561, 0.00238512
0.00284417, -0.0106453, -0.558921, 2.9814e-05, 5.53838e-05, 0.00043428, 0.464915, 0.45948, 0.283574, 0.000987184, 0.00102498, 0.00235512
0.00276342, -0.0106295, -0.556474, 2.82849e-05, 5.58193e-05, 0.000434587, 0.466861, 0.459621, 0.283563, 0.000984195, 0.00102435, 0.00232734
0.00261254, -0.0115525, -0.555476, 2.77054e-05, 5.61355e-05, 0.000433928, 0.469238, 0.459943, 0.283765, 0.000981749, 0.00102371, 0.0023042
0.002282, -0.0129311, -0.554062, 2.70418e-05, 5.67083e-05, 0.000432677, 0.471741, 0.460466, 0.284017, 0.000980082, 0.00102309, 0.00228812
0.002169, -0.0146701, -0.553891, 2.68058e-05, 5.6909e-05, 0.000432322, 0.474031, 0.461147, 0.284198, 0.000979211, 0.00102256, 0.00227946
0.00135333, -0.0165262, -0.553036, 2.65857e-05, 5.74335e-05, 0.000431191, 0.475858, 0.4619, 0.284228, 0.000978885, 0.00102216, 0.00227623
0.000882081, -0.0180827, -0.551768, 2.6385e-05, 5.7849e-05, 0.00043103, 0.477125, 0.462653, 0.284094, 0.000978794, 0.00102189, 0.00227569
0.000897436, -0.0190776, -0.550717, 2.63627e-05, 5.80255e-05, 0.000431048, 0.477848, 0.463357, 0.283846, 0.00097872, 0.00102175, 0.00227564
0.000113352, -0.0199554, -0.551043, 2.6179e-05, 5.81343e-05, 0.000431527, 0.478148, 0.464012, 0.283553, 0.000978564, 0.00102169, 0.00227481
-0.000632516, -0.0208142, -0.552872, 2.563e-05, 5.82559e-05, 0.000432257, 0.47813, 0.464625, 0.283223, 0.000978308, 0.00102163, 0.00227264
-0.00131289, -0.0211403, -0.554231, 2.51497e-05, 5.83623e-05, 0.000433224, 0.477843, 0.465149, 0.282856, 0.000977939, 0.00102152, 0.00226878
-0.00287296, -0.0209641, -0.558956, 2.33879e-05, 5.87073e-05, 0.000436267, 0.477289, 0.465494, 0.28258, 0.000977432, 0.00102136, 0.00226321
-0.00152776, -0.0211672, -0.560579, 2.29508e-05, 5.91333e-05, 0.000433852, 0.476493, 0.465643, 0.282493, 0.000976799, 0.00102111, 0.00225628
0.000696362, -0.0215133, -0.56132, 2.29358e-05, 5.96096e-05, 0.000429702, 0.47561, 0.465711, 0.282623, 0.000976112, 0.00102076, 0.00224851
0.00359879, -0.0215058, -0.559717, 2.38401e-05, 5.93365e-05, 0.000424408, 0.474767, 0.465797, 0.283033, 0.000975416, 0.00102021, 0.00224076
0.00466445, -0.0218574, -0.557317, 2.4821e-05, 5.85206e-05, 0.000421694, 0.474194, 0.465993, 0.283617, 0.000974828, 0.00101959, 0.00223452
0.00537669, -0.0212994, -0.555511, 2.54912e-05, 5.78244e-05, 0.000420513, 0.474042, 0.466338, 0.284223, 0.000974358, 0.00101911, 0.00223045
0.00638974, -0.0209576, -0.555912, 2.54323e-05, 5.78512e-05, 0.00041948, 0.474374, 0.46688, 0.284626, 0.000973985, 0.0010189, 0.0022283
0.00729141, -0.0204503, -0.55661, 2.53487e-05, 5.7811e-05, 0.000418768, 0.475122, 0.467638, 0.284804, 0.000973639, 0.00101881, 0.0022272
0.00842571, -0.0202455, -0.557307, 2.5235e-05, 5.76114e-05, 0.000418257, 0.476167, 0.468554, 0.284755, 0.000973222, 0.00101871, 0.00222606
0.00885906, -0.0201739, -0.557338, 2.52362e-05, 5.75256e-05, 0.000418207, 0.4774, 0.469584, 0.284462, 0.000972649, 0.00101849, 0.00222368
0.00978781, -0.0201378, -0.55577, 2.55165e-05, 5.76195e-05, 0.000417879, 0.478763, 0.470734, 0.28406, 0.000971865, 0.00101809, 0.00221914
0.0100734, -0.0202985, -0.554603, 2.55717e-05, 5.78278e-05, 0.000418086, 0.480237, 0.472058, 0.283627, 0.000970836, 0.00101751, 0.0022117
0.0103562, -0.020686, -0.551655, 2.55653e-05, 5.8619e-05, 0.000418709, 0.481785, 0.473611, 0.28322, 0.000969571, 0.00101672, 0.00220116
0.00948771, -0.0204919, -0.54975, 2.56407e-05, 5.96884e-05, 0.000417668, 0.48329, 0.475347, 0.282873, 0.000968216, 0.0010157, 0.00218879
0.00835545, -0.0199096, -0.549519, 2.57993e-05, 6.03135e-05, 0.000415683, 0.484664, 0.477179, 0.282607, 0.000966951, 0.00101451, 0.00217677
0.00680706, -0.0192106, -0.550486, 2.58679e-05, 6.05398e-05, 0.00041368, 0.485862, 0.478975, 0.282444, 0.0009659, 0.00101328, 0.00216679
0.0061034, -0.0185276, -0.55019, 2.60088e-05, 6.10445e-05, 0.000411992, 0.486892, 0.480612, 0.282385, 0.000965122, 0.00101224, 0.00215969
0.00489466, -0.0181897, -0.548641, 2.57838e-05, 6.18785e-05, 0.000411122, 0.487811, 0.481982, 0.282383, 0.000964605, 0.00101146, 0.0021557
0.00310099, -0.0180185, -0.547415, 2.53834e-05, 6.2495e-05, 0.000410473, 0.488671, 0.482996, 0.28237, 0.000964279, 0.00101092, 0.00215417
0.00258425, -0.0185226, -0.547153, 2.52012e-05, 6.24738e-05, 0.000410461, 0.489474, 0.483602, 0.2823, 0.000964074, 0.00101054, 0.00215385
0.00256148, -0.0189128, -0.547118, 2.51867e-05, 6.23816e-05, 0.000410296, 0.490166, 0.483815, 0.282179, 0.000963925, 0.00101028, 0.0021535
0.00285464, -0.0195765, -0.548073, 2.52954e-05, 6.22942e-05, 0.000409853, 0.490756, 0.483702, 0.282007, 0.00096379, 0.00101009, 0.00215227
0.00327493, -0.0201629, -0.548764, 2.54531e-05, 6.22379e-05, 0.00040926, 0.491185, 0.483342, 0.28183, 0.000963636, 0.00100995, 0.00214998
0.0028441, -0.019905, -0.549996, 2.53951e-05, 6.24274e-05, 0.000409405, 0.491495, 0.482794, 0.281648, 0.000963435, 0.00100983, 0.00214652
0.00253525, -0.0200616, -0.550162, 2.53862e-05, 6.24556e-05, 0.00040909, 0.491792, 0.482194, 0.281463, 0.000963187, 0.00100974, 0.00214186
0.00287622, -0.0195845, -0.551347, 2.53733e-05, 6.26194e-05, 0.000409895, 0.492123, 0.481674, 0.281334, 0.000962915, 0.00100963, 0.0021362
0.00331984, -0.0197458, -0.552281, 2.54923e-05, 6.26946e-05, 0.000409609, 0.492538, 0.481333, 0.281276, 0.000962646, 0.00100952, 0.00212994
0.00323447, -0.0196592, -0.553066, 2.54815e-05, 6.28193e-05, 0.000409702, 0.493046, 0.481218, 0.281302, 0.000962407, 0.00100941, 0.00212367
0.00364216, -0.0199685, -0.554758, 2.56131e-05, 6.29985e-05, 0.000409077, 0.49364, 0.481337, 0.281421, 0.000962202, 0.00100928, 0.0021176
0.00486665, -0.0206671, -0.556061, 2.58874e-05, 6.30153e-05, 0.000407786, 0.49435, 0.4817, 0.28161, 0.000962035, 0.00100915, 0.00211178
0.00597685, -0.0211108, -0.558842, 2.60849e-05, 6.32944e-05, 0.000406783, 0.495171, 0.482306, 0.281893, 0.000961905, 0.00100898, 0.0021063
0.00507038, -0.0213088, -0.560965, 2.60201e-05, 6.3852e-05, 0.000406356, 0.496065, 0.483131, 0.282292, 0.000961808, 0.00100875, 0.00210129
0.00451609, -0.0214075, -0.563195, 2.5962e-05, 6.44566e-05, 0.000406067, 0.496945, 0.484083, 0.282786, 0.000961739, 0.00100849, 0.00209695
0.00442299, -0.0216182, -0.563722, 2.59676e-05, 6.46052e-05, 0.000405733, 0.497751, 0.485084, 0.283318, 0.000961686, 0.00100822, 0.00209327
0.00415479, -0.021657, -0.563614, 2.59648e-05, 6.46195e-05, 0.000405755, 0.49843, 0.48607, 0.283877, 0.000961641, 0.00100796, 0.00209017
0.00450676, -0.0220162, -0.564547, 2.59625e-05, 6.48415e-05, 0.000405161, 0.498967, 0.487005, 0.284444, 0.000961606, 0.00100769, 0.0020877
0.00515733, -0.0221128, -0.566219, 2.58908e-05, 6.51742e-05, 0.000404806, 0.499389, 0.487853, 0.284942, 0.000961584, 0.00100748, 0.00208605
0.00606222, -0.0224785, -0.567726, 2.5796e-05, 6.54454e-05, 0.000404275, 0.499713, 0.488568, 0.285331, 0.000961567, 0.00100732, 0.00208523
0.00692504, -0.0229021, -0.567328, 2.57773e-05, 6.54012e-05, 0.000403918, 0.499984, 0.489145, 0.285591, 0.000961528, 0.00100719, 0.00208494
0.00818253, -0.0226363, -0.563971, 2.60341e-05, 6.49904e-05, 0.000403485, 0.500329, 0.48965, 0.285687, 0.000961431, 0.00100709, 0.00208475
0.00931866, -0.0226095, -0.562668, 2.6041e-05, 6.48194e-05, 0.000403185, 0.500874, 0.4902, 0.28565, 0.000961242, 0.001007, 0.00208429
0.0105317, -0.022348, -0.5605, 2.61709e-05, 6.47512e-05, 0.000402683, 0.50162, 0.490788, 0.285402, 0.000960919, 0.0010069, 0.00208311
0.0120068, -0.0220254, -0.560198, 2.6031e-05, 6.45368e-05, 0.000402381, 0.502498, 0.491386, 0.28496, 0.000960425, 0.00100674, 0.00208053
0.0134068, -0.0220107, -0.558832, 2.58934e-05, 6.46646e-05, 0.000402425, 0.503438, 0.492023, 0.284243, 0.000959751, 0.00100635, 0.00207604
0.0142853, -0.022355, -0.558513, 2.55523e-05, 6.46e-05, 0.000403446, 0.504402, 0.492752, 0.283418, 0.000958871, 0.00100575, 0.00206908
0.0154974, -0.0222439, -0.555268, 2.54573e-05, 6.5948e-05, 0.0004032, 0.505289, 0.493625, 0.282506, 0.000957797, 0.00100474, 0.00205922
0.0165539, -0.0223997, -0.551968, 2.51524e-05, 6.78728e-05, 0.000403678, 0.506036, 0.494724, 0.281593, 0.000956546, 0.00100311, 0.00204624
0.0169075, -0.022539, -0.550239, 2.49402e-05, 6.91298e-05, 0.000403961, 0.506684, 0.496147, 0.280847, 0.00095515, 0.00100096, 0.00203063
0.0167142, -0.0222615, -0.549376, 2.51034e-05, 6.9821e-05, 0.000402858, 0.507362, 0.497916, 0.280418, 0.000953714, 0.000998808, 0.00201394
0.0155607, -0.0219538, -0.550675, 2.55733e-05, 6.90511e-05, 0.000401389, 0.507944, 0.499944, 0.28025, 0.000952386, 0.000996356, 0.00199851
0.0142258, -0.022134, -0.551954, 2.57635e-05, 6.82897e-05, 0.000401385, 0.508459, 0.502077, 0.280343, 0.000951252, 0.000993989, 0.00198537
0.0119883, -0.0220781, -0.54937, 2.56426e-05, 7.07755e-05, 0.000400126, 0.508864, 0.504092, 0.280618, 0.000950407, 0.000991861, 0.00197569
0.0125911, -0.021231, -0.546354, 2.54776e-05, 7.26655e-05, 0.00039863, 0.509291, 0.505818, 0.280958, 0.000949849, 0.000990351, 0.00196995
0.0126703, -0.0207704, -0.545752, 2.54989e-05, 7.29289e-05, 0.000398138, 0.509795, 0.507132, 0.281228, 0.000949515, 0.000989556, 0.00196753
0.0117834, -0.0209531, -0.546645, 2.56396e-05, 7.27772e-05, 0.000398021, 0.510316, 0.507963, 0.281334, 0.000949341, 0.000989214, 0.00196707
0.0107994, -0.0213718, -0.549859, 2.59985e-05, 7.26127e-05, 0.000397983, 0.510785, 0.508327, 0.281233, 0.00094927, 0.000989146, 0.00196697
0.0102432, -0.0217342, -0.552807, 2.62279e-05, 7.30645e-05, 0.000397903, 0.511139, 0.508302, 0.280949, 0.000949231, 0.000989029, 0.00196584
0.0092461, -0.0221791, -0.552844, 2.62611e-05, 7.31739e-05, 0.000397719, 0.511318, 0.507938, 0.280556, 0.000949183, 0.000988634, 0.001963
0.00812701, -0.0222178, -0.552995, 2.628e-05, 7.32925e-05, 0.000397964, 0.511347, 0.507334, 0.28013, 0.000949087, 0.000987956, 0.00195794
0.00719055, -0.0221079, -0.554271, 2.62978e-05, 7.39272e-05, 0.000398464, 0.511278, 0.506671, 0.279749, 0.000948926, 0.000987011, 0.00195052
0.00682653, -0.0220392, -0.556077, 2.63158e-05, 7.49209e-05, 0.000398735, 0.511104, 0.506104, 0.279508, 0.000948713, 0.000985763, 0.00194123
0.00722146, -0.0215579, -0.559977, 2.62465e-05, 7.72468e-05, 0.000399543, 0.510823, 0.505726, 0.279479, 0.000948464, 0.000984215, 0.0019307
0.00857665, -0.0209539, -0.561792, 2.61095e-05, 7.83649e-05, 0.000400365, 0.510427, 0.505631, 0.279718, 0.000948211, 0.000982323, 0.00191976
0.0137427, -0.0198796, -0.562623, 2.58667e-05, 7.85944e-05, 0.000401092, 0.50997, 0.505867, 0.280267, 0.000947984, 0.000980151, 0.0019091
0.0118241, -0.0201159, -0.563163, 2.58834e-05, 7.91543e-05, 0.000401122, 0.509541, 0.506416, 0.281091, 0.000947793, 0.000977903, 0.00189926
0.0110146, -0.0203126, -0.563129, 2.5891e-05, 7.91953e-05, 0.000400896, 0.509163, 0.507183, 0.282138, 0.000947639, 0.000975749, 0.00189082
0.0110383, -0.0200975, -0.56236, 2.5863e-05, 7.86061e-05, 0.000401293, 0.508822, 0.508065, 0.283354, 0.000947499, 0.000973778, 0.00188367
0.012171, -0.0194915, -0.562421, 2.58187e-05, 7.85904e-05, 0.000402502, 0.508591, 0.509003, 0.284627, 0.00094737, 0.000972141, 0.00187774
0.011145, -0.0188337, -0.559878, 2.57654e-05, 7.70552e-05, 0.000403859, 0.508493, 0.509998, 0.285914, 0.000947269, 0.00097076, 0.00187332
0.0110047, -0.0186789, -0.558694, 2.58043e-05, 7.63838e-05, 0.0004042, 0.50854, 0.511012, 0.287171, 0.000947192, 0.000969581, 0.00187052
0.0113707, -0.0191874, -0.557799, 2.59278e-05, 7.58453e-05, 0.000403884, 0.508778, 0.511974, 0.288289, 0.000947116, 0.000968652, 0.00186912
0.0107553, -0.0203176, -0.558289, 2.57311e-05, 7.5949e-05, 0.00040333, 0.509235, 0.512815, 0.289147, 0.000947004, 0.00096801, 0.00186871
0.0111719, -0.021505, -0.558564, 2.56429e-05, 7.57347e-05, 0.000403303, 0.509919, 0.513528, 0.289662, 0.000946809, 0.000967597, 0.00186869
0.0118949, -0.0221066, -0.559462, 2.55825e-05, 7.55974e-05, 0.000403529, 0.510763, 0.514118, 0.289826, 0.000946502, 0.000967258, 0.00186846
0.0128105, -0.0226536, -0.561454, 2.53932e-05, 7.52957e-05, 0.000403963, 0.511695, 0.514585, 0.289643, 0.000946049, 0.000966872, 0.00186755
0.0133038, -0.0229078, -0.563034, 2.52423e-05, 7.49204e-05, 0.000404317, 0.512662, 0.51496, 0.289093, 0.000945448, 0.000966296, 0.00186555
0.0143505, -0.0237175, -0.562439, 2.53667e-05, 7.46247e-05, 0.000405368, 0.513592, 0.515262, 0.288183, 0.000944714, 0.000965401, 0.00186194
0.0154281, -0.0243809, -0.559177, 2.57639e-05, 7.53775e-05, 0.00040611, 0.514474, 0.515549, 0.287092, 0.000943849, 0.000964226, 0.00185627
0.0169411, -0.0251493, -0.55524, 2.61303e-05, 7.68201e-05, 0.00040716, 0.515237, 0.515909, 0.285795, 0.000942876, 0.0009626, 0.00184807
0.0188577, -0.0253149, -0.551673, 2.66966e-05, 7.86276e-05, 0.000406964, 0.51587, 0.516446, 0.28447, 0.00094181, 0.000960527, 0.00183737
0.0193613, -0.0256499, -0.551467, 2.66896e-05, 7.85516e-05, 0.000407774, 0.516387, 0.517263, 0.283268, 0.000940666, 0.000958037, 0.00182475
0.0192843, -0.0255566, -0.550944, 2.66449e-05, 7.90102e-05, 0.000407535, 0.516809, 0.518428, 0.282296, 0.000939485, 0.000955207, 0.00181107
0.0193005, -0.0250208, -0.549737, 2.67502e-05, 8.0235e-05, 0.000405977, 0.51709, 0.519903, 0.281624, 0.000938365, 0.000952108, 0.00179732
0.0187924, -0.024995, -0.548892, 2.6517e-05, 8.10589e-05, 0.00040599, 0.517301, 0.52163, 0.281303, 0.000937386, 0.000949061, 0.0017846
0.0188209, -0.0249392, -0.546117, 2.60437e-05, 8.35164e-05, 0.000406016, 0.51742, 0.523498, 0.281275, 0.000936591, 0.000946095, 0.00177381
0.0191008, -0.0243308, -0.544002, 2.60294e-05, 8.52923e-05, 0.000404705, 0.517545, 0.525373, 0.281485, 0.000936006, 0.00094358, 0.00176568
0.017361, -0.0239895, -0.544339, 2.61667e-05, 8.52771e-05, 0.000404048, 0.517759, 0.527103, 0.281815, 0.000935607, 0.000941709, 0.00176069
0.0160737, -0.0239109, -0.543989, 2.62279e-05, 8.56557e-05, 0.000403867, 0.518043, 0.528515, 0.282067, 0.00093533, 0.000940272, 0.00175857
0.0146272, -0.0245472, -0.543964, 2.63325e-05, 8.59483e-05, 0.000404042, 0.518488, 0.529505, 0.282108, 0.000935109, 0.000939394, 0.00175828
0.0119755, -0.0254462, -0.548126, 2.71986e-05, 8.54733e-05, 0.000404027, 0.51907, 0.530024, 0.281855, 0.000934856, 0.000938941, 0.00175803
0.0109941, -0.0253811, -0.550595, 2.77049e-05, 8.54976e-05, 0.000404474, 0.519634, 0.530088, 0.281336, 0.000934501, 0.000938512, 0.001756
0.0107004, -0.0252607, -0.552312, 2.79629e-05, 8.5725e-05, 0.000404878, 0.520012, 0.529767, 0.280677, 0.000933992, 0.000937789, 0.00175139
0.0104806, -0.0255656, -0.55537, 2.84253e-05, 8.66711e-05, 0.000404749, 0.520241, 0.529283, 0.280023, 0.000933326, 0.000936697, 0.00174419
0.0104893, -0.0258806, -0.557043, 2.8653e-05, 8.74401e-05, 0.000404265, 0.520448, 0.528928, 0.279506, 0.000932592, 0.000935255, 0.0017348
0.0110179, -0.0258236, -0.560082, 2.8539e-05, 8.87999e-05, 0.000404564, 0.520722, 0.528891, 0.279245, 0.000931891, 0.000933597, 0.00172425
0.0120058, -0.0254446, -0.560096, 2.81289e-05, 8.85675e-05, 0.000404151, 0.521077, 0.529225, 0.279328, 0.000931251, 0.000931809, 0.00171404
0.012786, -0.0252885, -0.56042, 2.78487e-05, 8.86411e-05, 0.000403866, 0.521539, 0.529856, 0.279757, 0.000930697, 0.000930075, 0.00170499
0.0133595, -0.0257141, -0.559321, 2.7974e-05, 8.79788e-05, 0.000402886, 0.522044, 0.530671, 0.280492, 0.000930196, 0.000928412, 0.00169763
0.0136176, -0.0259415, -0.559291, 2.79414e-05, 8.79691e-05, 0.000402298, 0.522441, 0.531499, 0.281489, 0.000929716, 0.00092671, 0.00169207
0.0149008, -0.0258919, -0.560842, 2.73625e-05, 8.8914e-05, 0.000401602, 0.522523, 0.532074, 0.282664, 0.000929234, 0.000924956, 0.00168825
0.0165639, -0.0245764, -0.562855, 2.65857e-05, 9.02194e-05, 0.00040222, 0.522111, 0.532044, 0.28379, 0.000928696, 0.00092344, 0.00168605
0.018423, -0.0228872, -0.564337, 2.59531e-05, 9.14207e-05, 0.000403261, 0.521034, 0.531223, 0.284763, 0.00092805, 0.000922047, 0.00168493
0.0210434, -0.0206834, -0.566427, 2.51888e-05, 9.32286e-05, 0.000404642, 0.519362, 0.529617, 0.285441, 0.000927248, 0.000920786, 0.00168409
0.0232297, -0.0181764, -0.567292, 2.47178e-05, 9.47658e-05, 0.000405799, 0.517295, 0.527359, 0.285846, 0.000926291, 0.000919551, 0.00168311
0.0249769, -0.0165703, -0.565166, 2.51678e-05, 9.54727e-05, 0.000406464, 0.515119, 0.524705, 0.286082, 0.000925262, 0.00091827, 0.00168185
0.0263512, -0.0157091, -0.56279, 2.57909e-05, 9.58219e-05, 0.000407162, 0.51303, 0.522013, 0.286307, 0.000924223, 0.000916862, 0.0016802
0.0266296, -0.0154929, -0.559176, 2.6345e-05, 9.57135e-05, 0.000407351, 0.511381, 0.519529, 0.286421, 0.000923113, 0.0009155, 0.00167797
0.0267119, -0.0158488, -0.55571, 2.68266e-05, 9.56076e-05, 0.000407593, 0.510184, 0.517375, 0.286411, 0.000921921, 0.000914141, 0.00167546
0.0266489, -0.0165829, -0.55476, 2.6925e-05, 9.53541e-05, 0.000408195, 0.509513, 0.515735, 0.286213, 0.000920684, 0.000912731, 0.00167277
0.0258557, -0.0177739, -0.551479, 2.64299e-05, 9.54267e-05, 0.00040887, 0.509467, 0.514835, 0.285798, 0.00091939, 0.000911123, 0.00167014
0.0255401, -0.0183645, -0.549793, 2.60321e-05, 9.56346e-05, 0.000409286, 0.509985, 0.514765, 0.285227, 0.000918066, 0.000909357, 0.00166791
0.0248616, -0.0181497, -0.550929, 2.58384e-05, 9.53077e-05, 0.000409038, 0.511068, 0.515575, 0.284479, 0.000916788, 0.000907378, 0.00166592
0.0246651, -0.0185576, -0.549872, 2.53657e-05, 9.58269e-05, 0.000409321, 0.512622, 0.517235, 0.283645, 0.000915514, 0.000905125, 0.00166429
0.0243366, -0.0195458, -0.549477, 2.46362e-05, 9.59112e-05, 0.00041016, 0.514457, 0.519552, 0.282793, 0.000914212, 0.000902591, 0.00166308
0.0234206, -0.0199687, -0.550956, 2.44685e-05, 9.50825e-05, 0.000410429, 0.516304, 0.522267, 0.281938, 0.000912942, 0.000899613, 0.00166226
0.0221305, -0.0202056, -0.551578, 2.43317e-05, 9.52583e-05, 0.00041083, 0.518091, 0.525216, 0.281162, 0.000911666, 0.000896503, 0.00166167
0.0220417, -0.0208087, -0.552332, 2.40911e-05, 9.47173e-05, 0.000411138, 0.519728, 0.52823, 0.280511, 0.000910311, 0.000893257, 0.00166123
0.0212801, -0.0225843, -0.55487, 2.36769e-05, 9.3359e-05, 0.00041153, 0.52106, 0.531069, 0.280011, 0.0009089, 0.000889924, 0.00166092
0.021901, -0.0238433, -0.553764, 2.25952e-05, 9.4662e-05, 0.000412231, 0.522195, 0.533623, 0.279693, 0.000907379, 0.00088686, 0.00166051
0.0194686, -0.0256908, -0.559859, 2.3702e-05, 9.1468e-05, 0.000412543, 0.523034, 0.53584, 0.279531, 0.000905756, 0.000883773, 0.00166025
0.0204218, -0.025467, -0.557506, 2.30889e-05, 9.28608e-05, 0.000412535, 0.523535, 0.537562, 0.279494, 0.000904064, 0.000880821, 0.00165999
0.0201687, -0.0257416, -0.55858, 2.32685e-05, 9.23786e-05, 0.000412467, 0.523887, 0.538839, 0.279538, 0.000902229, 0.000878128, 0.00165974
0.0203309, -0.0256343, -0.55834, 2.31539e-05, 9.24391e-05, 0.000412437, 0.524085, 0.539671, 0.279625, 0.000900299, 0.000875646, 0.00165951
0.01954, -0.0255055, -0.560089, 2.38125e-05, 9.15611e-05, 0.000412499, 0.524157, 0.540087, 0.279717, 0.000898337, 0.000873433, 0.00165929
0.019453, -0.0250157, -0.560697, 2.38862e-05, 9.10508e-05, 0.000412496, 0.524114, 0.540165, 0.279795, 0.00089642, 0.000871438, 0.00165908
0.0196935, -0.0249251, -0.559983, 2.36486e-05, 9.11915e-05, 0.000412475, 0.523992, 0.539981, 0.279829, 0.000894631, 0.000869737, 0.00165892
0.0192858, -0.0246025, -0.559844, 2.3821e-05, 9.09894e-05, 0.000412579, 0.523798, 0.539625, 0.279829, 0.00089303, 0.000868289, 0.00165879
0.019502, -0.0242884, -0.560736, 2.37841e-05, 9.08053e-05, 0.000412529, 0.52354, 0.53917, 0.279784, 0.000891648, 0.000867059, 0.0016587
0.019436, -0.0240209, -0.561347, 2.38592e-05, 9.06857e-05, 0.000412548, 0.523246, 0.538679, 0.279702, 0.000890504, 0.000866017, 0.00165864
0.0197948, -0.0233427, -0.561623, 2.36576e-05, 9.04677e-05, 0.000412552, 0.522925, 0.538198, 0.279587, 0.000889593, 0.00086514, 0.0016586
0.0193902, -0.0226263, -0.560819, 2.36374e-05, 9.00906e-05, 0.000412618, 0.522618, 0.537765, 0.279459, 0.000888901, 0.000864416, 0.00165858
0.0195936, -0.0223042, -0.561048, 2.35645e-05, 9.00383e-05, 0.000412622, 0.522332, 0.537401, 0.279328, 0.0008884, 0.000863823, 0.00165857
0.0200015, -0.022205, -0.561198, 2.3461e-05, 9.00657e-05, 0.000412618, 0.522098, 0.537117, 0.279196, 0.000888055, 0.000863355, 0.00165856
0.0203729, -0.0219013, -0.560703, 2.33355e-05, 8.99318e-05, 0.000412626, 0.521923, 0.536921, 0.279069, 0.000887832, 0.000862988, 0.00165856
0.0205643, -0.0219925, -0.560355, 2.32916e-05, 8.9892e-05, 0.000412631, 0.521827, 0.536821, 0.27896, 0.000887699, 0.000862712, 0.00165856
0.0209035, -0.0215662, -0.560361, 2.32416e-05, 8.98429e-05, 0.00041264, 0.52181, 0.536812, 0.278862, 0.000887627, 0.000862507, 0.00165855
0.0209388, -0.0216222, -0.560568, 2.32394e-05, 8.98796e-05, 0.000412646, 0.521882, 0.536896, 0.278779, 0.000887592, 0.00086236, 0.00165854
0.0209663, -0.0215191, -0.55982, 2.32374e-05, 8.97692e-05, 0.00041264, 0.522046, 0.537075, 0.278718, 0.000887576, 0.000862254, 0.00165853
0.0212223, -0.0213632, -0.560175, 2.32345e-05, 8.97966e-05, 0.000412648, 0.522291, 0.537338, 0.278667, 0.000887566, 0.000862177, 0.00165852
0.0208889, -0.0209125, -0.559859, 2.32639e-05, 8.97762e-05, 0.000412606, 0.522618, 0.537683, 0.278624, 0.000887553, 0.00086212, 0.0016585
0.0209016, -0.0205975, -0.559598, 2.32893e-05, 8.97583e-05, 0.000412582, 0.523022, 0.538107, 0.278593, 0.000887533, 0.000862073, 0.00165848
0.0206479, -0.0205899, -0.559518, 2.32855e-05, 8.97677e-05, 0.000412571, 0.523493, 0.5386, 0.278569, 0.000887504, 0.00086203, 0.00165847
0.0207095, -0.0203166, -0.558781, 2.33266e-05, 8.97342e-05, 0.000412548, 0.524024, 0.539156, 0.278552, 0.000887465, 0.000861989, 0.00165845
0.0207983, -0.0201938, -0.558838, 2.33411e-05, 8.97326e-05, 0.000412545, 0.524604, 0.539761, 0.278537, 0.000887418, 0.000861945, 0.00165843
0.0210616, -0.0196116, -0.558931, 2.34159e-05, 8.97343e-05, 0.000412504, 0.525232, 0.540417, 0.278531, 0.000887365, 0.000861899, 0.00165842
0.0212309, -0.0191908, -0.558953, 2.34713e-05, 8.97304e-05, 0.000412483, 0.525898, 0.541112, 0.278528, 0.000887307, 0.00086185, 0.0016584
0.0209871, -0.0196787, -0.558945, 2.34024e-05, 8.97393e-05, 0.000412511, 0.526596, 0.54184, 0.27853, 0.000887247, 0.000861798, 0.00165839
0.0212076, -0.0201887, -0.559471, 2.3347e-05, 8.96927e-05, 0.000412552, 0.527313, 0.542589, 0.278532, 0.000887185, 0.000861745, 0.00165838
0.0211916, -0.0206648, -0.559926, 2.32874e-05, 8.96732e-05, 0.000412584, 0.528042, 0.54335, 0.278529, 0.000887123, 0.000861691, 0.00165836
0.0210248, -0.0205641, -0.559775, 2.3297e-05, 8.96969e-05, 0.000412572, 0.528779, 0.544118, 0.278527, 0.000887062, 0.000861637, 0.00165835
0.0209045, -0.0211758, -0.559544, 2.32205e-05, 8.97023e-05, 0.000412611, 0.52952, 0.54489, 0.27853, 0.000887003, 0.000861584, 0.00165834
0.0211651, -0.0214688, -0.559764, 2.319e-05, 8.96611e-05, 0.000412632, 0.530261, 0.54566, 0.278538, 0.000886945, 0.000861532, 0.00165833
0.0214765, -0.0216278, -0.55946, 2.31808e-05, 8.96315e-05, 0.000412637, 0.530999, 0.546426, 0.278544, 0.00088689, 0.000861482, 0.00165832
0.0216366, -0.0220017, -0.559456, 2.31371e-05, 8.96107e-05, 0.00041266, 0.531734, 0.547186, 0.278553, 0.000886836, 0.000861433, 0.00165831
0.0217616, -0.0223999, -0.559627, 2.30921e-05, 8.95919e-05, 0.000412683, 0.532465, 0.547942, 0.278562, 0.000886785, 0.000861386, 0.0016583
0.0216255, -0.0229284, -0.559768, 2.30315e-05, 8.9603e-05, 0.000412712, 0.533189, 0.548688, 0.278563, 0.000886734, 0.00086134, 0.00165829
0.0216989, -0.0232705, -0.559991, 2.29945e-05, 8.95929e-05, 0.000412727, 0.533911, 0.549431, 0.278565, 0.000886685, 0.000861295, 0.00165829
0.0220481, -0.0234215, -0.560309, 2.29786e-05, 8.95547e-05, 0.000412733, 0.534629, 0.55017, 0.27857, 0.000886636, 0.000861251, 0.00165828
0.0222725, -0.0235123, -0.560547, 2.29692e-05, 8.95301e-05, 0.000412736, 0.535341, 0.550901, 0.278574, 0.000886589, 0.000861208, 0.00165827
0.0221283, -0.0234992, -0.56138, 2.29711e-05, 8.9542e-05, 0.000412735, 0.536045, 0.551622, 0.278575, 0.000886543, 0.000861166, 0.00165826
0.0217298, -0.023457, -0.561221, 2.29776e-05, 8.95821e-05, 0.000412737, 0.536741, 0.552335, 0.278571, 0.000886498, 0.000861124, 0.00165826
0.0218118, -0.0232977, -0.560704, 2.29959e-05, 8.95717e-05, 0.000412725, 0.537427, 0.553038, 0.278567, 0.000886454, 0.000861084, 0.00165825
0.0218094, -0.0234436, -0.560449, 2.29776e-05, 8.95738e-05, 0.000412733, 0.538104, 0.553732, 0.278564, 0.00088641, 0.000861045, 0.00165824
0.0217822, -0.0235311, -0.560236, 2.29685e-05, 8.95771e-05, 0.000412738, 0.538778, 0.554422, 0.278565, 0.000886368, 0.000861007, 0.00165823
0.0219591, -0.0236148, -0.560664, 2.29618e-05, 8.95604e-05, 0.000412739, 0.539449, 0.555111, 0.278571, 0.000886326, 0.000860969, 0.00165822
0.0219283, -0.0233905, -0.559801, 2.2986e-05, 8.95604e-05, 0.000412727, 0.540119, 0.555797, 0.278572, 0.000886284, 0.000860932, 0.00165821
